
\data\
ngram 1=660
ngram 2=2106
ngram 3=476

\1-grams:
-0.8558467	</s>
-99	<s>	-0.4466306
-3.641176	กระเทียม	-0.2085776
-3.641176	กระแส	-0.20987
-3.641176	กรุงศรี	-0.2082788
-3.340147	กลับ	-0.2096714
-3.641176	กลางวัน	-0.207481
-3.340147	กล้วย	-0.2090751
-2.796078	กว่า	-0.6164432
-3.641176	กสิกร	-0.2082788
-3.039117	กะเพรา	-0.2082788
-3.641176	กัญชา	-0.1448875
-2.465085	กัน	-0.8360096
-2.738086	กับ	-0.2342571
-3.641176	การ	-0.2095721
-3.641176	กาแฟ	-0.2014504
-3.641176	กำกับ	-0.2068817
-3.641176	กิจกรรม	-0.2067817
-2.298754	กิน	-0.1583885
-3.641176	กินข้าว	-0.2029659
-3.641176	กีฬา	-0.2069816
-1.987964	กี่	-0.9613256
-3.039117	กี่โมง	-0.3181745
-3.641176	กุมภา	-0.1950269
-3.641176	กู๊ด	-0.2099692
-3.164055	ก็	-1.993663
-3.340147	ก็ได้	-0.1410662
-2.942207	ก่อน	-0.1710962
-3.641176	ก่อนหน้า	-0.1448875
-2.942207	ก๋วยเตี๋ยว	-0.1991163
-3.641176	ขนม	-0.20987
-3.641176	ขนาด	-0.2099692
-3.641176	ขวด	-0.2097707
-3.641176	ขวัญ	-0.2068817
-2.122663	ขอ	-0.4536017
-2.362423	ของ	-0.213112
-3.641176	ขอบคุณ	-0.1448875
-3.039117	ขั้น	-0.24299
-2.942207	ขาย	-0.2066817
-3.641176	ขี้เกียจ	-0.2097707
-3.641176	ข้อมูล	-0.2061815
-3.641176	ข้าง	-0.2099692
-3.641176	ข้าม	-0.1448875
-2.796078	ข้าว	-0.4795443
-3.641176	ข้าวโพด	-0.2099692
-2.942207	คณะ	-0.2397864
-2.942207	คน	-0.2047776
-3.164055	ครั้ง	-0.2072813
-3.340147	คราว	-0.1326102
-3.641176	ครีมเมอรี่	-0.1950269
-2.279449	ครึ่ง	-0.8907336
-3.641176	คลุก	-0.2099692
-3.641176	คล้าย	-0.2092739
-3.340147	ความ	-0.2904727
-3.164055	คะแนน	-0.2617611
-3.039117	คำนวณ	-0.3826603
-3.641176	คิดส์ซาเนีย	-0.2082788
-3.641176	คิว	-0.2094727
-3.340147	คืน	-0.1273605
-2.796078	คือ	-0.3142348
-3.039117	คุย	-0.2417819
-3.641176	คู่	-0.20987
-3.641176	ค่อย	-0.2076806
-3.641176	ค่า	-0.20987
-2.863025	งบ	-0.257066
-2.109698	งาน	-0.2724682
-3.641176	ง่วง	-0.2099692
-3.039117	จบ	-0.242185
-3.641176	จอ	-0.1995232
-3.039117	จอง	-0.2344622
-3.164055	จอด	-1.995955
-2.863025	จะ	-0.2313389
-3.641176	จัง	-0.1448875
-3.039117	จัด	-0.2319946
-2.738086	จันทร์	-0.1545421
-3.340147	จับ	-0.2897767
-2.527233	จาก	-0.3074294
-2.942207	จาม	-0.3418318
-3.340147	จีน	-0.1981996
-3.164055	จุด	-0.2003357
-3.641176	จุล	-0.1950269
-2.599784	จุฬา	-0.575128
-3.164055	จ่าย	-0.2597694
-3.039117	ฉัน	-0.7864523
-2.599784	ฉาย	-0.1953111
-3.641176	ชอบ	-0.2042751
-3.641176	ชะตา	-0.20987
-3.641176	ชัฟเฟิล	-0.1448875
-3.340147	ชั่ว	-0.2008427
-2.260965	ชั่วโมง	-0.2270861
-2.527233	ชั้น	-0.2911503
-3.164055	ชาบู	-0.2524211
-3.641176	ชาร์จ	-0.2099692
-3.340147	ชีวิต	-0.2258876
-2.863025	ชื่อ	-0.4867511
-3.641176	ชูกา	-0.1448875
-3.340147	ช่วง	-0.28447
-3.164055	ช่วย	-0.2605672
-3.641176	ช้า	-0.2086771
-3.340147	ซัก	-0.2034699
-3.641176	ซาวด์แทรก	-0.1448875
-3.641176	ซีท	-0.2083784
-3.641176	ซีรีย์	-0.2099692
-3.641176	ซีอิ๊ว	-0.2092739
-2.796078	ซื้อ	-0.4460261
-3.641176	ซุเปอร์มาร์เก็ต	-0.2082788
-3.340147	ซ้ำ	-0.1435018
-3.340147	ญี่ปุ่น	-0.1981996
-3.641176	ดนตรี	-0.2069816
-3.641176	ดรีม	-0.2099692
-3.641176	ดัง	-0.2052795
-3.641176	ดังๆ	-0.207481
-3.164055	ดับ	-1.996452
-2.942207	ดาว	-0.1376801
-3.641176	ดิน	-0.1995232
-2.260965	ดี	-0.6503573
-3.641176	ดื่ม	-0.2099692
-3.164055	ดู	-0.2054801
-2.641176	ด้วย	-0.3690832
-3.164055	ตรง	-1.98722
-3.641176	ตรา	-0.2097707
-3.340147	ตลาด	-0.2860788
-2.061393	ตอน	-0.4738157
-3.641176	ตอนนี้	-0.1448875
-3.340147	ตอบ	-0.2094727
-3.641176	ตัด	-0.2099692
-2.738086	ตั้ง	-2.419033
-3.340147	ตั้งแต่	-0.2019562
-2.942207	ตั๋ว	-0.1942043
-3.164055	ตาม	-1.996452
-2.942207	ตาราง	-0.3412349
-3.340147	ตำ	-0.2905721
-3.340147	ติด	-0.2081791
-3.641176	ติดต่อ	-0.2069816
-3.039117	ตี	-0.2416811
-3.641176	ตีห้า	-0.2099692
-3.641176	ตึก	-0.2099692
-2.437057	ตื่น	-0.8141595
-2.410728	ต่อ	-0.348776
-2.863025	ต่อไป	-0.154993
-3.641176	ต่ำ	-0.2086771
-3.340147	ต้น	-0.2086771
-2.863025	ต้ม	-0.4865682
-2.465085	ต้อง	-0.3904923
-3.340147	ถอย	-0.2906714
-3.340147	ถัด	-0.2877818
-3.641176	ถาม	-0.20987
-2.641176	ถึง	-0.2089318
-3.340147	ถูก	-0.1980976
-3.641176	ถ่ายรูป	-0.1995232
-3.641176	ถ้า	-0.1950269
-3.641176	ทน	-0.2099692
-3.641176	ทรี	-0.2076806
-3.641176	ทองดี	-0.2099692
-3.164055	ทอด	-0.1967696
-2.942207	ทั้ง	-0.589075
-3.641176	ทั้งวัน	-0.1448875
-2.796078	ทั้งหมด	-0.9348251
-2.465085	ทาง	-0.9395834
-2.178779	ทำ	-0.4410694
-2.942207	ทำงาน	-0.2240953
-3.340147	ที	-0.2258876
-3.641176	ทีม	-0.2082788
-1.619987	ที่	-0.5603321
-3.641176	ที่นั่ง	-0.1448875
-3.164055	ที่นี่	-0.2599689
-3.641176	ที่พัก	-0.2095721
-3.641176	ที่แล้ว	-0.1448875
-2.561995	ทุก	-0.7175907
-3.641176	ทุ่ง	-0.1448875
-2.599784	ทุ่ม	-0.1492638
-3.641176	ทูเดย์	-0.2093733
-3.039117	ธนาคาร	-0.2085775
-3.039117	ธุระ	-0.2158578
-3.164055	นอก	-1.995657
-2.437057	นอน	-0.6108674
-3.641176	นอนได้	-0.2090751
-2.122663	นะ	-0.9479511
-3.641176	นักเรียน	-0.2069816
-1.942207	นัด	-0.1443484
-3.164055	นับ	-0.2608659
-2.495049	นั่ง	-0.2975226
-3.641176	นั้น	-0.2097707
-2.122663	นาที	-0.5487539
-2.942207	นาน	-0.339439
-3.641176	นำ	-0.2099692
-3.641176	นิติ	-0.1950269
-2.686934	นี่	-0.1701977
-1.821633	นี้	-0.4433212
-3.641176	นี้่ิ	-0.2066817
-2.796078	นึง	-0.4104947
-3.039117	น่า	-0.7890534
-2.686934	น้ำ	-0.5584641
-3.641176	น้ำตาล	-0.2085776
-3.641176	น้ำปลา	-0.2085776
-3.164055	บน	-1.996452
-3.641176	บริการ	-0.2099692
-3.641176	บรูซ	-0.2099692
-3.641176	บลีช	-0.2099692
-3.641176	บอก	-0.2066817
-3.641176	บัญชี	-0.2095721
-3.164055	บัตร	-0.2618604
-3.641176	บัว	-0.2099692
-2.686934	บาท	-0.4415072
-3.340147	บิวตี้	-0.29087
-3.039117	บี	-0.2032684
-3.641176	บีทีเอส	-0.2097707
-3.340147	บีสต์	-0.2760269
-3.340147	บุฟเฟต์	-0.1899643
-2.561995	บ่าย	-0.5183039
-1.672694	บ้าง	-1.907947
-3.164055	บ้าน	-0.1950957
-3.641176	บ๊ายบาย	-0.1448875
-3.164055	ปฎิทิน	-0.2491603
-3.641176	ประชาสัมพันธ์	-0.2082788
-2.318957	ประชุม	-0.2046703
-3.641176	ประดับ	-0.2069816
-3.641176	ประทับ	-0.2099692
-3.340147	ประมาณ	-0.2895776
-3.641176	ประเภท	-0.2005386
-2.260965	ปลุก	-0.3860298
-3.340147	ปะ	-0.2258876
-3.641176	ปังเย็น	-0.1950269
-3.641176	ปาร์ค	-0.2089756
-2.599784	ปิด	-0.5663214
-3.340147	ปิ้ง	-0.1929676
-3.164055	ผม	-0.2603678
-3.641176	ผลไม้	-0.2095721
-3.641176	ผักกาด	-0.2071814
-2.641176	ผัด	-0.631953
-3.641176	ผัดซีอิ๊ว	-0.2055804
-3.641176	ผ้า	-0.2099692
-3.641176	ฝน	-0.1448875
-3.340147	ฝาก	-0.2891792
-3.340147	พร	-0.2897767
-3.641176	พริก	-0.2085776
-3.641176	พริกไทย	-0.2085776
-3.641176	พรีวิเลจ	-0.2093733
-3.641176	พรีเมี่ยม	-0.2092739
-2.942207	พรุ่ง	-0.3360265
-2.122663	พรุ่งนี้	-0.4718699
-3.340147	พฤหัส	-0.2025623
-3.641176	พอ	-0.2082788
-3.641176	พอส	-0.1448875
-3.340147	พะโล้	-0.1437331
-3.641176	พากย์	-0.2094727
-3.641176	พาณิชย์	-0.2082788
-2.796078	พารากอน	-0.1375629
-3.641176	พาราโบลา	-0.2029659
-3.641176	พิกัด	-0.2036714
-3.641176	พิการ	-0.2068817
-3.340147	พิเศษ	-0.1995232
-2.796078	พุธ	-0.1098467
-3.641176	พูด	-0.2097707
-3.641176	ฟรี	-0.2083784
-3.641176	ฟัง	-0.2042751
-3.641176	ฟันขาว	-0.2094727
-3.340147	ฟิตเนส	-0.1917274
-3.641176	ฟิฟตี้	-0.2099692
-3.340147	ฟ้า	-0.2897767
-3.039117	ภาค	-0.2090751
-3.641176	มรณะ	-0.2094727
-3.641176	มหิต	-0.1950269
-3.039117	มะรืน	-0.3767569
-3.641176	มังสวิรัติ	-0.207481
-2.942207	มัน	-0.595003
-2.410728	มั้ย	-1.190092
-2.942207	มา	-0.2686251
-3.641176	มาก	-0.2093733
-3.164055	มาบุญครอง	-0.1968719
-2.863025	มาม่า	-0.3125182
-3.641176	มาย	-0.2099692
-3.641176	มารูน	-0.2099692
-3.641176	มิยาบิ	-0.2096714
-1.46799	มี	-0.5525344
-3.641176	มีนา	-0.1950269
-3.641176	มื้อ	-0.2034699
-3.641176	มูฟวี่	-0.2082788
-3.641176	ม้้ย	-0.1448875
-2.561995	ยกเลิก	-0.4114711
-3.340147	ยัง	-0.29087
-3.340147	ยังไง	-0.2258876
-3.340147	ยา	-0.2031676
-2.863025	ยาว	-0.4956427
-3.641176	ยาโยอิ	-0.2068817
-3.641176	ยิน	-0.2097707
-2.863025	ยี่	-0.2724032
-3.641176	ยี่สิบ	-0.2067817
-3.641176	ยืนยัน	-0.2085776
-2.796078	ยู	-0.3774156
-3.641176	ย่อ	-0.2081791
-3.340147	ย้าย	-0.2876818
-2.738086	รถ	-0.4259316
-3.164055	รส	-0.2005386
-3.641176	รหัส	-0.2087767
-3.641176	รอ	-0.2095721
-3.641176	รองเท้า	-0.2092739
-2.527233	รอบ	-0.2651727
-3.164055	ระหว่าง	-0.2086771
-2.942207	รับ	-0.2369935
-2.738086	ราคา	-0.6765586
-3.641176	รางวัล	-0.2014504
-2.942207	ราย	-0.3390389
-3.641176	รายการ	-0.1995232
-3.340147	รายงาน	-0.204878
-3.641176	รายชื่อ	-0.20987
-3.641176	รายได้	-0.20987
-3.641176	ริม	-0.2094727
-3.641176	ริฮันนา	-0.1448875
-3.340147	รีวิว	-0.2075808
-3.641176	รึยัง	-0.1448875
-3.641176	รุจิศรี	-0.2093733
-3.164055	ร้อง	-0.1969453
-2.863025	ร้อย	-0.2756967
-1.834997	ร้าน	-0.7988576
-3.039117	ลด	-0.1958478
-3.641176	ลบ	-0.2042751
-3.641176	ลวก	-0.1448875
-3.641176	ลอย	-0.2099692
-3.164055	ละ	-0.2580692
-2.686934	ลา	-0.3585262
-3.641176	ลางาน	-0.208478
-3.641176	ลาน	-0.2097707
-3.641176	ลิฟท์	-0.2097707
-3.641176	ลิโด้	-0.2083784
-3.641176	ลืม	-0.2076806
-3.641176	ลุก	-0.2082788
-3.641176	ลุง	-0.1995232
-3.641176	ลูก	-0.2099692
-3.641176	ล็อบสเตอร์	-0.2094727
-3.641176	ล่า	-0.2086771
-3.641176	ล่าสุด	-0.1448875
-2.796078	วอล	-0.2336582
-2.942207	วัตถุดิบ	-0.7695332
-1.789918	วัน	-0.5544193
-3.340147	วันที่	-0.2081791
-2.362423	วันนี้	-0.2368817
-3.340147	วันศุกร์	-0.188194
-3.641176	วันหยุด	-0.2034699
-3.641176	วันเสาร์	-0.2034699
-3.641176	วันไหน	-0.2007414
-3.641176	วาน	-0.1950269
-3.641176	วานซืน	-0.2071814
-3.039117	วิธี	-0.2875818
-3.164055	วิธีทำ	-0.2606668
-3.641176	วินาที	-0.1448875
-3.641176	วิฟ	-0.1950269
-3.641176	วิลลิส	-0.2073812
-3.039117	วิศวะ	-0.2314788
-3.164055	ว่า	-0.2383904
-2.863025	ว่าง	-0.1149408
-3.340147	ศิลปิน	-0.20987
-2.863025	ศุกร์	-0.4326068
-3.641176	สคิป	-0.2096714
-3.641176	สตางค์	-0.2068817
-3.039117	สตาร์วอร์	-0.1804028
-3.641176	สต็อป	-0.1448875
-3.164055	สถานี	-0.2529283
-3.641176	สน	-0.2099692
-3.340147	สมัคร	-0.2063816
-3.164055	สมาชิก	-0.1927612
-3.641176	สยอง	-0.2099692
-3.340147	สยาม	-0.2094727
-3.164055	สระ	-1.996452
-3.340147	สร้าง	-0.2876818
-3.641176	สวิฟ	-0.1448875
-3.641176	สวีท	-0.2099692
-2.340147	สอง	-0.1276531
-3.039117	สอน	-0.3804684
-3.641176	สะสาง	-0.2007414
-3.641176	สับ	-0.2071814
-2.796078	สัปดาห์	-0.2588335
-3.164055	สั่ง	-0.1967696
-3.340147	สาขา	-0.1426915
-2.437057	สาม	-0.2079735
-3.641176	สามย่าน	-0.2092739
-3.641176	สาย	-0.2099692
-3.340147	สำหรับ	-0.2069816
-3.641176	สิงหา	-0.1950269
-2.017927	สิบ	-0.4774203
-3.340147	สิบเอ็ด	-0.1366239
-3.641176	สิ้น	-0.2091745
-2.298754	สี่	-0.229809
-3.641176	สุกี้	-0.2099692
-2.495049	สุด	-0.3089959
-3.641176	สุดท้าย	-0.2067817
-3.164055	สุภาพ	-0.2595697
-3.641176	สุ่ม	-0.2042751
-3.340147	สูง	-0.2896772
-2.942207	สูตร	-0.7748645
-3.340147	สเตย์	-0.1447722
-2.796078	สเต็ก	-0.2446562
-2.942207	สแควร์	-0.5745715
-3.164055	ส่ง	-0.25877
-3.340147	ส่วน	-0.2906714
-3.340147	ส้ม	-0.29087
-3.641176	ส้มตำ	-0.2099692
-2.527233	หก	-1.137105
-2.050112	หนัง	-0.653908
-2.796078	หนึ่ง	-0.2002363
-2.226203	หน่อย	-1.127267
-2.641176	หน้า	-0.2487083
-3.039117	หมด	-0.1811899
-3.164055	หมอ	-0.2082788
-3.039117	หมู	-0.2083784
-3.641176	หมูสับ	-0.1448875
-3.164055	หยุด	-0.1379145
-3.164055	หรือ	-0.2094727
-3.039117	หลัง	-0.20064
-3.641176	หลับ	-0.2094727
-3.340147	หวาน	-0.1273605
-3.039117	หอ	-0.2889798
-3.164055	หา	-1.996452
-3.641176	หาย	-0.2099692
-3.641176	ห่าง	-0.2099692
-2.863025	ห้อง	-0.2756967
-2.194019	ห้า	-0.309747
-3.340147	ห้าม	-0.2883812
-3.641176	อกหัก	-0.1448875
-3.641176	อด	-0.2099692
-2.437057	อยาก	-0.6303692
-2.385904	อยู่	-0.654104
-3.641176	อย่า	-0.2099692
-3.641176	อย่าง	-0.2092739
-3.340147	อย่างไร	-0.1340311
-2.796078	อร่อย	-0.9448418
-2.796078	ออก	-0.2928088
-3.164055	ออฟ	-0.2613635
-2.863025	อะ	-0.2462736
-1.706678	อะไร	-0.7836399
-2.942207	อะไรวอล	-0.1197315
-3.164055	อักษร	-0.240691
-2.942207	อังคาร	-0.1359183
-3.340147	อันดับ	-0.2901746
-3.340147	อันเดอร์วอเตอร์เวิล์ด	-0.2076806
-3.164055	อัลบั้ม	-0.2531311
-2.796078	อาทิตย์	-0.2253062
-3.340147	อาบ	-0.2901746
-3.641176	อาย	-0.2097707
-3.641176	อายุ	-0.2085776
-2.122663	อาหาร	-0.3942133
-3.641176	อินเซปชั่น	-0.2069816
-1.959935	อีก	-0.292373
-3.641176	อีกรอบ	-0.1448875
-3.641176	อีเมล	-0.2062816
-3.641176	อีเมล์	-0.2062816
-2.863025	อื่น	-0.1604514
-3.641176	อุปกรณ์	-0.2099692
-3.641176	อเมซอน	-0.2055804
-3.641176	อ้อม	-0.2099692
-3.340147	อ้อย	-0.2007414
-3.641176	อ้าว	-0.1448875
-3.641176	ฮันนี่มูน	-0.2099692
-3.641176	ฮาจิบัง	-0.2085776
-3.641176	เกลือ	-0.2085776
-3.340147	เกาหลี	-0.1981996
-3.340147	เกาเหลา	-0.1978935
-3.641176	เกิน	-0.2078801
-3.641176	เกี่ยว	-0.2092739
-3.039117	เก้า	-0.2383408
-3.641176	เขต	-0.2029659
-3.641176	เขียน	-0.2069816
-3.641176	เขียว	-0.20987
-2.863025	เข้า	-0.2257949
-3.641176	เค	-0.2068817
-3.340147	เครดิต	-0.2062816
-3.641176	เครป	-0.2096714
-3.641176	เครือ	-0.2014504
-3.164055	เครื่อง	-0.2097707
-3.641176	เคลียร์	-0.2095721
-3.641176	เคเอฟซี	-0.2090751
-2.863025	เงิน	-0.1935865
-3.039117	เงียบ	-0.1794479
-3.340147	เจฟเฟอร์	-0.1962578
-3.164055	เจียว	-0.1435019
-2.863025	เจ็ด	-0.3404298
-3.641176	เจ้า	-0.2081791
-2.942207	เจ๊	-0.239687
-3.641176	เชดส์	-0.2099692
-3.641176	เชพ	-0.2097707
-3.164055	เชื่อม	-0.2613635
-3.164055	เช็ค	-0.2588701
-3.641176	เช่า	-0.2068817
-2.686934	เช้า	-0.1531482
-3.641176	เซ	-0.2099692
-3.641176	เซนเตอร์	-0.2067817
-3.641176	เซอเคิล	-0.2093733
-3.641176	เซเว่น	-0.2055804
-3.340147	เซ็นทรัลเวิลด์	-0.1936895
-2.863025	เดอะ	-0.2348305
-2.686934	เดือน	-0.5267151
-3.641176	เด็ก	-0.2068817
-2.686934	เด็ด	-0.3487528
-2.410728	เตือน	-0.1722787
-3.641176	เถอะ	-0.1448875
-3.641176	เทค	-0.2099692
-3.641176	เทพ	-0.2099692
-2.641176	เที่ยง	-0.3247661
-3.641176	เทเลอร์	-0.2099692
-2.465085	เท่า	-1.20233
-3.641176	เท่าไร	-0.1448875
-2.796078	เท่าไหร่	-0.533629
-3.641176	เนย	-0.2068817
-3.340147	เนี่ย	-0.2258876
-3.340147	เนื้อ	-0.2852752
-3.641176	เบอร์	-0.2099692
-2.942207	เบา	-0.2322647
-3.039117	เปลี่ยน	-0.1402513
-3.641176	เปล่า	-0.1448875
-2.527233	เปิด	-0.2953297
-2.385904	เป็น	-0.3217023
-1.877749	เพลง	-0.2828336
-3.340147	เพลย์ลิส	-0.2258876
-2.863025	เพลลิสต์	-0.2707973
-3.164055	เพลิง	-0.1416474
-2.465085	เพิ่ม	-0.235839
-3.164055	เพื่อน	-0.2024614
-2.796078	เมนู	-0.2369766
-3.164055	เมื่อ	-0.2027642
-3.641176	เมื่อคืน	-0.208478
-3.164055	เมื่อวาน	-0.1877764
-3.641176	เมื่อไหร่	-0.1448875
-2.942207	เมเจอร์	-0.595003
-3.641176	เยส	-0.1448875
-2.686934	เย็น	-0.1388425
-3.641176	เย็นนี้	-0.2088761
-3.641176	เรด	-0.1448875
-3.641176	เรตติ้ง	-0.2093733
-2.942207	เรา	-0.2332752
-3.039117	เริ่ม	-0.2035706
-3.164055	เรียก	-1.995955
-3.340147	เรียง	-0.2860788
-2.738086	เรียน	-0.2330245
-3.641176	เรียนพิเศษ	-0.2082788
-3.641176	เรือ	-0.2036714
-2.136027	เรื่อง	-0.6891062
-3.340147	เร็ว	-0.1326102
-3.641176	เลิฟ	-0.2093733
-3.641176	เลี้ยง	-0.2099692
-2.942207	เลื่อน	-0.2319611
-3.641176	เลโก	-0.2099692
-2.209813	เล่น	-1.065097
-2.527233	เวลา	-0.5439384
-3.641176	เววเวต	-0.1448875
-3.340147	เวียดนาม	-0.1981996
-3.641176	เศรษฐศาสตร์	-0.1950269
-3.641176	เสนอ	-0.2099692
-3.641176	เสริมสวย	-0.2014504
-3.641176	เสร็จ	-0.2082788
-2.942207	เสาร์	-0.1880896
-2.942207	เสียง	-0.2745369
-3.641176	เสือ	-0.2097707
-3.340147	เส้น	-0.2895776
-3.641176	เหมือน	-0.208478
-3.641176	เหรอ	-0.2096714
-3.641176	เหรียญ	-0.2099692
-3.164055	เหลือ	-0.2004371
-3.340147	เอ	-0.2054801
-3.164055	เอง	-0.2071815
-3.641176	เอทีเอม	-0.2097707
-3.641176	เอน	-0.208478
-3.164055	เอฟ	-0.1981996
-3.164055	เอส	-1.996452
-3.164055	เอา	-0.255859
-3.641176	เอ็กซ์	-0.2083784
-3.164055	เอ็ด	-1.987727
-3.164055	เอ็ม	-0.2598692
-3.641176	เฮท	-0.2093733
-3.641176	แกง	-0.2099692
-3.641176	แคนท์	-0.2099692
-3.641176	แคนเซิล	-0.2050788
-2.796078	แคลอรี่	-0.2298833
-3.641176	แค่	-0.2034699
-3.641176	แค่ไหน	-0.1448875
-2.942207	แจ้ง	-0.7764612
-3.340147	แดง	-0.2078801
-3.641176	แถม	-0.2093733
-2.641176	แถว	-0.2014552
-3.641176	แท็กซี่	-0.2082788
-3.641176	แนว	-0.2014504
-2.863025	แนะนำ	-0.5482507
-2.599784	แบบ	-0.2101102
-3.641176	แบ็ทแมน	-0.2094727
-2.527233	แปด	-1.010909
-3.641176	แพง	-0.2086771
-3.641176	แพทย์	-0.1448875
-2.686934	แรก	-0.2202291
-3.641176	แรนดอม	-0.2042751
-3.641176	แรนด้อม	-0.2042751
-3.641176	แลก	-0.2094727
-3.039117	แลนด์	-0.1956427
-3.641176	และ	-0.20987
-2.385904	แล้ว	-0.4352965
-3.641176	แว่น	-0.2069816
-3.641176	แสดง	-0.2068817
-3.641176	แห้ง	-0.1448875
-3.340147	แอนด์	-0.2904727
-3.641176	แอม	-0.2099692
-3.641176	แอล	-0.1950269
-3.641176	แอ็คชั่น	-0.2068817
-3.164055	แฮรี่พอตเตอร์	-0.2606668
-2.318957	โกวาจี	-0.2675439
-3.641176	โฆษณา	-0.2094727
-3.641176	โจอี้บอย	-0.1448875
-2.942207	โซน	-0.3340065
-3.641176	โซฟา	-0.2083784
-3.641176	โทร	-0.2095721
-3.641176	โทรศัพท์	-0.2069816
-3.164055	โบว์ลิ่ง	-0.1935865
-3.340147	โปรด	-0.2258876
-3.641176	โปรเจค	-0.2029659
-3.641176	โปรแกรม	-0.1448875
-3.039117	โปรโมชัน	-0.1981995
-3.340147	โปรโมชั่น	-0.1981996
-3.641176	โฟร์	-0.2076806
-1.686934	โมง	-0.545509
-2.437057	โรง	-0.3988911
-3.641176	โรงหนัง	-0.2095721
-3.641176	โรตี	-0.2099692
-3.340147	โลแกน	-0.2063816
-3.641176	โอ	-0.2096714
-3.641176	โอว	-0.2062816
-2.942207	ใกล้	-0.1588118
-3.039117	ใคร	-0.2077803
-3.641176	ใจ	-0.2007414
-2.641176	ใช้	-0.5553711
-3.641176	ใต้	-0.2099692
-2.495049	ใน	-0.2268547
-2.863025	ใส่	-0.2080795
-2.942207	ใหม่	-0.1489975
-2.738086	ให้	-0.4054626
-3.641176	ไกล	-0.1448875
-2.942207	ไก่	-0.2039733
-2.465085	ไข่	-0.3136077
-3.340147	ไง	-0.2258876
-2.149815	ได้	-0.354773
-3.641176	ได้มั้ย	-0.1448875
-3.641176	ได้ไหม	-0.2091745
-2.863025	ไทย	-0.1835783
-3.641176	ไนท์	-0.1448875
-2.122663	ไป	-0.2270936
-3.641176	ไผ่ทอง	-0.2095721
-3.641176	ไฟ	-0.2099692
-3.340147	ไฟฟ้า	-0.2066817
-3.641176	ไฟว์	-0.1448875
-2.686934	ไม่	-0.3796385
-3.340147	ไม่ว่าง	-0.2905721
-2.738086	ไร	-0.4505408
-3.641176	ไวไฟ	-0.2092739
-3.641176	ไส้	-0.2055804
-1.663453	ไหน	-0.5689931
-2.136027	ไหม	-2.958792
-3.641176	ไหม้	-0.1448875
-2.641176	ไหร่	-0.9140011
-3.340147	ไห้	-0.2062816
-3.039117	ไอ	-0.2481864
-3.340147	ไอติม	-0.2096714
-3.641176	ไอที	-0.2014504
-3.641176	ไอเดีย	-0.2090751
-3.641176	ไอแม็กซ์	-0.2091745

\2-grams:
-3.201562	<s> กระแส
-3.201562	<s> กล้วย
-2.312606	<s> กิน
-2.795525	<s> กี่
-3.201562	<s> กู๊ด
-3.201562	<s> ก๋วยเตี๋ยว
-1.28018	<s> ขอ	0.02542546
-3.201562	<s> ของ
-2.415121	<s> ขั้น	0.006203454
-3.201562	<s> ขี้เกียจ
-3.201562	<s> ข้าม
-2.415121	<s> ข้าว	-0.1239016
-3.201562	<s> ครีมเมอรี่
-2.415121	<s> คำนวณ	-0.3463548
-3.201562	<s> คิดส์ซาเนีย
-2.795525	<s> คุย	-0.1513967
-3.201562	<s> ค่า
-2.312606	<s> งาน
-3.201562	<s> ง่วง
-2.795525	<s> จอง
-3.201562	<s> จอด
-3.201562	<s> จะ
-3.201562	<s> จับ
-2.312606	<s> จาม	-0.338021
-3.201562	<s> จุด
-2.312606	<s> ฉัน	-0.0238569
-3.201562	<s> ชัฟเฟิล
-2.415121	<s> ชั้น
-3.201562	<s> ชาร์จ
-2.795525	<s> ช่วง	0.01807898
-2.312606	<s> ช่วย	0.00923718
-2.08636	<s> ซื้อ	-0.02282092
-3.201562	<s> ซุเปอร์มาร์เก็ต
-3.201562	<s> ดัง
-3.201562	<s> ดังๆ
-3.201562	<s> ดู
-3.201562	<s> ตลาด
-2.312606	<s> ตอน
-3.201562	<s> ตัด
-2.334106	<s> ตั้ง	0.155562
-1.88224	<s> ตื่น	-0.05566355
-2.795525	<s> ต่อ	-0.1130641
-3.201562	<s> ต้ม
-3.201562	<s> ถาม
-2.415121	<s> ทาง	-0.2678528
-2.334106	<s> ทำ	-0.03680133
-1.609239	<s> ที่	-0.1030373
-2.312606	<s> ที่นี่	0.00923718
-2.415121	<s> ธนาคาร
-2.415121	<s> นอน	-0.3037415
-3.201562	<s> นักเรียน
-1.609239	<s> นัด	-0.1029199
-2.795525	<s> นับ	-0.1019076
-3.201562	<s> นั่ง
-3.201562	<s> บรูซ
-3.201562	<s> บลีช
-3.201562	<s> บอก
-3.201562	<s> บัตร
-3.201562	<s> บัว
-3.201562	<s> บิวตี้
-3.201562	<s> บ่าย
-3.201562	<s> ประชาสัมพันธ์
-2.334106	<s> ประชุม	-0.05274069
-3.201562	<s> ประทับ
-1.831087	<s> ปลุก	-0.06877179
-3.201562	<s> ปังเย็น
-2.795525	<s> ปิด
-2.795525	<s> ผัด
-3.201562	<s> ผัดซีอิ๊ว
-3.201562	<s> พร
-2.08636	<s> พรุ่ง	-0.1821282
-1.706149	<s> พรุ่งนี้	-0.07636021
-3.201562	<s> พอ
-3.201562	<s> พอส
-3.201562	<s> พาราโบลา
-2.795525	<s> พุธ
-3.201562	<s> พูด
-3.201562	<s> ฟิตเนส
-2.795525	<s> มะรืน	0.1103659
-3.201562	<s> มัน
-2.312606	<s> มา	-0.06744663
-1.044967	<s> มี	-0.04993165
-3.201562	<s> มื้อ
-1.78533	<s> ยกเลิก	0.09771919
-3.201562	<s> ยืนยัน
-2.795525	<s> ย้าย	0.01807898
-2.312606	<s> ระหว่าง
-2.795525	<s> รับ	-0.1785914
-1.88224	<s> ร้าน	-0.1125033
-2.795525	<s> ลด
-3.201562	<s> ลบ
-3.201562	<s> ลาน
-3.201562	<s> ลุก
-1.506576	<s> วัน	-0.2070027
-3.201562	<s> วันที่
-2.334106	<s> วันนี้	-0.2478263
-3.201562	<s> วันศุกร์
-3.201562	<s> สคิป
-2.795525	<s> สตาร์วอร์
-3.201562	<s> สต็อป
-3.201562	<s> สถานี
-2.795525	<s> สร้าง	0.01807898
-2.415121	<s> สอน	-0.3463548
-2.334106	<s> สัปดาห์	-0.04217711
-3.201562	<s> สิบ
-3.201562	<s> สี่
-3.201562	<s> สุภาพ
-3.201562	<s> สุ่ม
-3.201562	<s> ส้มตำ
-1.58121	<s> หนัง	-0.8698332
-2.312606	<s> หยุด
-3.201562	<s> หลัง
-2.312606	<s> หา	1.383765
-2.08636	<s> ห้อง	-0.07618797
-2.795525	<s> ห้าม	0.01807898
-1.639202	<s> อยาก	-0.006960845
-3.201562	<s> อย่า
-3.201562	<s> อะไร
-3.201562	<s> อะไรวอล
-2.795525	<s> อันเดอร์วอเตอร์เวิล์ด
-2.415121	<s> อาทิตย์	-0.1864588
-3.201562	<s> อาบ
-1.423602	<s> อีก	-0.1376977
-2.795525	<s> เกาเหลา
-3.201562	<s> เครป
-3.201562	<s> เคลียร์
-2.795525	<s> เงียบ
-3.201562	<s> เจฟเฟอร์
-2.795525	<s> เช็ค	-0.1019076
-3.201562	<s> เช้า
-2.795525	<s> เดือน
-2.415121	<s> เตือน
-3.201562	<s> เที่ยง
-2.415121	<s> เบา	-0.02099121
-2.795525	<s> เปลี่ยน
-2.08636	<s> เปิด	-0.3706875
-2.795525	<s> เป็น
-2.334106	<s> เพลง	-0.3216298
-1.706149	<s> เพิ่ม	-0.04610481
-3.201562	<s> เมนู
-2.795525	<s> เมื่อ
-3.201562	<s> เมื่อคืน
-2.795525	<s> เมื่อวาน
-3.201562	<s> เย็น
-2.415121	<s> เริ่ม
-2.312606	<s> เรียก	1.383765
-2.795525	<s> เรียง	0.01807898
-2.08636	<s> เลื่อน	0.004669776
-1.530057	<s> เล่น	-0.2763355
-3.201562	<s> เสาร์
-3.201562	<s> เสือ
-2.795525	<s> เอา
-3.201562	<s> แคนเซิล
-2.415121	<s> แจ้ง	0.04844102
-2.312606	<s> แถว
-2.08636	<s> แนะนำ	0.02150707
-3.201562	<s> แปด
-3.201562	<s> แรนดอม
-3.201562	<s> แลก
-3.201562	<s> แฮรี่พอตเตอร์
-1.463111	<s> โกวาจี	0.06965772
-3.201562	<s> โฆษณา
-3.201562	<s> โซน
-3.201562	<s> โปรโมชัน
-2.066259	<s> โรง	-0.1354571
-3.201562	<s> โรตี
-3.201562	<s> โลแกน
-2.312606	<s> ใคร
-2.08636	<s> ใส่
-2.312606	<s> ไข่
-3.201562	<s> ได้
-2.795525	<s> ไป
-3.201562	<s> ไฟ
-2.415121	<s> ไม่	0.05851963
-3.201562	<s> ไอติม
-0.4162322	กระเทียม ต้อง
-0.4162322	กระแส ตอบ
-0.4162322	กรุงศรี อยู่
-0.7172621	กลับ บีทีเอส
-0.7172621	กลับ บ้าน
-0.4162322	กลางวัน หน่อย
-0.7172621	กล้วย ปิ้ง
-0.7172621	กล้วย ราคา
-0.4748892	กว่า กัน	-0.3317702
-0.3723745	กว่า จะ	-0.08467418
-0.4162322	กสิกร อยู่
-1.018292	กะเพรา ที
-1.018292	กะเพรา หมูสับ
-1.018292	กะเพรา ใช้
-1.018292	กะเพรา ไก่
-0.4162322	กัญชา </s>
-0.2218488	กัน </s>
-1.592323	กัน สำหรับ
-1.592323	กัน เถอะ
-0.7033678	กัน เอง
-1.592323	กัน แค่
-1.319322	กับ พุธ
-0.9132854	กับ ร้าน
-1.319322	กับ ลา
-1.319322	กับ ส้ม
-0.9132854	กับ หมอ
-1.319322	กับ เพลง
-0.4162322	การ แจ้ง
-0.4162322	กาแฟ อะไร
-0.4162322	กำกับ เรื่อง
-0.4162322	กิจกรรม พรุ่งนี้
-1.352618	กิน </s>
-1.758655	กิน ข้าว
-1.352618	กิน ชาบู	-0.1019076
-1.758655	กิน ดี
-1.758655	กิน บ้าง
-1.758655	กิน ผัด
-1.758655	กิน ยา
-1.352618	กิน สเต็ก	-0.2077189
-0.8911985	กิน อะไร	-0.2394727
-1.352618	กิน อาหาร
-1.758655	กิน ฮาจิบัง
-1.758655	กิน เคเอฟซี
-1.758655	กิน ไก่
-0.4162322	กินข้าว วัน
-0.4162322	กีฬา ได้
-2.069445	กี่ คน
-2.069445	กี่ งาน
-1.663408	กี่ ที่	-0.2689304
-1.663408	กี่ นัด	-0.2644212
-0.7501225	กี่ นาที	0.1674428
-2.069445	กี่ บาท
-2.069445	กี่ สาขา
-1.180489	กี่ แคลอรี่	-0.4357731
-0.2382392	กี่ โมง	-0.7250157
-0.2318512	กี่โมง </s>
-0.4162322	กุมภา มี
-0.4162322	กู๊ด ไนท์
-0.004397758	ก็ ได้
-0.7172621	ก็ได้ </s>
-0.7172621	ก็ได้ นะ
-1.115202	ก่อน </s>
-1.115202	ก่อน ซัก
-0.7091654	ก่อน นอน	-0.2456321
-1.115202	ก่อน สอง
-0.4162322	ก่อนหน้า </s>
-1.115202	ก๋วยเตี๋ยว กัญชา
-1.115202	ก๋วยเตี๋ยว ที่
-1.115202	ก๋วยเตี๋ยว รุจิศรี
-1.115202	ก๋วยเตี๋ยว อด
-1.115202	ก๋วยเตี๋ยว เรือ
-0.4162322	ขนม หวาน
-0.4162322	ขนาด นั้น
-0.4162322	ขวด ละ
-0.4162322	ขวัญ เรื่อง
-1.934746	ขอ ข้อมูล
-1.148305	ขอ นอน	0.2301498
-1.934746	ขอ พิกัด
-1.528709	ขอ รอบ	-0.2390663
-1.148305	ขอ ราย	-0.4547465
-1.934746	ขอ รายชื่อ
-0.819544	ขอ สูตร	0.4253726
-0.819544	ขอ อีก
-1.934746	ขอ เบอร์
-1.148305	ขอ เพลง
-1.934746	ขอ เรื่อง
-1.528709	ขอ เส้น	0.01807898
-1.528709	ขอ โปรโมชัน
-1.288949	ของ ที่	-0.2340714
-1.694986	ของ พรุ่งนี้
-1.694986	ของ มะรืน
-1.694986	ของ มารูน
-1.288949	ของ วัน
-1.694986	ของ วันนี้
-1.288949	ของ ศิลปิน
-1.694986	ของ สัปดาห์
-1.694986	ของ หาย
-1.694986	ของ เทเลอร์
-1.694986	ของ เมื่อวาน
-1.694986	ของ เอส
-1.694986	ของ แฮรี่พอตเตอร์
-1.694986	ของ โรงหนัง
-1.288949	ของ ได้
-0.4162322	ขอบคุณ </s>
-0.6122553	ขั้น ตอน
-1.018292	ขั้น ต่อ
-1.018292	ขั้น ถัด
-1.115202	ขาย ข้าวโพด
-1.115202	ขาย ด้วย
-1.115202	ขาย ทุก
-1.115202	ขาย น้ำ
-1.115202	ขาย ยัง
-0.4162322	ขี้เกียจ สระ
-0.4162322	ข้อมูล หนัง
-0.4162322	ข้าง แอม
-0.4162322	ข้าม </s>
-1.26133	ข้าว กี่
-0.8552934	ข้าว ผัด	-0.2283502
-0.3723745	ข้าว มัน	-0.2215589
-1.26133	ข้าว หมู
-0.4162322	ข้าวโพด คลุก
-1.115202	คณะ บัญชี
-0.7091654	คณะ วิศวะ	-0.1513967
-1.115202	คณะ อักษร
-1.115202	คณะ แพทย์
-1.115202	คน นั่ง
-1.115202	คน พิการ
-1.115202	คน มั้ย
-1.115202	คน ร้อง
-1.115202	คน แล้ว
-0.8933534	ครั้ง ต่อ
-0.8933534	ครั้ง ถ้า
-0.8933534	ครั้ง หน้า
-0.7172621	คราว </s>
-0.7172621	คราว ที่
-0.4162322	ครีมเมอรี่ มี
-0.6627578	ครึ่ง </s>
-1.77796	ครึ่ง ชั่ว
-0.4074853	ครึ่ง ชั่วโมง	-0.05171163
-1.77796	ครึ่ง ต้อง
-0.6627578	ครึ่ง นะ	0.5727886
-1.77796	ครึ่ง หน่อย
-1.77796	ครึ่ง เป็น
-0.4162322	คลุก เนย
-0.4162322	คล้าย กับ
-0.3112254	ความ ยาว
-0.8933534	คะแนน รีวิว
-0.4873166	คะแนน ไอ	-0.1513967
-0.2318512	คำนวณ แคลอรี่
-0.4162322	คิดส์ซาเนีย อยู่
-0.4162322	คิว ยาว
-0.7172621	คืน </s>
-0.7172621	คืน มี
-1.26133	คือ งาน
-0.4748892	คือ อะไร	-0.6340609
-0.8552934	คือ แถว
-1.018292	คุย งาน
-1.018292	คุย ดี
-0.6122553	คุย แบบ
-0.4162322	คู่ ชีวิต
-0.4162322	ค่อย ปลุก
-0.4162322	ค่า สมัคร
-0.7883466	งบ ประมาณ	0.01807898
-1.194383	งบ สาม
-1.194383	งบ หนึ่ง
-0.7883466	งบ ห้า	-0.2575683
-1.080255	งาน </s>
-1.058755	งาน ตอน
-1.947711	งาน ต่อไป
-1.947711	งาน บน
-1.947711	งาน บ้าง
-1.541674	งาน ประชุม	-0.2102127
-1.947711	งาน พรุ่งนี้
-1.947711	งาน มั้ย
-1.058755	งาน วัน
-1.541674	งาน วันนี้
-1.947711	งาน วันศุกร์
-1.947711	งาน หรือ
-0.8124084	งาน อะไร	0.007057689
-1.947711	งาน เจ็ด
-1.947711	งาน เตือน
-1.947711	งาน เที่ยง
-1.947711	งาน แรก
-0.4162322	ง่วง จัง
-1.018292	จบ กัน
-0.6122553	จบ กี่	0.1014694
-1.018292	จบ ก่อน
-0.4162322	จอ ที่
-0.6122553	จอง ตั๋ว
-1.018292	จอง ที่
-1.018292	จอง ได้
-0.004397758	จอด รถ
-1.194383	จะ จบ
-1.194383	จะ ซื้อ
-1.194383	จะ ออก
-1.194383	จะ เที่ยง
-0.7883466	จะ แปด	0.5399238
-0.4162322	จัง </s>
-0.6122553	จัด งาน	-0.200347
-1.018292	จัด ที่
-1.018292	จัด หน่อย
-0.9132854	จันทร์ </s>
-1.319322	จันทร์ กับ
-1.319322	จันทร์ นี้
-1.319322	จันทร์ พุธ
-0.9132854	จันทร์ มี	-0.270133
-1.319322	จันทร์ แปด
-0.3112254	จับ เวลา	-0.1603569
-1.530176	จาก บ่าย
-1.124139	จาก บ้าน	-0.1019076
-1.124139	จาก ฟ้า	0.01807898
-1.124139	จาก อัลบั้ม	-0.1019076
-1.124139	จาก เพลย์ลิส	0.01807898
-0.7437346	จาก เพลลิสต์	-0.4531196
-0.3287612	จาม สแควร์	0.02775542
-1.115202	จาม เก้า
-0.7172621	จีน อะไร
-0.7172621	จีน ไหม
-0.8933534	จุด ถ่ายรูป
-0.8933534	จุด บริการ
-0.8933534	จุด ไหน
-0.4162322	จุล มี
-0.5686692	จุฬา </s>
-0.3223222	จุฬา มี	-0.4691255
-1.457625	จุฬา เปิด
-0.8933534	จ่าย ด้วย
-0.4873166	จ่าย สาม
-0.1293365	ฉัน ตื่น
-1.018292	ฉัน ไป
-1.457625	ฉาย กี่
-1.457625	ฉาย ตอน
-1.457625	ฉาย ทั้งหมด
-1.457625	ฉาย ที่
-1.051588	ฉาย บ้าง	1.700138
-1.457625	ฉาย สิบ
-1.457625	ฉาย ห้า
-1.457625	ฉาย อยู่
-1.051588	ฉาย เรื่อง	-0.09005885
-0.4162322	ชอบ เพลง
-0.4162322	ชะตา ชีวิต
-0.4162322	ชัฟเฟิล </s>
-0.7172621	ชั่ว คราว
-0.7172621	ชั่ว โมง
-0.6611407	ชั่วโมง </s>
-1.796443	ชั่วโมง กี่
-1.390407	ชั่วโมง ครึ่ง
-1.796443	ชั่วโมง ค่อย
-1.390407	ชั่วโมง ตอน
-1.796443	ชั่วโมง นะ
-0.928987	ชั่วโมง นึง	0.03348567
-1.796443	ชั่วโมง บ้าง
-1.796443	ชั่วโมง ประชุม
-1.796443	ชั่วโมง ปลุก
-1.796443	ชั่วโมง อะ
-1.124139	ชั้น สอง
-1.530176	ชั้น สาม
-1.124139	ชั้น สี่
-1.124139	ชั้น หนึ่ง
-1.124139	ชั้น ห้า
-0.7437346	ชั้น ไหน	-0.1418216
-0.4873166	ชาบู งบ
-0.8933534	ชาบู บ้าง
-0.4162322	ชาร์จ โทรศัพท์
-0.3112254	ชีวิต </s>
-1.194383	ชื่อ ภาค
-1.194383	ชื่อ สิบ
-0.3054278	ชื่อ หนัง	-0.5785871
-1.194383	ชื่อ อะไร
-0.4162322	ชูกา </s>
-0.3112254	ช่วง นี้	-0.1694489
-0.8933534	ช่วย ด้วย
-0.4873166	ช่วย ตั้ง	-0.07148697
-0.4162322	ช้า สุด
-0.7172621	ซัก ชั่วโมง
-0.7172621	ซัก สิบ
-0.4162322	ซาวด์แทรก </s>
-0.4162322	ซีท มั้ย
-0.4162322	ซีรีย์ วันไหน
-0.4162322	ซีอิ๊ว ให้
-1.26133	ซื้อ ตั๋ว
-1.26133	ซื้อ ยา
-1.26133	ซื้อ หนึ่ง
-1.26133	ซื้อ อุปกรณ์
-0.3723745	ซื้อ เครื่อง
-0.4162322	ซุเปอร์มาร์เก็ต อยู่
-0.7172621	ซ้ำ </s>
-0.7172621	ซ้ำ ทุก
-0.7172621	ญี่ปุ่น อะไร
-0.7172621	ญี่ปุ่น ไหม
-0.4162322	ดนตรี ได้
-0.4162322	ดรีม ทีม
-0.4162322	ดัง อีก
-0.4162322	ดังๆ หน่อย
-0.004397758	ดับ เพลิง
-1.115202	ดาว </s>
-1.115202	ดาว ต้อง
-1.115202	ดาว ปิด
-1.115202	ดาว หน่อย
-1.115202	ดาว ใช้
-0.4162322	ดิน ที่
-0.1760913	ดี </s>
-1.796443	ดี ดี
-1.390407	ดี บี
-1.796443	ดี มั้ย
-1.796443	ดี หน่อย
-1.390407	ดี อยาก
-1.796443	ดี เอ็กซ์
-0.4162322	ดื่ม ขวด
-0.8933534	ดู หนัง
-0.8933534	ดู อะไรวอล
-0.8933534	ดู เนื้อ
-0.2809295	ด้วย </s>
-1.416232	ด้วย บัตร
-1.416232	ด้วย พรุ่งนี้
-1.416232	ด้วย ไหม
-0.004397758	ตรง ไหน
-0.4162322	ตรา จอด
-0.3112254	ตลาด นัด
-1.996016	ตอน กี่
-1.589979	ตอน ตี
-1.996016	ตอน ต่อ
-1.996016	ตอน ถัด
-1.589979	ตอน นี้
-0.8808136	ตอน บ่าย	0.0337543
-1.589979	ตอน สอง	-0.2188185
-1.589979	ตอน สาม
-0.8808136	ตอน สิบ	-0.298474
-1.589979	ตอน สี่
-1.209575	ตอน หก	0.4164178
-1.996016	ตอน ห้า
-1.996016	ตอน เก้า
-1.10706	ตอน เจ็ด	-0.3976785
-1.589979	ตอน เที่ยง
-1.10706	ตอน แปด	0.1999287
-1.996016	ตอน ไหน
-0.4162322	ตอนนี้ </s>
-0.7172621	ตอบ รับ
-0.7172621	ตอบ อีเมล
-0.4162322	ตัด แว่น
-0.4303665	ตั้ง ปลุก	-0.511527
-0.20412	ตั้ง เวลา	-0.1419253
-0.7172621	ตั้งแต่ วัน
-0.7172621	ตั้งแต่ เที่ยง
-1.115202	ตั๋ว ที่
-1.115202	ตั๋ว พร
-1.115202	ตั๋ว ราคา
-1.115202	ตั๋ว หนัง
-1.115202	ตั๋ว แฮรี่พอตเตอร์
-0.004397758	ตาม สั่ง
-1.115202	ตาราง ทั้งหมด
-0.3287612	ตาราง เรียน	-0.1513968
-0.3112254	ตำ เจ๊
-0.7172621	ติด กัน
-0.7172621	ติด ธุระ
-0.4162322	ติดต่อ ได้
-1.018292	ตี สอง
-0.6122553	ตี สี่
-1.018292	ตี ห้า
-0.4162322	ตีห้า วันเสาร์
-0.4162322	ตึก จุล
-0.7313965	ตื่น กี่	-0.2385258
-1.620352	ตื่น ช้า
-0.7313965	ตื่น สิบ	-0.5082493
-0.7313965	ตื่น หก	0.5331434
-1.620352	ตื่น เช้า
-1.214315	ตื่น เที่ยง	-0.1199588
-0.7313965	ตื่น แล้ว
-1.646681	ต่อ นะ
-1.646681	ต่อ อะ
-0.7792248	ต่อ อีก	-0.05083887
-1.646681	ต่อ ได้มั้ย
-1.646681	ต่อ ได้ไหม
-0.5113784	ต่อ ไป	-0.1312253
-1.194383	ต่อไป </s>
-1.194383	ต่อไป ยาว
-1.194383	ต่อไป อยู่
-0.7883466	ต่อไป อีก
-1.194383	ต่อไป เพลง
-0.4162322	ต่ำ สุด
-0.7172621	ต้น เดือน
-0.7172621	ต้น ใหม่
-1.194383	ต้ม </s>
-0.3054278	ต้ม มาม่า	-0.3976785
-0.7883466	ต้ม หน่อย	0.5399238
-1.186287	ต้อง ตื่น
-0.4771213	ต้อง ทำ	-0.2833003
-1.592323	ต้อง ปลุก
-1.592323	ต้อง มี
-1.592323	ต้อง สะสาง
-1.592323	ต้อง สุภาพ
-1.592323	ต้อง ออก
-1.592323	ต้อง เป็น
-1.186287	ต้อง ใช้	-0.2283502
-0.3112254	ถอย หลัง
-0.3112254	ถัด ไป	-0.2341036
-0.4162322	ถาม ซ้ำ
-1.416232	ถึง กี่
-1.416232	ถึง กี่โมง
-1.416232	ถึง ตี
-1.416232	ถึง ตีห้า
-1.010195	ถึง สิบ
-1.416232	ถึง สิ้น
-1.416232	ถึง สี่
-1.416232	ถึง หก
-1.416232	ถึง ห้า
-0.7172621	ถูก ที่
-0.7172621	ถูก สุด
-0.4162322	ถ่ายรูป ที่
-0.4162322	ถ้า มี
-0.4162322	ทน รอ
-0.4162322	ทรี ดี
-0.4162322	ทองดี ฟันขาว
-0.8933534	ทอด กระเทียม
-0.8933534	ทอด ที่
-0.8933534	ทอด หน่อย
-1.115202	ทั้ง วัน
-0.2262465	ทั้ง หมด	-0.04025197
-1.115202	ทั้ง เดือน
-0.4162322	ทั้งวัน </s>
-0.3723745	ทั้งหมด </s>
-0.3723745	ทั้งหมด ของ	-0.1389231
-1.26133	ทั้งหมด ที่
-1.592323	ทาง เข้า
-0.7033678	ทาง เชื่อม	0.00923718
-1.186287	ทาง ไป
-0.2218488	ทาง ไหน	-0.7781513
-1.87863	ทำ กะเพรา
-1.87863	ทำ คน
-1.87863	ทำ บัตร
-1.472593	ทำ บ้าง	1.700138
-0.9896745	ทำ ผัด	-0.00881401
-1.87863	ทำ ราย
-1.87863	ทำ รายได้
-1.87863	ทำ สุกี้
-1.87863	ทำ หมู
-0.559308	ทำ อะไร	0.2876302
-1.87863	ทำ เงิน
-1.87863	ทำ แกง
-1.472593	ทำ แบบ	-0.2326033
-1.87863	ทำ ให้
-1.092189	ทำ ไข่	-0.041548
-0.7091654	ทำงาน ตอน
-1.115202	ทำงาน ที่
-1.115202	ทำงาน แปด
-1.115202	ทำงาน ไร
-0.3112254	ที </s>
-0.4162322	ทีม เป็น
-2.437422	ที่ </s>
-1.548466	ที่ คณะ	-0.06744663
-2.437422	ที่ จอง
-2.437422	ที่ จอด
-2.031385	ที่ จาม
-1.65098	ที่ ฉาย
-2.437422	ที่ ทำ
-2.437422	ที่ ทำงาน
-0.9420081	ที่ นั่ง	0.01253636
-2.437422	ที่ นิติ
-1.066947	ที่ นี่	0.005082464
-2.031385	ที่ พารากอน
-2.031385	ที่ มาบุญครอง
-2.031385	ที่ ยี่	0.003601132
-2.437422	ที่ วิศวะ
-1.548466	ที่ สิบ
-2.437422	ที่ สิบเอ็ด
-1.322219	ที่ สุด	0.1021572
-2.437422	ที่ หอ
-2.437422	ที่ ห่าง
-2.437422	ที่ อักษร
-2.437422	ที่ เจ็ด
-2.437422	ที่ เซ็นทรัลเวิลด์
-2.437422	ที่ เท่า
-2.437422	ที่ เท่าไหร่
-2.437422	ที่ เปลี่ยน
-2.437422	ที่ เป็น
-2.437422	ที่ เมเจอร์
-2.437422	ที่ เร็ว
-2.437422	ที่ เศรษฐศาสตร์
-2.437422	ที่ เหลือ
-2.437422	ที่ เอน
-2.031385	ที่ แล้ว
-2.031385	ที่ ใกล้	-0.1785914
-2.031385	ที่ ใน	-0.175057
-0.5026754	ที่ ไหน	-0.1851221
-0.4162322	ที่นั่ง </s>
-0.8933534	ที่นี่ ปิด
-0.4873166	ที่นี่ เปิด
-0.4162322	ที่พัก ใกล้
-0.4162322	ที่แล้ว </s>
-1.495413	ทุก ครั้ง
-1.495413	ทุก รายการ
-0.1760913	ทุก วัน	-0.05668518
-1.089377	ทุก อาทิตย์
-0.4162322	ทุ่ง </s>
-1.051588	ทุ่ม </s>
-1.457625	ทุ่ม ถึง
-1.457625	ทุ่ม ที่
-1.457625	ทุ่ม นึง
-1.051588	ทุ่ม บ้าง	1.700138
-1.051588	ทุ่ม วัน	-0.1851592
-1.457625	ทุ่ม สี่
-1.457625	ทุ่ม ออก
-0.4162322	ทูเดย์ สเต็ก
-1.018292	ธนาคาร กรุงศรี
-1.018292	ธนาคาร กสิกร
-1.018292	ธนาคาร ยู
-1.018292	ธนาคาร ไทย
-0.6122553	ธุระ </s>
-0.6122553	ธุระ อะไร	-0.2680285
-0.004397758	นอก จุฬา	-0.3322515
-1.214315	นอน </s>
-0.20412	นอน ต่อ	-0.06091474
-1.214315	นอน อีก
-1.620352	นอน ได้
-1.620352	นอน ไม่
-0.4162322	นอนได้ ถึง
-0.08715018	นะ </s>
-1.06729	นะ พรุ่งนี้	-0.146184
-0.4162322	นักเรียน ได้
-1.709165	นัด </s>
-1.709165	นัด กับ	-0.2164347
-2.115202	นัด กิน
-2.115202	นัด กินข้าว
-1.709165	นัด ตอน
-2.115202	นัด ตั้งแต่
-2.115202	นัด ต่อ
-2.115202	นัด ต่อไป
-1.709165	นัด ทั้งหมด	-0.03322081
-2.115202	นัด ทำงาน
-2.115202	นัด นำ
-1.328761	นัด ประชุม	-0.3008935
-2.115202	นัด มัน
-2.115202	นัด มั้ย
-1.247746	นัด วัน	-0.09591625
-2.115202	นัด วันนี้
-2.115202	นัด สาม
-2.115202	นัด สิบ
-2.115202	นัด สี่
-2.115202	นัด สุดท้าย
-2.115202	นัด ส่ง
-2.115202	นัด หมอ
-1.328761	นัด อะไร	-0.502782
-2.115202	นัด เตือน
-2.115202	นัด เพิ่ม
-1.709165	นัด เพื่อน
-2.115202	นัด เย็นนี้
-2.115202	นัด เลี้ยง
-1.247746	นัด แรก	-0.2084387
-0.4873166	นับ ถอย	0.01807898
-0.8933534	นับ เวลา
-1.56236	นั่ง ติด
-1.56236	นั่ง ถูก
-1.56236	นั่ง ทำงาน
-1.56236	นั่ง ที่
-1.56236	นั่ง บี
-1.56236	นั่ง พรีวิเลจ
-1.56236	นั่ง พรีเมี่ยม
-1.56236	นั่ง มั้ย
-1.56236	นั่ง ริม
-1.56236	นั่ง เอ
-0.6734045	นั่ง แบบ
-1.56236	นั่ง แพง
-0.4162322	นั้น ก็
-0.2174839	นาที </s>
-1.934746	นาที กลับ
-1.934746	นาที กี่
-1.528709	นาที นะ	0.4673732
-1.934746	นาที ปลุก
-1.934746	นาที ละ
-1.934746	นาที อะ
-1.934746	นาที เที่ยง
-1.934746	นาที เป็น
-1.528709	นาที แปด	0.5399238
-1.934746	นาที แล้ว
-1.934746	นาที ได้
-1.115202	นาน แค่ไหน
-0.3287612	นาน ไหม	-0.3213708
-0.4162322	นำ เสนอ
-0.4162322	นิติ มี
-1.370475	นี่ </s>
-1.370475	นี่ กลับ
-0.5030183	นี่ มี	-0.1225264
-1.370475	นี่ เครือ
-0.6434527	นี้ </s>
-1.829739	นี้ กิน	-0.2132719
-1.829739	นี้ กี่
-2.235776	นี้ คิว
-1.449335	นี้ คือ	-0.5524986
-1.829739	นี้ จัด	-0.1513967
-2.235776	นี้ ซ้ำ
-1.829739	นี้ ตอน
-2.235776	นี้ ต้อง
-0.6734159	นี้ มี	-0.08904924
-1.829739	นี้ วัน
-2.235776	นี้ ว่าง
-2.235776	นี้ ส่ง
-1.34682	นี้ หนัง	0.1987709
-1.829739	นี้ ออก
-2.235776	นี้ อีก
-2.235776	นี้ อีกรอบ
-2.235776	นี้ เป็น
-1.449335	นี้ โรง	-0.5669829
-2.235776	นี้ ใคร
-2.235776	นี้ ใหม่
-1.829739	นี้ ให้	-0.07148697
-1.829739	นี้ ไม่ว่าง	0.01807898
-0.4162322	นี้่ิ งาน
-0.8552934	นึง </s>
-0.3723745	นึง นะ	0.127378
-1.26133	นึง ปลุก
-1.26133	นึง ได้
-0.1293365	น่า กิน	-0.1421209
-1.018292	น่า สน
-1.370475	น้ำ คน
-0.2552725	น้ำ ชั้น
-1.370475	น้ำ ดื่ม
-1.370475	น้ำ เสร็จ
-1.370475	น้ำ แล้ว
-0.4162322	น้ำตาล เท่า
-0.4162322	น้ำปลา เท่า
-0.004397758	บน ปฎิทิน	0.00923718
-0.4162322	บริการ แท็กซี่
-0.4162322	บรูซ วิลลิส
-0.4162322	บลีช เทพ
-0.4162322	บอก งาน
-0.4162322	บัญชี ขาย
-0.8933534	บัตร สมาชิก
-0.4873166	บัตร เครดิต
-0.4162322	บัว ลอย
-0.9644379	บาท </s>
-0.481519	บาท กิน	-0.5532671
-0.5840337	บาท ที่	-0.5658534
-0.3112254	บิวตี้ แอนด์	0.01807898
-1.018292	บี มาก
-1.018292	บี สิบ
-1.018292	บี อยู่
-1.018292	บี เท่าไหร่
-0.4162322	บีทีเอส สถานี
-0.3112254	บีสต์ มี
-0.7172621	บุฟเฟต์ ที่
-0.7172621	บุฟเฟต์ บ้าง
-1.495413	บ่าย </s>
-0.6064578	บ่าย สอง
-1.495413	บ่าย สาม
-0.3601107	บ่าย โมง
-0.004644905	บ้าง </s>
-0.8933534	บ้าน </s>
-0.4873166	บ้าน แล้ว	0.02804046
-0.4162322	บ๊ายบาย </s>
-0.8933534	ปฎิทิน ตอน
-0.4873166	ปฎิทิน บ้าง	1.700138
-0.4162322	ประชาสัมพันธ์ อยู่
-0.8494958	ประชุม </s>
-1.738451	ประชุม กี่
-1.332415	ประชุม ครั้ง
-1.738451	ประชุม คราว
-1.738451	ประชุม งาน
-1.738451	ประชุม จาก
-0.8709951	ประชุม ตอน	-0.01215679
-1.738451	ประชุม ทุ่ม
-1.738451	ประชุม บ่าย
-1.738451	ประชุม พรุ่งนี้
-1.738451	ประชุม วัน
-1.738451	ประชุม วันนี้
-1.738451	ประชุม สาม
-0.4162322	ประดับ ได้
-0.4162322	ประทับ ตรา
-0.3112254	ประมาณ เท่า	0.1529792
-0.4162322	ประเภท ไหน
-1.796443	ปลุก </s>
-0.9074878	ปลุก ด้วย	-0.2908785
-0.6812412	ปลุก ตอน	-0.07841874
-1.796443	ปลุก ตี
-0.9074878	ปลุก ทุก	-0.1358634
-1.796443	ปลุก นะ
-1.796443	ปลุก วันหยุด
-1.796443	ปลุก สิบ
-1.796443	ปลุก สี่
-1.796443	ปลุก หก
-1.796443	ปลุก อีก
-1.796443	ปลุก เก้า
-1.390407	ปลุก เรา
-1.796443	ปลุก แปด
-1.796443	ปลุก ไป
-0.3112254	ปะ </s>
-0.4162322	ปังเย็น มี
-0.4162322	ปาร์ค ปิด
-0.3424227	ปิด กี่	0.02168028
-0.6711839	ปิด บ้าง	1.243418
-1.457625	ปิด เสียง
-1.457625	ปิด โปรแกรม
-0.7172621	ปิ้ง ที่
-0.7172621	ปิ้ง ร้าน
-0.8933534	ผม ซัก
-0.4873166	ผม แล้ว
-0.4162322	ผลไม้ ขาย
-0.4162322	ผักกาด ทำ
-0.5272765	ผัด กะเพรา
-1.416232	ผัด ซีอิ๊ว
-0.5272765	ผัด มาม่า
-1.010195	ผัด ไข่
-1.416232	ผัด ไทย
-0.4162322	ผัดซีอิ๊ว กี่
-0.4162322	ผ้า อ้อม
-0.4162322	ฝน </s>
-0.3112254	ฝาก ของ	-0.2500679
-0.3112254	พร จาก	-0.2390663
-0.4162322	พริก เท่า
-0.4162322	พริกไทย เท่า
-0.4162322	พรีวิเลจ คือ
-0.4162322	พรีเมี่ยม ราคา
-0.3287612	พรุ่ง นี้	-0.1494055
-1.115202	พรุ่ง นี้่ิ
-0.615424	พรุ่งนี้ </s>
-1.528709	พรุ่งนี้ กี่	0.1014694
-1.934746	พรุ่งนี้ กี่โมง
-1.528709	พรุ่งนี้ ตื่น	-0.1838215
-1.934746	พรุ่งนี้ ทั้ง
-1.934746	พรุ่งนี้ ทั้งวัน
-1.934746	พรุ่งนี้ ทั้งหมด
-1.934746	พรุ่งนี้ นี้
-1.934746	พรุ่งนี้ บ่าย
-0.819544	พรุ่งนี้ ปลุก	-0.07168284
-0.819544	พรุ่งนี้ มี	-0.05326265
-1.934746	พรุ่งนี้ เปลี่ยน
-1.528709	พรุ่งนี้ เรา	-0.1785914
-1.934746	พรุ่งนี้ ไม่
-1.934746	พรุ่งนี้ ไหม
-0.7172621	พฤหัส นี้
-0.7172621	พฤหัส เย็น
-0.4162322	พอ แล้ว
-0.4162322	พอส </s>
-0.7172621	พะโล้ </s>
-0.7172621	พะโล้ ใช้
-0.4162322	พากย์ ไทย
-0.4162322	พาณิชย์ อยู่
-1.26133	พารากอน </s>
-1.26133	พารากอน จ่าย
-1.26133	พารากอน ตอนนี้
-1.26133	พารากอน มั้ย
-1.26133	พารากอน อย่าง
-1.26133	พารากอน แถว
-1.26133	พารากอน ได้
-0.4162322	พาราโบลา วัน
-0.4162322	พิกัด ร้าน
-0.4162322	พิการ ไหม
-0.7172621	พิเศษ ทุก
-0.7172621	พิเศษ บ้าง
-1.26133	พุธ </s>
-1.26133	พุธ นี้
-1.26133	พุธ มี
-1.26133	พุธ ศุกร์
-1.26133	พุธ หน้า
-1.26133	พุธ ห้า
-1.26133	พุธ ไป
-0.4162322	พูด ว่า
-0.4162322	ฟรี มั้ย
-0.4162322	ฟัง เพลง
-0.4162322	ฟันขาว เข้า
-0.7172621	ฟิตเนส มี
-0.7172621	ฟิตเนส ไหม
-0.4162322	ฟิฟตี้ เชดส์
-0.3112254	ฟ้า รอบ
-1.018292	ภาค ล่า
-1.018292	ภาค ล่าสุด
-1.018292	ภาค ว่า
-1.018292	ภาค ใหม่
-0.4162322	มรณะ เดอะ
-0.4162322	มหิต มี
-0.2318512	มะรืน นี้
-0.4162322	มังสวิรัติ หน่อย
-1.115202	มัน ปิ้ง
-1.115202	มัน อยู่
-0.2262465	มัน ไก่
-0.02482358	มั้ย </s>
-1.115202	มา กิน
-0.7091654	มา ต้ม	0.02368679
-0.7091654	มา สี่	-0.2532657
-0.4162322	มาก กว่า
-0.8933534	มาบุญครอง บ้าง
-0.8933534	มาบุญครอง สอง
-0.8933534	มาบุญครอง อยู่
-0.4079425	มาม่า กัน	0.03426966
-1.194383	มาม่า หน่อย
-1.194383	มาม่า ใช้
-0.4162322	มาย อาย
-0.4162322	มารูน ไฟว์
-0.4162322	มิยาบิ หมด
-2.589418	มี </s>
-2.183382	มี กี่
-2.589418	มี คน
-2.183382	มี ความ	0.01807898
-1.094005	มี งาน	-0.1196001
-2.589418	มี จุด
-2.589418	มี ชื่อ
-2.589418	มี ซีรีย์
-2.589418	มี ตลาด
-2.183382	มี ตั๋ว
-2.589418	มี ทำงาน
-1.218944	มี ที่	-0.1059109
-2.589418	มี ที่พัก
-1.700463	มี ธุระ	-0.04025197
-0.9690663	มี นัด	-0.1019363
-1.802977	มี ประชุม	-0.0491712
-2.589418	มี ผลไม้
-2.589418	มี ผักกาด
-2.589418	มี ฟิตเนส
-2.589418	มี รส
-2.589418	มี รองเท้า
-2.589418	มี รีวิว
-0.5397178	มี ร้าน	-0.2666212
-2.589418	มี ลิฟท์
-1.802977	มี วิธี	0.01807898
-2.589418	มี ส่วน
-1.474216	มี หนัง	0.09802606
-2.589418	มี หมู
-2.589418	มี ห้อง
-1.454116	มี อะไร	0.04006737
-2.589418	มี อายุ
-2.589418	มี อเมซอน
-1.802977	มี เงิน
-2.589418	มี เซเว่น
-2.183382	มี เรียน
-2.589418	มี เวลา
-2.589418	มี เอทีเอม
-2.183382	มี แบบ
-1.802977	มี โซน	-0.4547465
-2.589418	มี โปรโมชัน
-2.183382	มี โปรโมชั่น
-2.589418	มี ไวไฟ
-2.589418	มี ไอติม
-0.4162322	มีนา มี
-0.4162322	มื้อ นี้
-0.4162322	มูฟวี่ เป็น
-0.4162322	ม้้ย </s>
-1.495413	ยกเลิก </s>
-1.495413	ยกเลิก กิจกรรม
-1.089377	ยกเลิก งาน	-0.2603298
-1.089377	ยกเลิก ตาราง	0.001974202
-1.495413	ยกเลิก ทุก
-0.3802112	ยกเลิก นัด	-0.06445793
-0.3112254	ยัง ไง	0.01807898
-0.3112254	ยังไง </s>
-0.7172621	ยา ตอน
-0.7172621	ยา ได้
-0.3054278	ยาว กี่	-0.5279739
-1.194383	ยาว มั้ย
-1.194383	ยาว เท่า
-1.194383	ยาว เท่าไหร่
-0.4162322	ยาโยอิ ไหม
-0.4162322	ยิน ว่า
-0.3269271	ยี่ สิบ	-0.01605249
-0.4162322	ยี่สิบ นาที
-0.4162322	ยืนยัน เพิ่ม
-0.3723745	ยู </s>
-1.26133	ยู อร่อย
-1.26133	ยู โอ
-1.26133	ยู ไป
-1.26133	ยู ไอ
-0.4162322	ย่อ ของ
-0.3112254	ย้าย งาน
-1.319322	รถ ชั้น
-0.4303665	รถ ดับ	1.383765
-1.319322	รถ บ้าง
-1.319322	รถ ได้
-0.9132854	รถ ไฟฟ้า
-0.8933534	รส จัด
-0.8933534	รส อะไร
-0.8933534	รส ใหม่
-0.4162322	รหัส หก
-0.4162322	รอ นาน
-0.4162322	รองเท้า ให้
-1.530176	รอบ </s>
-1.530176	รอบ จุฬา
-1.124139	รอบ ฉาย	-0.2326033
-1.530176	รอบ ต่อ
-0.6412199	รอบ นอก	1.383765
-1.530176	รอบ สอง
-1.530176	รอบ สาม
-1.124139	รอบ หก	0.8731385
-1.530176	รอบ ไหน
-0.8933534	ระหว่าง ก๋วยเตี๋ยว
-0.8933534	ระหว่าง สเต็ก
-0.8933534	ระหว่าง ส้ม
-0.7091654	รับ ฝาก	0.01807898
-1.115202	รับ สมัคร
-1.115202	รับ เรื่อง
-1.115202	รับ เหรียญ
-0.20412	ราคา เท่า	0.07319011
-0.9132854	ราคา เท่าไหร่	0.3258204
-1.319322	ราคา ไหน
-0.4162322	รางวัล อะไร
-0.3287612	ราย ชื่อ	-0.06699403
-1.115202	ราย ได้
-0.4162322	รายการ ที่
-0.7172621	รายงาน พรุ่งนี้
-0.7172621	รายงาน วันนี้
-0.4162322	รายชื่อ สาขา
-0.4162322	รายได้ สูง
-0.4162322	ริม ว่าง
-0.4162322	ริฮันนา </s>
-0.7172621	รีวิว เท่าไหร่
-0.7172621	รีวิว เป็น
-0.4162322	รึยัง </s>
-0.4162322	รุจิศรี เมนู
-0.8933534	ร้อง </s>
-0.4873166	ร้อง ไห้
-0.3269271	ร้อย บาท	-0.1321661
-2.222412	ร้าน กาแฟ
-1.333457	ร้าน ก๋วยเตี๋ยว
-2.222412	ร้าน ขนม
-2.222412	ร้าน ขาย
-2.222412	ร้าน ทูเดย์
-2.222412	ร้าน บุฟเฟต์
-2.222412	ร้าน มิยาบิ
-2.222412	ร้าน ยาโยอิ
-1.333457	ร้าน สเต็ก
-0.5509075	ร้าน อาหาร	-0.09938294
-2.222412	ร้าน เจฟเฟอร์
-2.222412	ร้าน เด็ด
-2.222412	ร้าน เปิด
-2.222412	ร้าน เสริมสวย
-2.222412	ร้าน เอ็ม
-1.816375	ร้าน ใน
-0.4259687	ร้าน ไหน	-0.3355252
-2.222412	ร้าน ไอที
-2.222412	ร้าน ไอเดีย
-1.018292	ลด สำหรับ
-1.018292	ลด อะไร
-1.018292	ลด อีก
-1.018292	ลด เสียง
-0.4162322	ลบ เพลง
-0.4162322	ลวก </s>
-0.4162322	ลอย สวีท
-0.4873166	ละ กัน	0.1249505
-0.8933534	ละ ห้า
-1.370475	ลา ก่อน
-0.5840337	ลา ลา	-0.5985925
-0.5840337	ลา แลนด์
-0.4162322	ลางาน สาม
-0.4162322	ลาน โบว์ลิ่ง
-0.4162322	ลิฟท์ ตรง
-0.4162322	ลิโด้ มั้ย
-0.4162322	ลืม ปลุก
-0.4162322	ลุก แล้ว
-0.4162322	ลุง ที่
-0.4162322	ลูก ทุ่ง
-0.4162322	ล็อบสเตอร์ เข้า
-0.4162322	ล่า สุด
-0.4162322	ล่าสุด </s>
-0.8552934	วอล มี	-0.270133
-1.26133	วอล รอบ
-0.8552934	วอล วันนี้
-1.26133	วอล เข้า
-1.26133	วอล เป็น
-0.07918125	วัตถุดิบ อะไร	-0.1258504
-1.861454	วัน </s>
-0.9481683	วัน จันทร์	0.006203435
-2.267491	วัน ตอน
-2.267491	วัน ทำงาน
-0.8970158	วัน ที่	-0.1743212
-0.737315	วัน นี้	-0.002454611
-1.48105	วัน พรุ่งนี้
-1.861454	วัน พฤหัส
-1.378535	วัน พุธ
-2.267491	วัน มะรืน
-1.861454	วัน มี
-1.152288	วัน ศุกร์	0.03408669
-2.267491	วัน อะ
-1.152288	วัน อังคาร
-2.267491	วัน อาทิตย์
-1.48105	วัน เสาร์
-2.267491	วัน ไป
-1.400034	วัน ไหน	-0.04855803
-1.861454	วัน ไหม	0.7550392
-0.7172621	วันที่ ยี่
-0.7172621	วันที่ แปด
-0.8060301	วันนี้ </s>
-1.694986	วันนี้ ตั้งแต่
-1.288949	วันนี้ ต้อง	-0.09689827
-1.694986	วันนี้ ทั้งหมด
-1.694986	วันนี้ ที่
-1.694986	วันนี้ นอนได้
-1.694986	วันนี้ นี้
-0.9085448	วันนี้ มี	-0.3481316
-1.694986	วันนี้ หน่อย
-1.288949	วันนี้ เหลือ
-1.288949	วันนี้ ไป
-0.7172621	วันศุกร์ นี้
-0.7172621	วันศุกร์ มี
-0.4162322	วันหยุด นี้
-0.4162322	วันเสาร์ นี้
-0.4162322	วันไหน บ้าง
-0.4162322	วาน มี
-0.4162322	วานซืน ทำ
-0.6122553	วิธี ทำ	-0.2581093
-0.6122553	วิธี อื่น
-0.8933534	วิธีทำ ข้าว
-0.4873166	วิธีทำ ผัด
-0.4162322	วินาที </s>
-0.4162322	วิฟ มี
-0.4162322	วิลลิส เล่น
-1.018292	วิศวะ กับ
-1.018292	วิศวะ มี
-0.6122553	วิศวะ เปิด	-0.1865851
-0.8933534	ว่า มี
-0.4873166	ว่า อะไร
-1.194383	ว่าง </s>
-1.194383	ว่าง ตอน
-1.194383	ว่าง บ้าง
-1.194383	ว่าง มั้ย
-1.194383	ว่าง วัน
-1.194383	ว่าง ไหม
-0.7172621	ศิลปิน ริฮันนา
-0.7172621	ศิลปิน โจอี้บอย
-0.3054278	ศุกร์ </s>
-1.194383	ศุกร์ จัด
-1.194383	ศุกร์ ตอน
-1.194383	ศุกร์ ยกเลิก
-0.4162322	สคิป หอ
-0.4162322	สตางค์ ไหม
-1.018292	สตาร์วอร์ ที่
-1.018292	สตาร์วอร์ ภาค
-1.018292	สตาร์วอร์ มี
-1.018292	สตาร์วอร์ ได้
-0.4162322	สต็อป </s>
-0.8933534	สถานี รถ
-0.4873166	สถานี อะไร	-0.1773402
-0.4162322	สน ใจ
-0.7172621	สมัคร งาน
-0.7172621	สมัคร สมาชิก
-0.8933534	สมาชิก มั้ย
-0.8933534	สมาชิก มี
-0.8933534	สมาชิก เมเจอร์
-0.4162322	สยอง ขวัญ
-0.7172621	สยาม สแควร์
-0.7172621	สยาม เซนเตอร์
-0.004397758	สระ ผม	0.00923718
-0.3112254	สร้าง งาน
-0.4162322	สวิฟ </s>
-0.4162322	สวีท เซอเคิล
-1.717262	สอง </s>
-1.717262	สอง ครึ่ง
-1.311225	สอง ชั่วโมง
-1.717262	สอง ถึง
-1.717262	สอง ที่
-1.717262	สอง ที่นั่ง
-0.9308212	สอง ทุ่ม
-1.311225	สอง นาที
-1.717262	สอง มี
-1.717262	สอง ร้อย
-1.717262	สอง วัน
-1.717262	สอง เดือน
-1.717262	สอง เรื่อง
-1.717262	สอง ไป
-1.717262	สอง ไส้
-0.2318512	สอน ทำ	-0.1850625
-0.4162322	สะสาง บ้าง
-0.4162322	สับ ทำ
-0.3938738	สัปดาห์ นี้	-0.2022135
-1.26133	สัปดาห์ หน้า
-0.8933534	สั่ง ที่
-0.8933534	สั่ง รอบ
-0.8933534	สั่ง ใน
-0.7172621	สาขา </s>
-0.7172621	สาขา ของ
-1.620352	สาม ชั่วโมง
-1.620352	สาม ทุ่ม
-1.620352	สาม นาที
-1.620352	สาม บ้าง
-1.620352	สาม ร้อย
-1.620352	สาม ร้าน
-1.620352	สาม วัน
-1.620352	สาม สิงหา
-1.214315	สาม สิบ
-1.620352	สาม หมู
-0.8339112	สาม โมง
-1.620352	สาม ไป
-0.4162322	สามย่าน กับ
-0.4162322	สาย รหัส
-0.7172621	สำหรับ สมาชิก
-0.7172621	สำหรับ ห้า
-0.4162322	สิงหา มี
-2.039481	สิบ </s>
-2.039481	สิบ ชั่วโมง
-2.039481	สิบ ถึง
-0.5818566	สิบ นาที	-0.1597008
-2.039481	สิบ บาท
-2.039481	สิบ มี
-2.039481	สิบ มีนา
-2.039481	สิบ ร้าน
-2.039481	สิบ วินาที
-1.253041	สิบ สอง	-0.09364297
-2.039481	สิบ สาม
-1.633445	สิบ สี่
-1.633445	สิบ ห้า
-2.039481	สิบ อันดับ
-2.039481	สิบ เจ็ด
-1.150526	สิบ เอ็ด	1.383765
-0.6690068	สิบ โมง	-0.1074647
-0.7172621	สิบเอ็ด </s>
-0.7172621	สิบเอ็ด วัน
-0.4162322	สิ้น เดือน
-1.758655	สี่ </s>
-1.352618	สี่ จ่าย	-0.1019076
-1.352618	สี่ ชั่วโมง
-0.9722139	สี่ ทุ่ม	-0.07500315
-1.758655	สี่ พรุ่งนี้
-1.758655	สี่ มี
-0.8696992	สี่ สิบ
-1.758655	สี่ เดือน
-0.8911985	สี่ โมง	-0.35565
-1.758655	สี่ ไป
-0.4162322	สุกี้ แห้ง
-0.447158	สุด </s>
-1.56236	สุด ที่
-1.56236	สุด พรุ่งนี้
-1.56236	สุด มี
-1.156323	สุด ราคา	0.1529792
-1.56236	สุด สถานี
-1.56236	สุด สอง
-1.56236	สุด อยู่
-1.56236	สุด ได้
-0.4162322	สุดท้าย พรุ่งนี้
-0.8933534	สุภาพ ก็ได้
-0.4873166	สุภาพ หน่อย
-0.4162322	สุ่ม เพลง
-0.3112254	สูง สุด	-0.081104
-0.07918125	สูตร อาหาร	-0.2814227
-0.7172621	สเตย์ </s>
-0.7172621	สเตย์ วิฟ
-0.8552934	สเต็ก งบ
-1.26133	สเต็ก รอบ
-0.8552934	สเต็ก ร้าน
-1.26133	สเต็ก สามย่าน
-1.26133	สเต็ก ใน
-0.2262465	สแควร์ มี	-0.4651043
-1.115202	สแควร์ รับ
-1.115202	สแควร์ วัน
-0.8933534	ส่ง งาน
-0.4873166	ส่ง รายงาน
-0.3112254	ส่วน ลด
-0.3112254	ส้ม ตำ	0.01807898
-0.4162322	ส้มตำ ข้าง
-0.03218468	หก โมง	-0.2479224
-2.007297	หนัง ของ
-2.007297	หนัง ทั้งหมด
-1.118341	หนัง ที่	-0.603174
-2.007297	หนัง ประเภท
-2.007297	หนัง ฟรี
-2.007297	หนัง ราคา
-2.007297	หนัง สยอง
-1.60126	หนัง อยู่
-2.007297	หนัง เมเจอร์
-0.2486419	หนัง เรื่อง	0.2255531
-1.60126	หนัง เอส	1.72376
-2.007297	หนัง แนว
-2.007297	หนัง แอ็คชั่น
-2.007297	หนัง ไทย
-1.26133	หนึ่ง ชั่วโมง
-1.26133	หนึ่ง บ้าง
-1.26133	หนึ่ง มี
-0.8552934	หนึ่ง ร้อย	0.003601132
-1.26133	หนึ่ง แถม
-1.26133	หนึ่ง ไป
-0.07255067	หน่อย </s>
-1.044765	หน่อย นะ	0.01065245
-0.6297912	หน้า </s>
-0.6297912	หน้า มี	-0.6932445
-1.416232	หน้า วัน
-1.416232	หน้า สี่
-0.6122553	หมด </s>
-1.018292	หมด ของ
-1.018292	หมด เขต
-0.8933534	หมอ กี่โมง
-0.8933534	หมอ บ่าย
-0.8933534	หมอ วันที่
-1.018292	หมู ทอด
-1.018292	หมู ปิด
-1.018292	หมู สับ
-1.018292	หมู แดง
-0.4162322	หมูสับ </s>
-0.8933534	หยุด </s>
-0.8933534	หยุด ชั่ว
-0.8933534	หยุด เพลง
-0.8933534	หรือ ซาวด์แทรก
-0.8933534	หรือ สตาร์วอร์
-0.8933534	หรือ เปล่า
-1.018292	หลัง สาม
-1.018292	หลัง สิบ
-1.018292	หลัง สี่
-1.018292	หลัง สุด
-0.4162322	หลับ อะ
-0.7172621	หวาน </s>
-0.7172621	หวาน มี
-0.6122553	หอ ยู
-0.6122553	หอ ใน
-0.004397758	หา วิธีทำ	0.00923718
-0.4162322	หาย ติดต่อ
-0.4162322	ห่าง จอ
-0.3269271	ห้อง น้ำ	0.08177574
-1.86339	ห้า </s>
-1.86339	ห้า คน
-1.86339	ห้า จะ
-1.86339	ห้า ตอน
-1.86339	ห้า ทุ่ม
-0.447158	ห้า นาที	0.2368592
-1.86339	ห้า บาท
-1.86339	ห้า มี
-1.457353	ห้า ร้อย	0.003601132
-1.86339	ห้า วัน
-1.86339	ห้า สิบ
-1.86339	ห้า อันดับ
-1.86339	ห้า เพลง
-1.076949	ห้า โมง	0.09849048
-1.86339	ห้า ไป
-0.3112254	ห้าม เล่น	0.5563142
-0.4162322	อกหัก </s>
-0.4162322	อด ทน
-0.4850495	อยาก กิน	-0.09430751
-1.620352	อยาก ตื่น
-0.7313965	อยาก ทำ
-0.7313965	อยาก นอน	-0.1870159
-1.620352	อยาก ฟัง
-1.620352	อยาก สระ
-1.671505	อยู่ </s>
-0.782549	อยู่ ชั้น	-0.5265803
-1.265468	อยู่ ตรง	1.72376
-0.30103	อยู่ ที่	-0.8361432
-1.265468	อยู่ บน	1.72376
-1.671505	อยู่ ใน
-0.4162322	อย่า ลืม
-0.4162322	อย่าง ไร
-0.7172621	อย่างไร </s>
-0.7172621	อย่างไร บ้าง
-0.3723745	อร่อย </s>
-0.3723745	อร่อย กว่า	-0.4357731
-1.26133	อร่อย ไหม
-0.4748892	ออก จาก	-0.2022671
-1.26133	ออก ทาง
-1.26133	ออก โรง
-1.26133	ออก ไป
-0.4873166	ออฟ ยู	-0.03322081
-0.8933534	ออฟ ออฟ
-0.4079425	อะ </s>
-1.194383	อะ กี่
-1.194383	อะ ไร
-0.7040495	อะไร </s>
-2.350731	อะไร กิน
-1.944694	อะไร ก็	1.72376
-1.461775	อะไร ฉาย	-0.1214586
-1.215428	อะไร ดี	-0.1398847
-1.461775	อะไร ต้อง	0.0142465
-1.944694	อะไร นะ	0.4673732
-1.944694	อะไร น่า
-0.3904304	อะไร บ้าง	0.4168254
-2.350731	อะไร พิเศษ
-1.944694	อะไร มั้ย	0.982283
-1.215428	อะไร วอล	0.007422286
-1.944694	อะไร อยู่	-0.2487583
-2.350731	อะไร ได้
-2.350731	อะไร ไป
-1.115202	อะไรวอล </s>
-1.115202	อะไรวอล ฉาย
-1.115202	อะไรวอล ที่
-1.115202	อะไรวอล บ้าง
-1.115202	อะไรวอล หรือ
-0.4873166	อักษร มี	-0.1251091
-0.8933534	อักษร ร้าน
-1.115202	อังคาร </s>
-1.115202	อังคาร ตอน
-1.115202	อังคาร ทั้ง
-1.115202	อังคาร ว่าง
-1.115202	อังคาร ห้า
-0.3112254	อันดับ แรก	-0.2230948
-0.7172621	อันเดอร์วอเตอร์เวิล์ด ปิด
-0.7172621	อันเดอร์วอเตอร์เวิล์ด เปิด
-0.8933534	อัลบั้ม อะไร
-0.4873166	อัลบั้ม เดอะ
-1.26133	อาทิตย์ </s>
-1.26133	อาทิตย์ ถึง
-0.4748892	อาทิตย์ นี้	-0.01184874
-1.26133	อาทิตย์ หน้า
-0.3112254	อาบ น้ำ
-0.4162322	อาย ออฟ
-0.4162322	อายุ เท่า
-1.934746	อาหาร กลางวัน
-1.528709	อาหาร คณะ
-1.528709	อาหาร จีน
-1.528709	อาหาร ญี่ปุ่น
-1.04579	อาหาร ตาม	1.383765
-1.934746	อาหาร ตึก
-1.04579	อาหาร ที่	0.002012046
-1.934746	อาหาร นี้
-1.934746	อาหาร มหิต
-1.934746	อาหาร มังสวิรัติ
-1.934746	อาหาร ร้าน
-1.934746	อาหาร หอ
-1.528709	อาหาร เกาหลี
-1.528709	อาหาร เวียดนาม
-1.934746	อาหาร แนะนำ
-0.819544	อาหาร ไข่
-1.528709	อาหาร ไทย
-1.528709	อาหาร ไหน
-0.4162322	อินเซปชั่น ได้
-1.311032	อีก </s>
-1.230017	อีก กี่	-0.185396
-1.230017	อีก ครึ่ง	-0.05480698
-1.230017	อีก ชั่วโมง	-0.2159915
-2.097473	อีก ที
-1.311032	อีก นาน	-0.08870662
-2.097473	อีก ปะ
-2.097473	อีก ยี่
-2.097473	อีก ยี่สิบ
-2.097473	อีก รอบ
-1.691437	อีก สอง	-0.2512431
-1.208518	อีก สิบ	-0.02995716
-2.097473	อีก สิบเอ็ด
-2.097473	อีก สี่
-2.097473	อีก หน่อย
-0.7781513	อีก ห้า	-0.2813232
-2.097473	อีก ไหม
-0.4162322	อีกรอบ </s>
-0.4162322	อีเมล ตอน
-0.4162322	อีเมล์ ตอน
-1.194383	อื่น </s>
-1.194383	อื่น ปะ
-1.194383	อื่น ยังไง
-0.7883466	อื่น อีก
-1.194383	อื่น ไหม
-0.4162322	อุปกรณ์ กีฬา
-0.4162322	อเมซอน กี่
-0.4162322	อ้อม เด็ก
-0.7172621	อ้อย ทำ
-0.7172621	อ้อย ร้าน
-0.4162322	อ้าว </s>
-0.4162322	ฮันนี่มูน ซีท
-0.4162322	ฮาจิบัง ต้อง
-0.4162322	เกลือ เท่า
-0.7172621	เกาหลี อะไร
-0.7172621	เกาหลี ไหม
-0.7172621	เกาเหลา ที่
-0.7172621	เกาเหลา สาม
-0.4162322	เกิน สี่
-0.4162322	เกี่ยว กับ
-1.018292	เก้า เอ
-1.018292	เก้า แบบ
-0.6122553	เก้า โมง
-0.4162322	เขต วัน
-0.4162322	เขียน ได้
-0.4162322	เขียว หวาน
-1.194383	เข้า รึยัง
-1.194383	เข้า วัน
-1.194383	เข้า ออก
-1.194383	เข้า เมื่อไหร่
-0.7883466	เข้า โรง
-0.4162322	เค ไหม
-0.7172621	เครดิต พารากอน
-0.7172621	เครดิต ได้
-0.4162322	เครป หอ
-0.4162322	เครือ อะไร
-0.8933534	เครื่อง ดนตรี
-0.8933534	เครื่อง ประดับ
-0.8933534	เครื่อง เขียน
-0.4162322	เคลียร์ ตาราง
-0.4162322	เคเอฟซี ใช้
-1.194383	เงิน ที่
-1.194383	เงิน สอง
-1.194383	เงิน สูง
-1.194383	เงิน หนึ่ง
-1.194383	เงิน ห้า
-1.194383	เงิน เท่าไร
-0.6122553	เงียบ </s>
-1.018292	เงียบ เงียบ
-1.018292	เงียบ ได้
-0.7172621	เจฟเฟอร์ ที่
-0.7172621	เจฟเฟอร์ ไหม
-0.8933534	เจียว </s>
-0.8933534	เจียว ยังไง
-0.8933534	เจียว ใช้
-0.7883466	เจ็ด เดือน
-0.4079425	เจ็ด โมง	-0.1015321
-0.4162322	เจ้า ของ
-1.115202	เจ๊ ดาว
-0.7091654	เจ๊ อ้อย
-1.115202	เจ๊ แดง
-1.115202	เจ๊ โอว
-0.4162322	เชดส์ เรตติ้ง
-0.4162322	เชพ ออฟ
-0.8933534	เชื่อม รถ
-0.4873166	เชื่อม สยาม
-0.4873166	เช็ค งาน
-0.8933534	เช็ค อีเมล์
-0.4162322	เช่า ไหม
-0.9644379	เช้า </s>
-1.370475	เช้า นะ
-1.370475	เช้า นี้
-1.370475	เช้า พรุ่งนี้
-0.9644379	เช้า วัน
-1.370475	เช้า อะ
-1.370475	เช้า เช้า
-0.4162322	เซ เยส
-0.4162322	เซนเตอร์ ไป
-0.4162322	เซอเคิล เมนู
-0.4162322	เซเว่น กี่
-0.7172621	เซ็นทรัลเวิลด์ มี
-0.7172621	เซ็นทรัลเวิลด์ รอบ
-0.7883466	เดอะ บีสต์	0.01807898
-1.194383	เดอะ มูฟวี่
-1.194383	เดอะ ล็อบสเตอร์
-1.194383	เดอะ เรด
-1.194383	เดอะ เววเวต
-1.370475	เดือน </s>
-1.370475	เดือน กุมภา
-0.9644379	เดือน นี้
-0.2552725	เดือน หน้า	-0.169201
-0.4162322	เด็ก ไหม
-0.5840337	เด็ด บ้าง	1.243418
-1.370475	เด็ด รอบ
-0.5840337	เด็ด เด็ด	-0.5985925
-1.646681	เตือน </s>
-1.646681	เตือน กิน
-1.240644	เตือน ครึ่ง	-0.05738973
-0.8602402	เตือน ด้วย	-0.04156417
-1.646681	เตือน พรุ่งนี้
-1.646681	เตือน ลางาน
-1.646681	เตือน สาม
-1.646681	เตือน สิบ
-1.646681	เตือน ห้า
-1.646681	เตือน เที่ยง
-1.240644	เตือน ให้
-1.646681	เตือน ไป
-0.4162322	เถอะ </s>
-0.4162322	เทค มาย
-0.4162322	เทพ มรณะ
-1.010195	เที่ยง </s>
-1.010195	เที่ยง คืน
-1.416232	เที่ยง ถึง
-0.5272765	เที่ยง นะ	-0.1229588
-1.416232	เที่ยง นี้
-1.416232	เที่ยง หน่อย
-0.4162322	เทเลอร์ สวิฟ
-0.50515	เท่า ไร	0.1089076
-0.20412	เท่า ไหร่	0.01807892
-0.4162322	เท่าไร </s>
-0.1260275	เท่าไหร่ </s>
-0.4162322	เนย ไหม
-0.3112254	เนี่ย </s>
-0.3112254	เนื้อ เพลง
-0.4162322	เบอร์ โทร
-1.115202	เบา หน่อย
-1.115202	เบา อีก
-1.115202	เบา เบา
-0.7091654	เบา เสียง
-1.018292	เปลี่ยน </s>
-1.018292	เปลี่ยน ประชุม
-1.018292	เปลี่ยน ผ้า
-1.018292	เปลี่ยน เป็น
-0.4162322	เปล่า </s>
-0.7437346	เปิด กี่	-0.3552513
-1.530176	เปิด ทุก
-1.530176	เปิด ยี่
-1.530176	เปิด เกิน
-1.530176	เปิด เนื้อ
-0.7437346	เปิด เพลง
-1.530176	เปิด ใหม่
-0.782549	เป็น กัน	-0.5171672
-1.671505	เป็น บุฟเฟต์
-1.671505	เป็น พากย์
-1.265468	เป็น วัน
-1.265468	เป็น สี่	-0.2132719
-1.265468	เป็น หนัง
-1.265468	เป็น อย่างไร
-1.671505	เป็น เจ้า
-1.671505	เป็น เพื่อน
-1.265468	เป็น เวลา
-1.671505	เป็น แบบ
-1.312204	เพลง </s>
-1.290704	เพลง ก่อน	-0.06744663
-2.17966	เพลง ก่อนหน้า
-1.393219	เพลง ของ	-0.0924677
-2.17966	เพลง ครึ่ง
-2.17966	เพลง คู่
-1.312204	เพลง จาก	-0.3918219
-2.17966	เพลง ชะตา
-2.17966	เพลง ชูกา
-1.393219	เพลง ต่อไป
-2.17966	เพลง ที่แล้ว
-0.8091855	เพลง นี้	-0.07058702
-2.17966	เพลง บ้าง
-2.17966	เพลง ฝน
-2.17966	เพลง ลูก
-1.773623	เพลง สเตย์
-2.17966	เพลง หน่อย
-2.17966	เพลง อกหัก
-1.290704	เพลง อะไร	-0.1568838
-2.17966	เพลง อื่น
-2.17966	เพลง อ้าว
-2.17966	เพลง เชพ
-2.17966	เพลง เซ
-2.17966	เพลง แคนท์
-1.773623	เพลง โปรด	0.01807898
-2.17966	เพลง ใกล้
-2.17966	เพลง ไกล
-2.17966	เพลง ไอ
-0.3112254	เพลย์ลิส </s>
-0.3269271	เพลลิสต์ เพลง	-0.13124
-0.8933534	เพลิง </s>
-0.8933534	เพลิง หน่อย
-0.8933534	เพลิง เร็ว
-1.592323	เพิ่ม การ
-1.186287	เพิ่ม ตาราง	0.001974202
-0.724867	เพิ่ม นัด
-1.592323	เพิ่ม วัน
-1.592323	เพิ่ม อีก
-1.592323	เพิ่ม เวลา
-1.592323	เพิ่ม เสียง
-1.186287	เพิ่ม ใน	-0.2415793
-0.8933534	เพื่อน คุย
-0.8933534	เพื่อน วัน
-0.8933534	เพื่อน เหรอ
-1.26133	เมนู ต้ม
-1.26133	เมนู ทอด
-0.8552934	เมนู นี้
-1.26133	เมนู รส
-0.8552934	เมนู ไหน	-0.268501
-0.8933534	เมื่อ วัน
-0.8933534	เมื่อ วาน
-0.8933534	เมื่อ วานซืน
-0.4162322	เมื่อคืน นอน
-0.8933534	เมื่อวาน ฉัน
-0.8933534	เมื่อวาน นี้
-0.8933534	เมื่อวาน มี
-0.4162322	เมื่อไหร่ </s>
-0.2262465	เมเจอร์ พารากอน
-1.115202	เมเจอร์ ราคา
-1.115202	เมเจอร์ แถว
-0.4162322	เยส </s>
-0.9644379	เย็น </s>
-1.370475	เย็น ถึง
-1.370475	เย็น นี้
-0.9644379	เย็น มี
-1.370475	เย็น วัน
-1.370475	เย็น วันนี้
-1.370475	เย็น เป็น
-0.4162322	เย็นนี้ ยกเลิก
-0.4162322	เรด </s>
-0.4162322	เรตติ้ง เท่าไหร่
-1.115202	เรา จบ
-0.7091654	เรา ต้อง	-0.2437455
-1.115202	เรา สิบ
-1.115202	เรา หก
-1.018292	เริ่ม จับ
-1.018292	เริ่ม ต้น
-1.018292	เริ่ม นับ
-1.018292	เริ่ม เพลง
-0.004397758	เรียก รถ	-0.4114821
-0.3112254	เรียง นัด	-0.2644212
-1.319322	เรียน กี่
-1.319322	เรียน ทุก
-0.9132854	เรียน บ่าย
-1.319322	เรียน พิเศษ
-0.9132854	เรียน วัน	-0.2210717
-1.319322	เรียน แปด
-0.4162322	เรียนพิเศษ อยู่
-0.4162322	เรือ ร้าน
-1.921382	เรื่อง ดรีม
-1.921382	เรื่อง ทองดี
-1.921382	เรื่อง บิวตี้
-1.921382	เรื่อง ฟิฟตี้
-1.921382	เรื่อง ย่อ
-1.032426	เรื่อง ลา	-0.481867
-1.921382	เรื่อง สตาร์วอร์
-0.4637573	เรื่อง อะไร	-0.4635355
-1.032426	เรื่อง อะไรวอล
-1.921382	เรื่อง อินเซปชั่น
-1.921382	เรื่อง เดอะ
-1.921382	เรื่อง เลโก
-1.921382	เรื่อง โลแกน
-0.80618	เรื่อง ไหน	-0.2487965
-0.7172621	เร็ว </s>
-0.7172621	เร็ว ที่
-0.4162322	เลิฟ ยู
-0.4162322	เลี้ยง สาย
-1.115202	เลื่อน นัด
-0.7091654	เลื่อน ประชุม
-1.115202	เลื่อน ส่ง
-1.115202	เลื่อน เวลา
-0.4162322	เลโก แบ็ทแมน
-1.847596	เล่น หนัง
-1.847596	เล่น ห้า
-0.06963593	เล่น เพลง	-0.07002679
-1.441559	เล่น โบว์ลิ่ง
-0.6412199	เวลา </s>
-1.530176	เวลา ครึ่ง
-1.530176	เวลา ปลุก
-1.530176	เวลา ว่าง
-1.530176	เวลา สี่
-0.4149733	เวลา เตือน
-1.530176	เวลา เรียน
-0.4162322	เววเวต </s>
-0.7172621	เวียดนาม อะไร
-0.7172621	เวียดนาม ไหม
-0.4162322	เศรษฐศาสตร์ มี
-0.4162322	เสนอ โปรเจค
-0.4162322	เสริมสวย อะไร
-0.4162322	เสร็จ แล้ว
-1.115202	เสาร์ ติด
-1.115202	เสาร์ ที่
-1.115202	เสาร์ นี้
-1.115202	เสาร์ หน้า
-1.115202	เสาร์ ไป
-0.3287612	เสียง </s>
-1.115202	เสียง หน่อย
-0.4162322	เสือ ร้อง
-0.3112254	เส้น ทาง	-0.2437455
-0.4162322	เหมือน โรง
-0.4162322	เหรอ คุย
-0.4162322	เหรียญ สตางค์
-0.8933534	เหลือ งาน
-0.8933534	เหลือ อีก
-0.8933534	เหลือ ใน
-0.7172621	เอ สิบ
-0.7172621	เอ เก้า
-0.8933534	เอง ก็ได้
-0.8933534	เอง ขนาด
-0.8933534	เอง หน่อย
-0.4162322	เอทีเอม จุด
-0.4162322	เอน นอน
-0.8933534	เอฟ ที่
-0.8933534	เอฟ มาบุญครอง
-0.8933534	เอฟ แถว
-0.004397758	เอส เอฟ
-0.8933534	เอา ออก
-0.4873166	เอา เพลง	-0.1997576
-0.4162322	เอ็กซ์ มั้ย
-0.004397758	เอ็ด โมง	0.05203506
-0.4873166	เอ็ม ดี	-0.254944
-0.8933534	เอ็ม เค
-0.4162322	เฮท ยู
-0.4162322	แกง เขียว
-0.4162322	แคนท์ เทค
-0.4162322	แคนเซิล นัด
-0.4748892	แคลอรี่ </s>
-1.26133	แคลอรี่ ข้าว
-1.26133	แคลอรี่ อาหาร
-1.26133	แคลอรี่ เมนู
-0.4162322	แค่ นี้
-0.4162322	แค่ไหน </s>
-0.07918125	แจ้ง เตือน	-0.06402875
-0.7172621	แดง กับ
-0.7172621	แดง ใน
-0.4162322	แถม หนึ่ง
-1.416232	แถว จุฬา
-1.010195	แถว ที่
-1.010195	แถว นี้
-1.416232	แถว หลัง
-1.416232	แถว อะไร
-1.416232	แถว แถว
-1.416232	แถว แอล
-1.416232	แถว ไหน
-0.4162322	แท็กซี่ อยู่
-0.4162322	แนว อะไร
-0.7883466	แนะนำ อาหาร
-0.3054278	แนะนำ เมนู
-1.194383	แนะนำ ไหม
-1.457625	แบบ ชาบู
-1.457625	แบบ ทรี
-1.457625	แบบ สุภาพ
-1.051588	แบบ อื่น
-1.457625	แบบ ฮันนี่มูน
-1.457625	แบบ เป็น
-1.457625	แบบ โซฟา
-1.457625	แบบ โฟร์
-1.457625	แบบ ใส่
-1.457625	แบบ ไหน
-0.4162322	แบ็ทแมน ยาว
-1.530176	แปด ชั่วโมง
-1.530176	แปด ว่าง
-0.07255067	แปด โมง	0.03048916
-0.4162322	แพง สุด
-0.4162322	แพทย์ </s>
-0.9644379	แรก </s>
-0.5840337	แรก ของ
-1.370475	แรก คือ
-1.370475	แรก วัน
-1.370475	แรก สุด
-0.4162322	แรนดอม เพลง
-0.4162322	แรนด้อม เพลง
-0.4162322	แลก เงิน
-1.018292	แลนด์ บ้าง
-1.018292	แลนด์ รอบ
-1.018292	แลนด์ เข้า
-1.018292	แลนด์ ได้
-0.4162322	และ กล้วย
-0.30103	แล้ว </s>
-1.671505	แล้ว จะ
-1.671505	แล้ว นอน
-1.671505	แล้ว นะ
-1.671505	แล้ว มี
-1.671505	แล้ว เงียบ
-1.671505	แล้ว เตือน
-1.265468	แล้ว เนี่ย	0.01807898
-1.671505	แล้ว เมื่อ
-0.4162322	แว่น ได้
-0.4162322	แสดง เรื่อง
-0.4162322	แห้ง </s>
-0.3112254	แอนด์ เดอะ	-0.1958189
-0.4162322	แอม ปาร์ค
-0.4162322	แอล มี
-0.4162322	แอ็คชั่น เรื่อง
-0.4873166	แฮรี่พอตเตอร์ ภาค
-0.8933534	แฮรี่พอตเตอร์ รอบ
-0.6232493	โกวาจี </s>
-1.738451	โกวาจี ขอ
-1.738451	โกวาจี ขอบคุณ
-1.738451	โกวาจี จอง
-1.738451	โกวาจี บ๊ายบาย
-1.738451	โกวาจี ลา
-1.738451	โกวาจี วันนี้
-1.738451	โกวาจี อีก
-1.738451	โกวาจี เพิ่ม
-1.738451	โกวาจี เรา
-0.8709951	โกวาจี เล่น	0.558897
-1.738451	โกวาจี แรนด้อม
-0.4162322	โฆษณา ยาว
-0.4162322	โจอี้บอย </s>
-0.3287612	โซน อะไร	-0.502782
-1.115202	โซน เรียนพิเศษ
-0.4162322	โซฟา มั้ย
-0.4162322	โทร เมเจอร์
-0.4162322	โทรศัพท์ ได้
-0.8933534	โบว์ลิ่ง ชื่อ
-0.8933534	โบว์ลิ่ง มี
-0.8933534	โบว์ลิ่ง ราคา
-0.3112254	โปรด </s>
-0.4162322	โปรเจค วัน
-0.4162322	โปรแกรม </s>
-1.018292	โปรโมชัน ดู
-1.018292	โปรโมชัน ทั้ง
-1.018292	โปรโมชัน ที่
-1.018292	โปรโมชัน มา
-0.7172621	โปรโมชั่น อะไร
-0.7172621	โปรโมชั่น ไหม
-0.4162322	โฟร์ ดี
-0.4101745	โมง </s>
-0.9542425	โมง ครึ่ง	-0.1540264
-1.584034	โมง ดี	0.2606865
-1.964438	โมง ถึง
-1.481519	โมง ทุก	-0.1249713
-1.235172	โมง นะ	0.6885056
-2.370475	โมง บ้าง
-1.964438	โมง มี	-0.264246
-2.370475	โมง ละ
-2.370475	โมง วัน
-1.964438	โมง วันนี้
-2.370475	โมง สาม
-2.370475	โมง สิบ
-1.964438	โมง ห้า	-0.081104
-1.503018	โมง เช้า	-0.05556984
-2.370475	โมง เป็น
-1.235172	โมง เย็น	-0.01225108
-1.964438	โมง แล้ว	0.02804046
-2.370475	โมง ไป
-2.370475	โมง ไม่
-1.620352	โรง พารากอน
-1.620352	โรง ลิโด้
-0.7528958	โรง หนัง	-0.1395262
-0.50515	โรง อาหาร	-0.07667917
-1.620352	โรง อื่น
-1.620352	โรง เซ็นทรัลเวิลด์
-1.620352	โรง ไอแม็กซ์
-0.4162322	โรงหนัง เมเจอร์
-0.4162322	โรตี ลุง
-0.7172621	โลแกน เข้า
-0.7172621	โลแกน ได้
-0.4162322	โอ บี
-0.4162322	โอว ตอน
-1.115202	ใกล้ </s>
-0.7091654	ใกล้ ที่	-0.2518002
-1.115202	ใกล้ ใกล้
-1.115202	ใกล้ ไหม
-1.018292	ใคร กำกับ
-1.018292	ใคร ร้อง
-1.018292	ใคร เป็น
-1.018292	ใคร แสดง
-0.4162322	ใจ บ้าง
-1.010195	ใช้ งบ	-0.1958189
-1.416232	ใช้ บ้าง
-0.30103	ใช้ วัตถุดิบ	0.4253726
-1.010195	ใช้ อะไร	-0.04606126
-0.4162322	ใต้ ดิน
-0.6949039	ใน จุฬา	0.07527763
-1.56236	ใน มี
-1.56236	ใน วันนี้
-1.56236	ใน วิศวะ
-1.56236	ใน สอง
-1.56236	ใน อักษร
-1.56236	ใน อัลบั้ม
-1.156323	ใน เพลลิสต์	0.003601132
-1.194383	ใส่ น้ำตาล
-1.194383	ใส่ น้ำปลา
-1.194383	ใส่ พริก
-1.194383	ใส่ พริกไทย
-1.194383	ใส่ เกลือ
-1.194383	ใส่ ไข่
-0.7091654	ใหม่ </s>
-1.115202	ใหม่ ที่
-1.115202	ใหม่ อะไร
-1.115202	ใหม่ ไหม
-1.319322	ให้ ดู
-1.319322	ให้ ตอบ
-0.4303665	ให้ หน่อย	0.1999287
-1.319322	ให้ เช็ค
-1.319322	ให้ เช่า
-1.319322	ให้ ใช้
-0.4162322	ไกล </s>
-1.115202	ไก่ ทอด
-1.115202	ไก่ รอบ
-1.115202	ไก่ หน่อย
-1.115202	ไก่ เจ๊
-1.115202	ไก่ ใน
-1.592323	ไข่ </s>
-0.8058825	ไข่ ดาว
-1.186287	ไข่ ต้ม
-1.186287	ไข่ พะโล้
-1.592323	ไข่ ลวก
-1.592323	ไข่ หน่อย
-0.7033678	ไข่ เจียว
-1.592323	ไข่ และ
-0.3112254	ไง </s>
-1.907594	ได้ </s>
-1.907594	ได้ กี่โมง
-1.018638	ได้ คะแนน	0.00923718
-1.907594	ได้ คือ
-1.907594	ได้ ต่ำ
-1.907594	ได้ ถึง
-1.907594	ได้ ถูก
-0.4913617	ได้ ที่	-0.8775359
-1.501557	ได้ บ้าง	1.700138
-1.907594	ได้ มั้ย
-1.907594	ได้ ม้้ย
-1.907594	ได้ ยิน
-1.907594	ได้ ยี่
-1.907594	ได้ รางวัล
-1.907594	ได้ สิบ
-1.907594	ได้ ส่วน
-1.907594	ได้ แล้ว
-1.501557	ได้ ไหม	0.7550392
-0.4162322	ได้มั้ย </s>
-0.4162322	ได้ไหม ไม่
-1.194383	ไทย ที่
-1.194383	ไทย พาณิชย์
-1.194383	ไทย หรือ
-1.194383	ไทย อะไร
-1.194383	ไทย เรื่อง
-1.194383	ไทย ไหม
-0.4162322	ไนท์ </s>
-1.06729	ไป </s>
-1.934746	ไป กี่
-1.934746	ไป จบ
-1.934746	ไป ฉาย
-1.934746	ไป ต้น
-0.615424	ไป ทาง	-0.5563025
-1.934746	ไป ทำ
-1.934746	ไป บ้าง
-1.934746	ไป ประชุม
-1.934746	ไป ยัง
-1.934746	ไป ร้าน
-1.528709	ไป วัน
-1.934746	ไป สิบ
-1.934746	ไป หนึ่ง
-1.934746	ไป ห้า
-1.934746	ไป อาบ
-1.934746	ไป เจ๊
-1.934746	ไป เป็น
-1.934746	ไป เรียน
-1.934746	ไป โรง
-0.4162322	ไผ่ทอง ขาย
-0.4162322	ไฟ ไหม้
-0.7172621	ไฟฟ้า ใต้
-0.7172621	ไฟฟ้า ไป
-0.4162322	ไฟว์ </s>
-1.370475	ไม่ ชอบ
-0.481519	ไม่ ต้อง
-1.370475	ไม่ ว่าง
-1.370475	ไม่ สระ
-1.370475	ไม่ หลับ
-1.370475	ไม่ เหมือน
-1.370475	ไม่ เอา
-0.3112254	ไม่ว่าง ทั้ง
-0.1840195	ไร </s>
-1.319322	ไร บ้าง
-0.4162322	ไวไฟ ให้
-0.4162322	ไส้ กี่
-0.39794	ไหน </s>
-2.393956	ไหน ขาย
-2.393956	ไหน คล้าย
-2.393956	ไหน จบ
-2.393956	ไหน ซื้อ
-1.526499	ไหน ดี	0.2103633
-1.505	ไหน ทำ
-2.393956	ไหน ที่
-2.393956	ไหน นะ
-1.987919	ไหน น่า	0.3161382
-0.7736036	ไหน บ้าง	0.7426789
-1.607515	ไหน ปิด	-0.6255667
-2.393956	ไหน มา
-1.505	ไหน มี	-0.1347865
-2.393956	ไหน รับ
-1.526499	ไหน อร่อย	0.2066229
-2.393956	ไหน เกี่ยว
-1.607515	ไหน เด็ด	-0.5985925
-2.393956	ไหน เปิด
-2.393956	ไหน เป็น
-2.393956	ไหน แถว
-2.393956	ไหน ได้
-0.04275198	ไหม </s>
-1.032426	ไหม กว่า	-0.3732159
-0.4162322	ไหม้ </s>
-0.09691001	ไหร่ </s>
-1.010195	ไหร่ บ้าง	1.700138
-0.7172621	ไห้ เจ๊
-0.7172621	ไห้ ไป
-1.018292	ไอ เลิฟ
-0.6122553	ไอ เอ็ม	-0.1019076
-1.018292	ไอ เฮท
-0.7172621	ไอติม รส
-0.7172621	ไอติม ไผ่ทอง
-0.4162322	ไอที อะไร
-0.4162322	ไอเดีย ใช้
-0.4162322	ไอแม็กซ์ ไม่

\3-grams:
-0.1213574	อร่อย กว่า กัน
-0.1213574	ไหม กว่า จะ
-0.0895533	กว่า กัน </s>
-0.2462961	มาม่า กัน </s>
-0.3310066	ละ กัน </s>
-0.1213574	เป็น กัน เอง
-0.3310066	นัด กับ หมอ
-0.3310066	นี้ กิน อะไร
-0.5070979	น่า กิน </s>
-0.1213574	บาท กิน อะไร
-0.8750747	อยาก กิน ชาบู
-0.8750747	อยาก กิน สเต็ก
-0.3310066	จบ กี่ โมง
-0.1213574	ตื่น กี่ โมง
-0.2547962	ปิด กี่ โมง
-0.3310066	พรุ่งนี้ กี่ โมง
-0.1213574	ยาว กี่ นาที
-0.3339775	อีก กี่ นาที
-0.0895533	เปิด กี่ โมง
-0.3310066	อะไร ก็ ได้
-0.5070979	เพลง ก่อน นอน
-0.9926433	<s> ขอ นอน
-1.535127	<s> ขอ รอบ
-0.9926433	<s> ขอ ราย
-0.9926433	<s> ขอ สูตร
-1.060976	<s> ขอ อีก
-0.9926433	<s> ขอ เพลง
-1.535127	<s> ขอ เส้น
-1.535127	<s> ขอ โปรโมชัน
-0.5070979	ทั้งหมด ของ วัน
-0.3310066	ฝาก ของ ได้
-0.6320366	เพลง ของ ศิลปิน
-0.6320366	<s> ขั้น ตอน
-0.2462961	<s> ข้าว มัน
-0.5070979	ที่ คณะ วิศวะ
-0.3339775	อีก ครึ่ง ชั่วโมง
-0.3310066	เตือน ครึ่ง ชั่วโมง
-0.4874933	โมง ครึ่ง </s>
-0.5558262	โมง ครึ่ง นะ
-0.3310066	มี ความ ยาว
-0.5070979	ได้ คะแนน ไอ
-0.0895533	<s> คำนวณ แคลอรี่
-0.0895533	นี้ คือ อะไร
-0.3310066	<s> คุย แบบ
-0.3310066	ใช้ งบ ประมาณ
-0.3310066	จัด งาน อะไร
-0.6350074	มี งาน </s>
-0.7234174	มี งาน อะไร
-0.3310066	ยกเลิก งาน ประชุม
-0.5070979	กว่า จะ แปด
-0.3310066	นี้ จัด งาน
-0.9330666	วัน จันทร์ </s>
-0.9330666	วัน จันทร์ มี
-0.3310066	พร จาก ฟ้า
-0.6320366	ออก จาก บ้าน
-0.6320366	ออก จาก เพลย์ลิส
-0.8081279	เพลง จาก อัลบั้ม
-0.2656446	เพลง จาก เพลลิสต์
-0.1213574	<s> จาม สแควร์
-0.1213574	นอก จุฬา มี
-0.8081279	ใน จุฬา </s>
-0.2656446	ใน จุฬา มี
-0.3310066	สี่ จ่าย สาม
-0.1213574	<s> ฉัน ตื่น
-0.3310066	รอบ ฉาย เรื่อง
-0.5070979	อะไร ฉาย บ้าง
-0.5143314	ครึ่ง ชั่วโมง </s>
-0.3339775	อีก ชั่วโมง นึง
-0.1213574	อยู่ ชั้น ไหน
-0.3310066	กิน ชาบู งบ
-0.2462961	ราย ชื่อ หนัง
-0.3310066	<s> ช่วง นี้
-0.5070979	<s> ช่วย ตั้ง
-0.3432061	<s> ซื้อ เครื่อง
-0.1213574	รถ ดับ เพลิง
-0.1200689	อะไร ดี </s>
-0.3310066	เอ็ม ดี บี
-0.6320366	โมง ดี </s>
-0.6320366	โมง ดี อยาก
-0.3382401	ไหน ดี </s>
-0.1213574	ปลุก ด้วย </s>
-0.2462961	เตือน ด้วย </s>
-0.3310066	อยู่ ตรง ไหน
-0.8081279	ประชุม ตอน บ่าย
-0.7289466	ปลุก ตอน เที่ยง
-0.3339775	<s> ตั้ง เวลา
-0.3310066	ช่วย ตั้ง ปลุก
-0.1213574	อาหาร ตาม สั่ง
-0.3310066	ยกเลิก ตาราง เรียน
-0.3310066	เพิ่ม ตาราง เรียน
-0.3310066	ส้ม ตำ เจ๊
-0.5473261	<s> ตื่น แล้ว
-0.3310066	พรุ่งนี้ ตื่น กี่
-0.3310066	<s> ต่อ ไป
-0.5600889	นอน ต่อ อีก
-0.3310066	มา ต้ม มาม่า
-0.3310066	วันนี้ ต้อง ทำ
-0.5070979	อะไร ต้อง ทำ
-0.3310066	เรา ต้อง ตื่น
-0.3310066	นับ ถอย หลัง
-0.3310066	นัด ทั้งหมด ของ
-0.2462961	<s> ทาง เชื่อม
-0.3310066	เส้น ทาง ไป
-0.05115252	ไป ทาง ไหน
-0.8081279	<s> ทำ ไข่
-0.7289466	ต้อง ทำ บ้าง
-0.3432061	ต้อง ทำ อะไร
-0.3310066	วิธี ทำ แบบ
-0.6320366	สอน ทำ ผัด
-0.6320366	สอน ทำ ไข่
-0.7319175	<s> ที่ นั่ง
-0.7361801	<s> ที่ นี่
-0.3310066	กี่ ที่ ใน
-0.3310066	ของ ที่ นี่
-0.0895533	บาท ที่ ไหน
-0.5143314	มี ที่ นั่ง
-0.9842191	วัน ที่ ยี่
-0.5984787	วัน ที่ สิบ
-0.1213574	หนัง ที่ ฉาย
-0.04575749	อยู่ ที่ ไหน
-0.5070979	อาหาร ที่ ไหน
-0.3310066	ใกล้ ที่ สุด
-0.04139268	ได้ ที่ ไหน
-0.5070979	<s> ที่นี่ เปิด
-0.1213574	ปลุก ทุก วัน
-0.5070979	โมง ทุก อาทิตย์
-0.6320366	สี่ ทุ่ม </s>
-0.5070979	มี ธุระ </s>
-0.1213574	รอบ นอก จุฬา
-0.0895533	<s> นอน ต่อ
-0.3310066	ก่อน นอน </s>
-0.6320366	ขอ นอน ต่อ
-0.6320366	ขอ นอน อีก
-0.1213574	อยาก นอน ต่อ
-0.3432061	ครึ่ง นะ </s>
-0.7289466	ครึ่ง นะ พรุ่งนี้
-0.3310066	นาที นะ </s>
-0.1213574	นึง นะ </s>
-0.0895533	หน่อย นะ </s>
-0.3310066	อะไร นะ </s>
-0.5070979	เที่ยง นะ พรุ่งนี้
-0.4009243	โมง นะ </s>
-0.8750747	โมง นะ พรุ่งนี้
-1.206068	<s> นัด ประชุม
-1.206068	<s> นัด เพื่อน
-0.7361801	<s> นัด แรก
-0.3310066	กี่ นัด </s>
-1.234097	มี นัด กับ
-0.6916133	มี นัด อะไร
-0.7289466	ยกเลิก นัด วัน
-0.3310066	เรียง นัด ทั้งหมด
-0.3310066	<s> นับ ถอย
-0.7234174	ที่ นั่ง แบบ
-0.4589162	กี่ นาที </s>
-0.9330666	กี่ นาที แปด
-0.1383027	สิบ นาที </s>
-0.5558262	ห้า นาที </s>
-1.029977	ห้า นาที นะ
-0.2462961	อีก นาน ไหม
-0.5143314	ที่ นี่ มี
-0.3310066	ช่วง นี้ มี
-0.6320366	พรุ่ง นี้ มี
-0.6320366	พรุ่ง นี้ โรง
-0.7581795	วัน นี้ </s>
-0.7581795	วัน นี้ มี
-1.14392	วัน นี้ วัน
-1.14392	วัน นี้ โรง
-0.8081279	สัปดาห์ นี้ มี
-0.4223874	สัปดาห์ นี้ หนัง
-0.6320366	อาทิตย์ นี้ มี
-0.5984787	เพลง นี้ </s>
-0.9842191	เพลง นี้ ออก
-0.4223874	ชั่วโมง นึง นะ
-0.3310066	ไหน น่า กิน
-0.3339775	ห้อง น้ำ ชั้น
-0.3310066	อยู่ บน ปฎิทิน
-0.8081279	ร้อย บาท กิน
-0.2656446	ร้อย บาท ที่
-0.3310066	เดอะ บีสต์ มี
-0.7289466	ตอน บ่าย สอง
-0.3310066	ฉาย บ้าง </s>
-0.3310066	ทำ บ้าง </s>
-0.3310066	ทุ่ม บ้าง </s>
-0.3310066	ปฎิทิน บ้าง </s>
-0.0895533	ปิด บ้าง </s>
-0.01223446	อะไร บ้าง </s>
-0.0895533	เด็ด บ้าง </s>
-0.3310066	ได้ บ้าง </s>
-0.02632894	ไหน บ้าง </s>
-0.3310066	ไหร่ บ้าง </s>
-0.3310066	จาก บ้าน แล้ว
-0.5070979	บน ปฎิทิน บ้าง
-0.8081279	<s> ประชุม ครั้ง
-0.3310066	งาน ประชุม ตอน
-0.2462961	นัด ประชุม ตอน
-0.6320366	มี ประชุม </s>
-0.3310066	งบ ประมาณ เท่า
-0.5984787	<s> ปลุก ทุก
-0.1213574	ตั้ง ปลุก ตอน
-0.7289466	พรุ่งนี้ ปลุก เรา
-0.0895533	ไหน ปิด บ้าง
-0.5070979	สระ ผม แล้ว
-0.3310066	ข้าว ผัด ไข่
-0.5070979	ทำ ผัด มาม่า
-0.3310066	รับ ฝาก ของ
-0.1864633	<s> พรุ่ง นี้
-1.109158	<s> พรุ่งนี้ ตื่น
-0.6350074	<s> พรุ่งนี้ ปลุก
-1.109158	<s> พรุ่งนี้ มี
-1.109158	<s> พรุ่งนี้ เรา
-0.3382401	นะ พรุ่งนี้ </s>
-0.3310066	จาก ฟ้า รอบ
-0.3310066	<s> มะรืน นี้
-0.1213574	ข้าว มัน ไก่
-0.3310066	อะไร มั้ย </s>
-0.5070979	<s> มา ต้ม
-0.1213574	ต้ม มาม่า กัน
-1.296189	<s> มี ที่
-1.300452	<s> มี นัด
-0.4616091	<s> มี ร้าน
-1.227856	<s> มี วิธี
-1.384599	<s> มี หนัง
-1.770339	<s> มี อะไร
-1.384599	<s> มี เงิน
-0.3310066	จันทร์ มี เรียน
-0.1200689	จุฬา มี ร้าน
-0.3339775	นี่ มี ร้าน
-1.176105	นี้ มี งาน
-0.6336213	นี้ มี นัด
-1.176105	นี้ มี หนัง
-0.7289466	พรุ่งนี้ มี งาน
-0.3310066	วอล มี แบบ
-0.2462961	วันนี้ มี อะไร
-0.1213574	สแควร์ มี ร้าน
-0.0895533	หน้า มี งาน
-0.3310066	อักษร มี ร้าน
-0.3310066	โมง มี ธุระ
-0.5070979	ไหน มี ที่
-1.029977	<s> ยกเลิก ตาราง
-0.5558262	<s> ยกเลิก นัด
-0.3310066	ที่ ยี่ สิบ
-0.3310066	ออฟ ยู </s>
-0.3310066	<s> ย้าย งาน
-0.1213574	เรียก รถ ดับ
-0.3310066	ขอ รอบ ฉาย
-0.3310066	<s> รับ ฝาก
-0.3310066	สุด ราคา เท่า
-0.0895533	ขอ ราย ชื่อ
-0.3310066	หนึ่ง ร้อย บาท
-0.3310066	ห้า ร้อย บาท
-0.9330666	<s> ร้าน ก๋วยเตี๋ยว
-0.9330666	<s> ร้าน สเต็ก
-0.5473261	<s> ร้าน อาหาร
-0.4573772	มี ร้าน อาหาร
-0.3324385	มี ร้าน ไหน
-0.0895533	ลา ลา แลนด์
-0.1213574	เรื่อง ลา ลา
-0.8750747	อะไร วอล มี
-0.8750747	อะไร วอล วันนี้
-0.2547962	ใช้ วัตถุดิบ อะไร
-1.30873	<s> วัน จันทร์
-0.7662469	<s> วัน ที่
-0.3756636	<s> วัน นี้
-0.9330666	ทุก วัน จันทร์
-0.9330666	ทุก วัน ไหม
-0.3310066	ทุ่ม วัน นี้
-0.8081279	นัด วัน ศุกร์
-0.8081279	นัด วัน อังคาร
-0.3310066	เรียน วัน จันทร์
-0.4223874	<s> วันนี้ มี
-0.8081279	<s> วันนี้ เหลือ
-0.6320366	มี วิธี ทำ
-0.6320366	มี วิธี อื่น
-0.5070979	หา วิธีทำ ผัด
-0.3310066	คณะ วิศวะ เปิด
-0.3432061	วัน ศุกร์ </s>
-0.3310066	<s> สร้าง งาน
-0.3310066	ตอน สอง ทุ่ม
-0.6320366	สิบ สอง นาที
-0.3310066	อีก สอง ชั่วโมง
-0.0895533	<s> สอน ทำ
-0.3382401	<s> สัปดาห์ นี้
-0.7289466	ตอน สิบ เอ็ด
-0.3432061	ตอน สิบ โมง
-0.1213574	ตื่น สิบ โมง
-0.8081279	ยี่ สิบ นาที
-0.8081279	ยี่ สิบ สี่
-0.5070979	อีก สิบ นาที
-0.3310066	มา สี่ จ่าย
-0.3310066	เป็น สี่ โมง
-0.7289466	ที่ สุด </s>
-0.3310066	สูง สุด </s>
-0.2547962	ขอ สูตร อาหาร
-0.3310066	กิน สเต็ก งบ
-0.2462961	จาม สแควร์ มี
-0.0895533	ตอน หก โมง
-0.1213574	ตื่น หก โมง
-0.3310066	รอบ หก โมง
-0.02632894	<s> หนัง เรื่อง
-0.1213574	ชื่อ หนัง ที่
-0.5070979	นี้ หนัง เรื่อง
-0.3432061	มี หนัง เรื่อง
-0.8081279	โรง หนัง อยู่
-0.8081279	โรง หนัง เอส
-0.3310066	ต้ม หน่อย </s>
-0.1213574	ให้ หน่อย </s>
-0.3432061	เดือน หน้า </s>
-0.7289466	เดือน หน้า มี
-0.5070979	ทั้ง หมด </s>
-0.1213574	<s> หา วิธีทำ
-0.2547962	<s> ห้อง น้ำ
-0.3310066	งบ ห้า ร้อย
-0.1780608	อีก ห้า นาที
-0.3310066	โมง ห้า นาที
-0.3310066	<s> ห้าม เล่น
-0.4210989	<s> อยาก กิน
-0.7903642	<s> อยาก ทำ
-0.7903642	<s> อยาก นอน
-0.3310066	อะไร อยู่ บน
-0.4223874	ไหน อร่อย </s>
-0.4223874	ไหน อร่อย กว่า
-0.3382401	กิน อะไร ดี
-0.0895533	คือ อะไร </s>
-0.4009243	งาน อะไร บ้าง
-0.9330666	ทำ อะไร </s>
-0.9330666	ทำ อะไร บ้าง
-0.3310066	ธุระ อะไร มั้ย
-0.0895533	นัด อะไร บ้าง
-0.8750747	มี อะไร ต้อง
-0.8750747	มี อะไร บ้าง
-0.8750747	มี อะไร อยู่
-0.2547962	วัตถุดิบ อะไร บ้าง
-0.3310066	สถานี อะไร </s>
-0.5070979	เพลง อะไร ก็
-0.6856288	เรื่อง อะไร ฉาย
-0.3163635	เรื่อง อะไร วอล
-0.0895533	โซน อะไร บ้าง
-0.3310066	ใช้ อะไร บ้าง
-0.3310066	จาก อัลบั้ม เดอะ
-0.2462961	<s> อาทิตย์ นี้
-1.285249	ร้าน อาหาร จีน
-1.285249	ร้าน อาหาร ญี่ปุ่น
-0.8995087	ร้าน อาหาร ตาม
-1.285249	ร้าน อาหาร ที่
-1.285249	ร้าน อาหาร เกาหลี
-1.285249	ร้าน อาหาร เวียดนาม
-1.285249	ร้าน อาหาร ไทย
-1.285249	ร้าน อาหาร ไหน
-0.2547962	สูตร อาหาร ไข่
-0.7289466	โรง อาหาร คณะ
-1.005964	<s> อีก กี่
-1.005964	<s> อีก ครึ่ง
-1.005964	<s> อีก ชั่วโมง
-1.005964	<s> อีก นาน
-1.391704	<s> อีก สอง
-1.391704	<s> อีก สิบ
-0.8492211	<s> อีก ห้า
-0.8081279	ต่อ อีก ครึ่ง
-0.8081279	ต่อ อีก ห้า
-0.1213574	ตอน เจ็ด โมง
-0.5070979	ทาง เชื่อม สยาม
-0.3310066	<s> เช็ค งาน
-0.8081279	โมง เช้า </s>
-0.8081279	โมง เช้า วัน
-0.3310066	แอนด์ เดอะ บีสต์
-0.0895533	เด็ด เด็ด บ้าง
-0.0895533	ไหน เด็ด เด็ด
-0.7289466	แจ้ง เตือน ให้
-0.3310066	ตื่น เที่ยง นะ
-0.3310066	ประมาณ เท่า ไหร่
-0.2547962	ราคา เท่า ไหร่
-0.3310066	ราคา เท่าไหร่ </s>
-0.3310066	แล้ว เนี่ย </s>
-0.6320366	<s> เบา เสียง
-0.1864633	<s> เปิด เพลง
-0.3310066	วิศวะ เปิด กี่
-0.2656446	<s> เพลง ต่อไป
-0.8081279	เพลลิสต์ เพลง ก่อน
-0.8081279	เพลลิสต์ เพลง โปรด
-0.8492211	เล่น เพลง ของ
-0.9218167	เล่น เพลง จาก
-1.005964	เล่น เพลง นี้
-1.391704	เล่น เพลง อะไร
-0.3310066	เอา เพลง นี้
-0.3310066	จาก เพลย์ลิส </s>
-0.0895533	จาก เพลลิสต์ เพลง
-0.3310066	ใน เพลลิสต์ เพลง
-1.109158	<s> เพิ่ม ตาราง
-0.6350074	<s> เพิ่ม นัด
-1.109158	<s> เพิ่ม ใน
-0.8750747	โมง เย็น </s>
-0.3310066	พรุ่งนี้ เรา ต้อง
-0.1213574	<s> เรียก รถ
-0.3310066	<s> เรียง นัด
-0.6320366	ตาราง เรียน บ่าย
-0.6320366	ตาราง เรียน วัน
-0.3310066	ฉาย เรื่อง อะไร
-1.372399	หนัง เรื่อง ลา
-0.9025115	หนัง เรื่อง อะไร
-0.829916	หนัง เรื่อง ไหน
-0.7289466	<s> เลื่อน ประชุม
-0.05115252	<s> เล่น เพลง
-1.285249	<s> เล่น โบว์ลิ่ง
-0.3310066	ห้าม เล่น เพลง
-0.3339775	โกวาจี เล่น เพลง
-0.3310066	จับ เวลา </s>
-0.2547962	ตั้ง เวลา เตือน
-0.3310066	ขอ เส้น ทาง
-0.3310066	หนัง เอส เอฟ
-0.1213574	สิบ เอ็ด โมง
-0.3310066	ไอ เอ็ม ดี
-0.1213574	กี่ แคลอรี่ </s>
-0.0895533	<s> แจ้ง เตือน
-0.7289466	<s> แนะนำ อาหาร
-0.3432061	<s> แนะนำ เมนู
-0.3310066	ทำ แบบ อื่น
-0.3310066	จะ แปด โมง
-0.1213574	ตอน แปด โมง
-0.3310066	นาที แปด โมง
-0.2656446	นัด แรก ของ
-0.3310066	อันดับ แรก </s>
-0.3310066	บ้าน แล้ว </s>
-0.3310066	โมง แล้ว </s>
-0.3310066	บิวตี้ แอนด์ เดอะ
-0.8780455	<s> โกวาจี </s>
-0.8823082	<s> โกวาจี เล่น
-0.0895533	มี โซน อะไร
-0.3310066	เพลง โปรด </s>
-0.1362197	กี่ โมง </s>
-0.9024667	กี่ โมง ดี
-1.44495	กี่ โมง แล้ว
-0.5143314	สิบ โมง ครึ่ง
-0.4223874	สี่ โมง </s>
-0.4223874	สี่ โมง เย็น
-0.6014367	หก โมง นะ
-0.6014367	หก โมง เย็น
-0.6320366	ห้า โมง </s>
-0.6320366	เจ็ด โมง เช้า
-0.5070979	เอ็ด โมง </s>
-0.6856288	แปด โมง </s>
-0.6856288	แปด โมง ครึ่ง
-1.071369	แปด โมง เช้า
-0.4009243	<s> โรง หนัง
-0.0895533	นี้ โรง อาหาร
-0.3310066	ที่ ใกล้ ที่
-0.3310066	ต้อง ใช้ อะไร
-0.3310066	ที่ ใน จุฬา
-0.3310066	เพิ่ม ใน เพลลิสต์
-0.3310066	นี้ ให้ หน่อย
-0.6320366	ทำ ไข่ ดาว
-0.3310066	ยัง ไง </s>
-0.4893342	ต่อ ไป </s>
-0.3310066	ถัด ไป </s>
-0.6320366	<s> ไม่ ต้อง
-0.3310066	นี้ ไม่ว่าง ทั้ง
-0.2547962	เท่า ไร </s>
-0.2462961	ชั้น ไหน </s>
-0.04575749	ทาง ไหน </s>
-0.2397603	ที่ ไหน </s>
-1.07434	ที่ ไหน ดี
-1.16275	ที่ ไหน บ้าง
-1.548491	ที่ ไหน อร่อย
-0.6551821	ร้าน ไหน บ้าง
-0.8677046	ร้าน ไหน ปิด
-1.410188	ร้าน ไหน มี
-0.8677046	ร้าน ไหน อร่อย
-0.8677046	ร้าน ไหน เด็ด
-0.3339775	วัน ไหน </s>
-0.3310066	เมนู ไหน น่า
-0.3432061	เรื่อง ไหน ทำ
-0.2462961	นาน ไหม กว่า
-0.3310066	วัน ไหม </s>
-0.3310066	ได้ ไหม </s>
-0.09691001	เท่า ไหร่ </s>
-1.029977	เท่า ไหร่ บ้าง
-0.3310066	คะแนน ไอ เอ็ม

\end\
