
\data\
ngram 1=2145
ngram 2=6211
ngram 3=6698

\1-grams:
-3.661897	0.65	-0.9540638
-2.758807	1	-0.6731309
-3.917169	1,000	-0.6989174
-3.360867	1.2	-0.7793502
-3.315109	1.3	-0.8646703
-3.917169	10	-0.6989174
-3.713049	10400	-0.9028166
-3.917169	11	-0.6985704
-3.917169	1180	-0.6571051
-3.713049	13	-0.6527287
-3.917169	14	-0.698644
-3.713049	16	-0.6506613
-2.713049	2	-0.705952
-3.661897	2.1.4	-0.9535903
-3.713049	2.1.5	-0.9014472
-3.38569	2.2	-0.6879525
-3.574747	2.5	-0.7358462
-4.01408	2.6	-0.6016604
-3.661897	20	-0.9541479
-4.01408	23	-0.6009971
-3.917169	25	-0.6989174
-3.661897	2516	-0.9541479
-3.917169	2517	-0.6571051
-3.917169	2531	-0.6989174
-3.917169	2532	-0.6925212
-3.917169	2533	-0.6980335
-2.837988	3	-0.7245855
-3.661897	3.1	-0.946458
-3.917169	3.1ไทย	-0.6989174
-3.661897	3.2	-0.9529899
-4.01408	3.3	-0.5917104
-3.713049	36	-0.9006974
-2.962927	4	-0.7568759
-3.917169	4.1.1	-0.696831
-3.713049	4.3	-0.9029218
-3.661897	4.3.1	-0.9529161
-3.713049	45	-0.9029638
-2.875777	5	-0.7462707
-3.273717	50	-0.7950488
-3.273717	6	-0.7871851
-3.917169	6-1	-0.6886204
-3.337386	7	-0.844309
-3.771041	70	-0.8429273
-4.01408	8	-0.5601951
-4.01408	8096	-0.5601951
-3.917169	9	-0.6987282
-3.917169	90	-0.6988438
-3.917169	900	-0.6989174
-1.036699	</s>
-99	<s>	-0.7976333
-2.925943	กก	-0.8514509
-3.917169	กข.๙	-0.6571051
-3.025075	กง	-0.7533031
-3.713049	กงล้อ	-0.8933213
-3.917169	กฉา	-0.6987492
-3.917169	กชกร	-0.6886204
-3.003356	กด	-0.8238245
-3.713049	กดดัน	-0.9028692
-4.139018	กติกา	-0.2591304
-3.502196	กนก	-0.6561781
-3.072071	กบ	-0.7237442
-3.661897	กบิทร์บุรี	-0.9541479
-3.917169	กบินทร์	-0.6989174
-3.29392	กร	-0.735881
-3.502196	กรง	-0.8027583
-3.917169	กรณี	-0.6988333
-3.713049	กรมอุตุนิยมวิทยา	-0.8933213
-3.337386	กรรม	-0.6978143
-3.574747	กรรมการ	-0.7340466
-3.661897	กรรไกร	-0.9535167
-3.661897	กรวย	-0.9123776
-3.440048	กรอก	-0.9008347
-4.139018	กรอกหน้า	-0.2591072
-3.917169	กรอง	-0.6989174
-3.917169	กรองคอ	-0.6989174
-3.661897	กรองน้ำ	-0.9538745
-3.917169	กรองสมรด	-0.6571051
-3.917169	กรองสังเวียน	-0.6989174
-3.917169	กรอบ	-0.6987597
-3.917169	กรอบเช็ดหน้า	-0.6989174
-3.917169	กระจก	-0.6989174
-3.917169	กระจง	-0.6571051
-3.917169	กระจอก	-0.6571051
-3.917169	กระจาย	-0.6988438
-3.661897	กระจูด	-0.9540217
-3.502196	กระชาย	-0.8447406
-3.917169	กระซู่	-0.6985493
-3.661897	กระดอง	-0.6962285
-4.139018	กระดอน	-0.2590377
-3.771041	กระดาน	-0.5593957
-3.917169	กระดานดำ	-0.6911855
-2.77729	กระดาษ	-0.7955763
-4.139018	กระดุม	-0.4352564
-3.218199	กระดูก	-0.9537904
-4.139018	กระติก	-0.2591304
-3.917169	กระถาง	-0.6984336
-3.502196	กระทบ	-0.844288
-3.661897	กระทรวง	-0.9541479
-3.917169	กระทรวงมหาดไทย	-0.6964083
-3.661897	กระทรวงฯ	-0.9477937
-3.29392	กระทะ	-0.7775621
-3.661897	กระทั่ง	-0.9540217
-3.917169	กระทำ	-0.6571051
-3.502196	กระบวนการ	-0.8444038
-4.01408	กระบอกปืน	-0.5601951
-3.917169	กระบืองาน	-0.6964083
-3.917169	กระบือปลัก	-0.6571051
-3.917169	กระบุง	-0.6988964
-3.917169	กระปี้กระเปร่า	-0.6989174
-3.661897	กระปี๋	-0.9541479
-4.139018	กระปุก	-0.2589914
-3.661897	กระป๋อง	-0.9541479
-3.661897	กระรอก	-0.6570472
-3.917169	กระสือ	-0.6988544
-3.38569	กระเช้า	-0.7595127
-3.917169	กระเด็น	-0.6571051
-4.139018	กระเด้ง	-0.2591304
-3.661897	กระเทย	-0.9541059
-3.29392	กระเทียม	-0.8842805
-3.014079	กระเบื้อง	-0.8976469
-3.574747	กระเป๋า	-0.5948183
-3.917169	กระเพา	-0.6988754
-3.917169	กระแต	-0.6989174
-3.661897	กระแป๋ง	-0.9541479
-3.574747	กระแส	-0.777962
-3.771041	กระแสไฟฟ้า	-0.5914412
-3.661897	กระแอม	-0.9123776
-3.502196	กระโจม	-0.8449509
-3.661897	กระโถน	-0.9123776
-3.917169	กรา	-0.6989174
-2.934898	กราฟ	-0.7749197
-3.713049	กราฟฟิก	-0.8612251
-3.917169	กราฟฟิกไทยโชว์	-0.6989174
-4.01408	กราฟิก	-0.5601951
-3.917169	กรุ	-0.6966831
-3.616139	กรุงเทพฯ	-0.5600446
-4.139018	กรุบกริบ	-0.2589914
-4.139018	กรุ่น	-0.2590377
-3.917169	กฤปาน	-0.6989174
-3.917169	กฤษณพงศ์	-0.6989174
-3.218199	กล	-0.7203576
-4.01408	กลบ	-0.6020179
-3.003356	กลม	-0.7842777
-3.661897	กลมกล่อม	-0.9540743
-3.536958	กลอน	-1.037316
-3.661897	กลัด	-0.9540848
-3.412019	กลับ	-0.7773096
-4.01408	กลับกลาย	-0.5956112
-4.139018	กลับบ้าน	-0.2590493
-3.917169	กลับหลังหัน	-0.325973
-4.139018	กลับไปกลับมา	-0.2591304
-3.502196	กลัว	-0.6963659
-3.661897	กลั่นกรอง	-0.9541479
-3.661897	กลั่นตัว	-0.9526841
-3.661897	กลั้น	-0.9540743
-3.661897	กลาง	-0.9540638
-3.917169	กลางคืน	-0.6988228
-3.917169	กลางวัน	-0.6571051
-4.01408	กลางแจ้ง	-0.6014078
-3.917169	กลางแดด	-0.6987072
-3.38569	กลาย	-0.752437
-3.661897	กลายเป็น	-0.6883728
-3.574747	กลิ้ง	-0.5947025
-4.01408	กลีบ	-0.6020179
-3.502196	กลืน	-0.5587806
-3.661897	กลุ่มงาน	-0.9541479
-3.661897	กลุ้ม	-0.6971689
-3.917169	กลุ้มใจ	-0.6571051
-3.661897	กลไก	-0.6834225
-3.536958	กล่อง	-0.7702491
-3.29392	กล่าว	-0.7663891
-3.574747	กล่าวคือ	-0.7362284
-3.440048	กล่าวถึง	-1.165742
-3.184776	กล้วย	-0.6842532
-3.502196	กล้อง	-0.8028279
-3.29392	กล้า	-0.7767298
-3.917169	กล้ามเนื้อ	-0.6571051
-3.38569	กล้าหาญ	-0.9525365
-3.917169	กวน	-0.6989174
-3.661897	กวัดแกว่ง	-0.9541479
-3.38569	กวาง	-0.9535904
-2.729649	กว่า	-0.8227549
-3.29392	กว้าง	-0.8406531
-3.412019	กว้างขวาง	-0.7360549
-3.917169	กอ	-0.6988754
-3.502196	กอง	-0.5594768
-4.01408	กองวิทยาลัยเทคนิค	-0.5601951
-3.097625	กอด	-0.75862
-3.661897	กอบ	-0.6985704
-3.917169	กอหญ้า	-0.6571051
-3.661897	กะ	-0.9522619
-3.502196	กะทิ	-0.6568272
-3.661897	กะท้อน	-0.6569546
-3.440048	กะปิ	-0.7109532
-3.917169	กะพริบ	-0.6971161
-3.917169	กะละมัง	-0.6989174
-3.917169	กะละแม	-0.6571051
-3.661897	กะลา	-0.9540848
-3.661897	กะเพราะ	-0.6569315
-3.917169	กังฆา	-0.6989174
-4.139018	กังวล	-0.2591304
-4.139018	กังวาน	-0.2591304
-3.917169	กังหัน	-0.3256023
-3.315109	กัด	-0.7168759
-2.460803	กัน	-0.84162
-3.917169	กันสาด	-0.6988754
-2.341981	กับ	-0.7078356
-3.574747	กับข้าว	-0.5003821
-3.917169	กัลปาวสาน	-0.6988123
-3.502196	กั้ง	-0.8026888
-3.124778	กา	-0.6222757
-3.097625	กาง	-0.7020829
-3.661897	กางร่ม	-0.9541479
-3.29392	กางเกง	-0.8425332
-3.661897	กางเขน	-0.9123776
-3.771041	กางแขน	-0.4350248
-3.661897	กาจญนบุรี	-0.9541479
-4.139018	กาญจนบุรี	-0.2588061
-3.661897	กาญจนะวรรณ	-0.9477937
-3.917169	กาด	-0.6987492
-3.917169	กานพลู	-0.6989174
-3.917169	กาบ	-0.6987702
-3.661897	กาม	-0.9538113
-3.661897	กาย	-0.9123776
-1.628026	การ	-0.8470971
-3.502196	การงาน	-0.5592101
-3.917169	การบ้าน	-0.3259035
-3.917169	การสื่อสารแห่งประเทศไทย	-0.6964083
-3.38569	การแพทย์	-0.9122387
-3.917169	กาว	-0.6988123
-3.917169	กำ	-0.6571051
-4.01408	กำกับ	-0.5917104
-3.440048	กำจัด	-0.651633
-4.139018	กำบัง	-0.2591072
-3.254411	กำลัง	-0.6678264
-3.661897	กำลังส่ง	-0.9444738
-3.072071	กำหนด	-0.7195722
-3.917169	กำเนิด	-0.6987492
-3.771041	กำเริบ	-0.84473
-3.917169	กำไลมือ	-0.6970844
-4.139018	กิจการ	-0.2589451
-4.139018	กิจจะลักษณะ	-0.2590146
-3.661897	กิตติ	-0.9541479
-3.661897	กิติพจน์	-0.9541479
-2.845287	กิน	-0.7690499
-4.139018	กินข้าว	-0.2591304
-3.661897	กินอาหาร	-0.9123776
-3.917169	กิเลศ	-0.6571051
-3.771041	กิเลส	-0.4351638
-3.574747	กิ่ง	-0.5945172
-3.661897	กิ่งก้าน	-0.9540638
-3.661897	กิ่งไม้	-0.9541479
-4.139018	กิ้งกือ	-0.2587134
-3.771041	กิ้งก่า	-0.5598361
-3.440048	กิ๊ก	-0.7109532
-3.917169	กิ๊ง	-0.6571051
-3.917169	กีรติกร	-0.6571051
-3.917169	กีวี่	-0.6571051
-4.139018	กีฬา	-0.259084
-3.713049	กี่	-0.6108033
-3.917169	กี๋	-0.6984336
-4.139018	กึกก้อง	-0.2591304
-3.661897	กึ่ง	-0.6570472
-3.661897	กุน	-0.9123776
-3.661897	กุม	-0.9541059
-3.661897	กุย	-0.9541479
-3.917169	กุลา	-0.698202
-3.661897	กุลีกุจอ	-0.9123776
-3.502196	กุหลาบ	-0.6555861
-3.661897	กุ้ง	-0.6562593
-3.661897	กุ้งแห้ง	-0.9541479
-3.661897	กุ๊กกิ๊ก	-0.9541479
-4.139018	กุ๊กกู๋	-0.2591304
-3.661897	กุ๊กไก่	-0.9534745
-3.917169	กุ๊ย	-0.6571051
-3.38569	กู่	-0.9525998
-3.502196	กู้	-0.6565722
-2.59495	ก็	-0.8932781
-3.917169	ก็อกแก็ก	-0.6988754
-3.29392	ก็ได้	-1.280354
-3.917169	ก่น	-0.6986756
-2.962927	ก่อน	-0.8664008
-4.139018	ก่อนนอน	-0.2591072
-3.661897	ก่อนหลัง	-0.9468538
-4.139018	ก่อเกิด	-0.2582381
-3.917169	ก่อไฟ	-0.6967254
-3.917169	ก่ำ	-0.6989174
-3.574747	ก้น	-0.5946677
-4.139018	ก้ม	-0.2583657
-3.574747	ก้อง	-0.7362284
-3.254411	ก้อน	-0.6256346
-3.661897	ก้อนกรวด	-0.6570009
-3.917169	ก้อนหิน	-0.6989174
-3.661897	ก้อย	-0.6988228
-3.771041	ก้าง	-0.5596507
-3.661897	ก้างปลา	-0.656723
-3.440048	ก้าน	-0.5372236
-3.661897	ก้านยาว	-0.9541479
-3.661897	ก้าม	-0.6987808
-3.440048	ก้าว	-0.6110119
-3.917169	ก้าวขา	-0.6988964
-3.412019	ก้าวร้าว	-0.9292402
-3.661897	ก้าวหน้า	-0.6569546
-3.661897	ก๊อบ	-0.6570009
-3.917169	ก๊อบแก๊บ	-0.6988018
-3.168981	ก๊าซ	-0.7208425
-3.661897	ก๋องแก๋ง	-0.6570472
-3.713049	ขณะ	-0.6521075
-3.713049	ขณะที่	-0.6519704
-3.713049	ขณะนี้	-0.9024378
-3.917169	ขน	-0.6988754
-2.638416	ขนาด	-0.9252952
-4.01408	ขนาน	-0.5601951
-3.574747	ขม	-1.041245
-3.771041	ขมิ้น	-0.5998259
-3.139018	ขยาย	-0.8168525
-3.917169	ขลับ	-0.6964083
-3.917169	ขลิบ	-0.6892013
-4.01408	ขวนขวาย	-0.6020179
-3.917169	ขวบ	-0.6985599
-3.917169	ขวา	-0.6571051
-3.502196	ขอ	-0.6569893
-1.934898	ของ	-0.8509582
-3.917169	ของเหลว	-0.6911855
-3.917169	ของแข็ง	-0.6986756
-3.917169	ขอนแก่น	-0.6571051
-3.661897	ขอบ	-0.6911321
-3.917169	ขอบพระคุณ	-0.6989174
-3.713049	ขอม	-0.9029323
-3.917169	ขะมุกขะมอม	-0.6571051
-3.917169	ขัดยอก	-0.6571051
-3.917169	ขัดแตะ	-0.6571051
-4.01408	ขับ	-0.6020179
-3.771041	ขั้น	-0.8449404
-3.412019	ขั้นตอน	-0.8761432
-3.713049	ขั้วโลก	-0.8612251
-3.470011	ขั้วโลกเหนือ	-1.104263
-3.771041	ขั้วโลหะ	-0.8440878
-3.917169	ขา	-0.6988544
-3.536958	ขาด	-0.8126505
-3.440048	ขาดแคลน	-0.9025642
-3.917169	ขาย	-0.6915813
-3.536958	ขาว	-0.7709442
-3.917169	ขีด	-0.6967993
-2.616139	ขึ้น	-0.8603276
-3.29392	ขึ้นมา	-0.7237809
-3.661897	ขึ้นอยู่	-0.9522619
-3.440048	ขึ้นไป	-0.8606924
-3.661897	ขื่อ	-0.6924678
-4.01408	ขูด	-0.6015447
-3.917169	ขโมย	-0.6571051
-3.38569	ข่าย	-0.8012853
-3.917169	ข่าว	-0.6571051
-3.502196	ข่าวสาร	-0.655191
-3.502196	ข้อ	-0.8440668
-3.661897	ข้อกำหนด	-0.9491677
-3.661897	ข้อความ	-0.9533587
-4.01408	ข้อจำกัด	-0.5969852
-3.771041	ข้อดี	-0.8353294
-3.917169	ข้อบกพร่อง	-0.6986125
-4.01408	ข้อผิดพลาด	-0.5946713
-3.713049	ข้อพระหัตถ์	-0.8612251
-3.917169	ข้อมือ	-0.6989174
-2.308643	ข้อมูล	-0.7425141
-3.917169	ข้อสรุป	-0.6892013
-3.661897	ข้อสอบ	-0.6558648
-3.917169	ข้อเสนอ	-0.6987282
-3.254411	ข้างล่าง	-1.359874
-2.917169	ข้าว	-0.8440006
-3.713049	ข้าวเจ้า	-0.9029218
-3.771041	คง	-0.5955257
-3.713049	คณะ	-0.610896
-3.412019	คณะกรรมการ	-0.7770568
-3.917169	คณะกรรมการบริหาร	-0.6972427
-3.917169	คณะรัฐมนตรี	-0.6946708
-3.917169	คติ	-0.6967993
-2.555441	คน	-1.251941
-3.917169	คมนาคม	-0.6983915
-3.440048	ครบ	-0.7106982
-3.917169	ครบถ้วน	-0.698202
-3.661897	ครอบ	-0.9477937
-3.771041	ครอบครัว	-0.8386492
-3.470011	ครั้ง	-0.5856203
-3.917169	ครั้งคราว	-0.6915813
-4.01408	ครั้งละ	-0.6020179
-3.917169	ครั้นแล้ว	-0.6982442
-3.713049	คริสต์ศตวรรษ	-0.8933213
-3.917169	ครีมเชื่อม	-0.6571051
-3.661897	คลอง	-0.6890615
-3.917169	คลอไรด์	-0.6989174
-3.713049	คลั่ง	-0.6525288
-3.661897	คลาดเคลื่อน	-0.9541059
-3.917169	คลินิก	-0.6571051
-3.536958	คลื่น	-0.6607298
-3.917169	คลื่นพาห์	-0.6571051
-3.917169	คลื่นแสง	-0.6986756
-4.01408	คลื่นไส้	-0.6019864
-3.917169	คลุม	-0.6987282
-3.917169	คล่องตัว	-0.6915813
-3.412019	คล้าย	-0.6742693
-3.713049	คล้ายคลึง	-0.9015843
-3.014079	ควบคุม	-0.6985143
-3.254411	ควร	-0.6249139
-4.139018	ควันไฟ	-0.476248
-2.302272	ความ	-0.8683388
-4.01408	ความกว้าง	-0.6020179
-3.917169	ความคิด	-0.6989174
-3.440048	ความจริง	-0.902806
-3.661897	ความจำ	-0.9526841
-4.139018	ความจุ	-0.4770897
-2.718512	ความถี่	-0.7713735
-3.412019	ความรู้	-0.7751665
-4.01408	ความสูง	-0.5969852
-3.917169	ความเข้ม	-0.6987492
-4.01408	ความเข้าใจ	-0.6018182
-3.661897	ความเป็นมา	-0.9541163
-3.917169	ความเร็ว	-0.6988859
-3.661897	ควาย	-0.9516808
-3.917169	ควินิน	-0.6571051
-3.574747	คอ	-0.7763395
-4.01408	คอก	-0.6018918
-2.603302	คอมพิวเตอร์	-0.8145291
-3.917169	คอมแพคดิสก์	-0.6989174
-3.917169	คั้น	-0.6984547
-3.917169	คานคู่	-0.6571051
-3.771041	คาปาซิเตอร์ทรานซิสเตอร์	-0.8373136
-3.713049	คำกำกวม	-0.8612251
-3.29392	คำนวณ	-0.8744829
-4.01408	คำนวน	-0.6000583
-4.01408	คำนึง	-0.6015657
-3.315109	คำสั่ง	-0.7092937
-3.917169	คำเชื่อม	-0.6966831
-3.201166	คิด	-0.8443655
-3.917169	คีย์บอร์ด	-0.6571051
-3.917169	คืน	-0.6571051
-2.729649	คือ	-0.8077027
-3.574747	คุณสมบัติ	-1.034944
-3.917169	คุ้นเคย	-0.6969366
-3.917169	คู่มือ	-0.6886204
-3.661897	คู่แข่งขัน	-0.9531585
-3.235928	ค่า	-0.8162979
-3.254411	ค่าใช้จ่าย	-0.9070216
-3.917169	ค่ำคืน	-0.6571051
-4.01408	ค้น	-0.6011446
-3.917169	ค้นหา	-0.696831
-3.917169	ค้า	-0.6981599
-3.917169	ค้างคืน	-0.6984125
-3.661897	งบประมาณ	-0.9123776
-3.917169	งวดเงิน	-0.6571051
-3.917169	งอ	-0.6989174
-3.661897	งอกเงย	-0.9540217
-3.917169	งัว	-0.6571051
-2.526234	งาน	-1.14471
-3.771041	งาม	-0.6010919
-3.661897	งามเจตนรมณ์	-0.946458
-3.661897	งุนงง	-0.9541479
-3.771041	งูพิษ	-0.8450245
-3.273717	ง่าย	-0.7434709
-4.139018	ง่ายๆ	-0.4754468
-3.917169	จ	-0.6989174
-3.184776	จน	-0.7227419
-3.771041	จนถึง	-0.5916566
-3.917169	จฬ.	-0.6571051
-3.124778	จอ	-0.9246631
-3.440048	จอภาพ	-0.8607734
-2.629368	จอม	-1.980323
-4.01408	จอมอนิเตอร์	-0.5601951
-1.931294	จะ	-0.9018969
-4.01408	จะต้อง	-0.6001744
-3.337386	จังหวัด	-0.8351143
-3.412019	จัด	-0.7768881
-3.713049	จัดการ	-0.9024378
-3.536958	จัดซื้อ	-0.812703
-3.917169	จัดทำ	-0.6988754
-3.661897	จัดลำดับ	-0.9541479
-4.139018	จันทร์แสนวิไล	-0.4352564
-3.917169	จันทัน	-0.6989174
-3.536958	จับ	-0.6665614
-2.337386	จาก	-0.7740006
-3.412019	จากนั้น	-0.922874
-3.360867	จาน	-1.254852
-4.01408	จานสายอากาศ	-0.6005016
-3.574747	จารึก	-0.7759594
-4.139018	จารึกเขาน้อย	-0.4352564
-3.917169	จำ	-0.6987808
-3.917169	จำกัด	-0.6953815
-3.036356	จำนวน	-1.118106
-3.917169	จำพวก	-0.6989174
-3.917169	จำหน่าย	-0.6915813
-3.235928	จำเป็น	-0.8934216
-3.661897	จิระศักดิ์	-0.9541479
-2.489034	จึง	-0.8537043
-3.502196	จุด	-0.697422
-4.01408	จุดสำคัญ	-0.5969852
-3.917169	จุดหมาย	-0.6571051
-4.139018	จุดเชื่อม	-0.4768163
-3.917169	จุฬาลงกรณ์มหาวิทยาลัย	-0.6989174
-3.661897	จ่ายเงิน	-0.9123776
-3.713049	ฉบับ	-0.9012361
-3.917169	ฉลามลาย	-0.6571051
-3.502196	ฉะนั้น	-0.8346086
-2.59495	ฉัน	-1.722496
-3.917169	ฉาย	-0.6989174
-3.661897	ชง	-0.6456943
-3.917169	ชนบท	-0.6925212
-3.047938	ชนิด	-0.7335712
-4.01408	ชนินทร์	-0.6020179
-3.917169	ชอบ	-0.6977806
-3.917169	ชอล์ก	-0.6989174
-3.713049	ชะ	-0.9026378
-3.713049	ชะโลม	-0.8990349
-3.661897	ชัก	-0.6559461
-3.771041	ชัดเจน	-0.8386492
-3.917169	ชัยกุล	-0.6571051
-3.917169	ชัยวัฒน์	-0.6989174
-3.917169	ชัยสินธพ	-0.6571051
-3.917169	ชั่วคราว	-0.6571051
-3.661897	ชั่วโมง	-0.6988649
-3.254411	ชั้น	-0.7625865
-3.917169	ชั้นสูง	-0.6571051
-4.01408	ชายคา	-0.6001744
-3.917169	ชาว	-0.6989174
-3.917169	ชาวกรีก	-0.6571051
-3.661897	ชาวนา	-0.9540743
-3.661897	ชิพ	-0.9541479
-3.713049	ชิ้น	-0.6513059
-3.536958	ชีวประวัติ	-0.8120821
-2.944041	ชื่อ	-0.7832624
-3.218199	ชุด	-0.7104374
-4.01408	ชุดฝึก	-0.6019338
-3.661897	ชุบ	-0.9540427
-4.01408	ชุมชน	-0.5601951
-3.771041	ช่วง	-0.8432441
-2.473125	ช่วย	-1.301539
-3.713049	ช่วยเหลือ	-0.9028376
-3.574747	ช่อง	-0.6317047
-4.01408	ช่องว่าง	-0.5922913
-3.917169	ช้า	-0.6984862
-3.661897	ซอฟต์แวร์	-0.9123776
-3.574747	ซอฟท์แวร์	-0.7763712
-3.574747	ซอส	-0.7693383
-3.616139	ซับซ้อน	-0.696944
-4.01408	ซาก	-0.6020179
-3.917169	ซิงคาโน	-0.6949149
-3.713049	ซิงโครนัส	-0.8612251
-3.917169	ซิเทรต	-0.6988333
-3.440048	ซีเอ็นซี	-0.8602517
-2.401295	ซึ่ง	-0.8431292
-3.917169	ซุก	-0.6965774
-2.563061	ซ่อน	-2.050686
-4.01408	ซ้อน	-0.6005543
-3.360867	ฐานข้อมูล	-0.8078488
-3.713049	ฐานปฏิบัติการ	-0.8612251
-3.124778	ดร.	-0.84473
-3.124778	ดรัม	-1.161792
-3.574747	ดวงอาทิตย์	-0.7315497
-3.917169	ดอก	-0.6989174
-3.917169	ดอกดวง	-0.6987702
-3.917169	ดอง	-0.6886204
-3.917169	ดอม	-0.6969366
-3.025075	ดัง	-0.9221421
-3.315109	ดังกล่าว	-0.708159
-3.713049	ดังต่อไปนี้	-0.8612251
-3.661897	ดังนั้น	-0.6937994
-3.003356	ดังนี้	-1.279462
-4.01408	ดัน	-0.6020179
-3.917169	ดั้งแขวน	-0.6985599
-3.917169	ดาบ	-0.6571051
-4.01408	ดาวพระเคราะห์	-0.6016078
-4.01408	ดาวเทียม	-0.6000794
-3.661897	ดำ	-0.9541479
-3.412019	ดำเนินงาน	-0.7304249
-3.29392	ดิจิตอล	-0.7313507
-4.01408	ดิน	-0.5601951
-3.661897	ดินปืน	-0.9469393
-3.536958	ดิบ	-0.8041432
-3.917169	ดิสก์	-0.6911855
-3.837988	ดิสก์แพ็ค	-0.7780882
-3.917169	ดิสชาร์จ	-0.6892013
-4.01408	ดิสเกตต์	-0.5977608
-3.254411	ดี	-0.6862249
-3.713049	ดี.ซี.พลานาร์แมกนิตรอย	-0.8612251
-3.917169	ดีซีเซอร์โวมอเตอร์	-0.6571051
-3.917169	ดีซ่าน	-0.6987913
-3.661897	ดีบี	-0.9123776
-3.713049	ดีมอดูเลท	-0.9015316
-3.536958	ดีมอส	-1.078413
-3.661897	ดึง	-0.6983599
-3.713049	ดื้อยา	-0.8612251
-3.713049	ดุ	-0.9005283
-3.254411	ดู	-0.9163815
-3.917169	ดูดซับ	-0.6989174
-2.27968	ด้วย	-0.8102302
-3.917169	ด้วยเหตุที่	-0.6916668
-3.153741	ด้าน	-0.6379009
-3.917169	ด้าย	-0.6989174
-3.29392	ตก	-0.7708052
-3.917169	ตกค้าง	-0.6988333
-3.917169	ตกเลือด	-0.6985283
-3.168981	ตนเอง	-0.7402812
-3.917169	ตย.	-0.6989174
-3.38569	ตรง	-0.6447307
-3.917169	ตรงกลาง	-0.6989174
-3.917169	ตรรก	-0.6981494
-3.184776	ตรวจ	-0.8665056
-3.713049	ตรวจวัด	-0.8953055
-3.360867	ตรวจสอบ	-0.7049059
-4.01408	ตระกูล	-0.6002061
-3.661897	ตราบ	-0.9540848
-3.771041	ตรึง	-0.8450245
-4.01408	ตรุษ	-0.5601951
-3.713049	ตลอดจน	-0.6510313
-4.01408	ตลับ	-0.6018708
-3.917169	ตลาด	-0.6988333
-3.713049	ตอน	-0.9030059
-3.917169	ตอบสนอง	-0.6989174
-3.771041	ตะขาบ	-0.8450245
-4.01408	ตะพานหนู	-0.5601951
-4.01408	ตะวันตก	-0.5601951
-3.917169	ตะแกรง	-0.6983389
-3.254411	ตัด	-0.7316362
-3.917169	ตัดขวาง	-0.6938952
-3.917169	ตัดสิน	-0.696588
-3.917169	ตัดสินใจ	-0.6986545
-3.661897	ตันปรียชญา	-0.9541479
-2.260113	ตัว	-1.089002
-3.661897	ตัวกลาง	-0.6567809
-3.771041	ตัวความต้านทาน	-0.8450245
-3.771041	ตัวตน	-0.8432441
-3.917169	ตัวตรวจจับ	-0.6974116
-3.713049	ตัวตั้งเวลา	-0.8953055
-3.713049	ตัวนับ	-0.8612251
-3.917169	ตัวนำ	-0.6571051
-3.661897	ตัวผู้	-0.6485251
-4.01408	ตัวหนอน	-0.5969426
-3.38569	ตัวอย่าง	-0.8002216
-3.097625	ตัวอักษร	-0.6804959
-4.01408	ตัวอ่อน	-0.6003327
-3.502196	ตัวเมีย	-0.6544346
-4.01408	ตัวเลข	-0.6003327
-4.01408	ตัวเอง	-0.5997731
-3.917169	ตัวเอ็นโค้คเดอร์	-0.6971161
-3.661897	ตัวแปร	-0.9530215
-3.139018	ตั้ง	-0.9120697
-4.01408	ตั้งฉาก	-0.6000794
-3.337386	ตั้งแต่	-0.844509
-4.01408	ตั้งใจ	-0.5969426
-3.917169	ตา	-0.6989174
-3.440048	ตาก	-0.9028062
-3.917169	ตาชั่ง	-0.6892013
-2.67662	ตาม	-0.6922302
-3.917169	ตาย	-0.6946708
-3.201166	ตาราง	-1.405205
-3.917169	ตำ	-0.6989174
-3.917169	ตำรวจ	-0.6964083
-3.917169	ตำรับ	-0.6985388
-3.713049	ตำรา	-0.6113014
-3.502196	ตำแหน่ง	-0.839097
-3.917169	ติด	-0.6974643
-3.502196	ติดตั้ง	-0.8347593
-3.412019	ติดตาม	-0.9291981
-3.917169	ตี	-0.6989174
-3.917169	ตึงเครียด	-0.6988754
-3.917169	ตื่น	-0.6988438
-2.837988	ต่อ	-0.8217627
-3.201166	ต่อมา	-1.125875
-4.01408	ต่อเนื่อง	-0.5601951
-3.315109	ต่อไป	-1.259165
-3.713049	ต่อไปนี้	-0.8979726
-3.502196	ต่าง	-1.112438
-3.502196	ต่างประเทศ	-0.7950897
-2.536958	ต่างๆ	-0.7552245
-3.29392	ต่ำ	-0.8764367
-3.273717	ต้น	-0.9023851
-3.917169	ต้นข้าว	-0.6981283
-3.771041	ต้นแบบ	-0.601755
-3.574747	ต้ม	-0.7677262
-2.611818	ต้อง	-0.7976605
-2.925943	ต้องการ	-0.7000906
-3.917169	ต้านทาน	-0.6988333
-3.713049	ถนนพระราม6	-0.9030059
-3.917169	ถลา	-0.6985599
-3.917169	ถิ่นอาศัย	-0.6911855
-4.01408	ถี่	-0.6000583
-2.944041	ถึง	-0.7467244
-3.661897	ถุงพลาสติก	-0.9541479
-3.713049	ถู	-0.9029218
-2.823747	ถูก	-0.7227722
-3.440048	ถูกต้อง	-0.710443
-4.01408	ถ่องแท้	-0.5601951
-4.01408	ถ่านไฟฉาย	-0.6020179
-3.661897	ถ่าย	-0.6987492
-3.412019	ถ่ายทอด	-1.201981
-3.917169	ถ่ายภาพ	-0.6989174
-3.837988	ถ่ายเท	-0.5439945
-3.917169	ถ้วย	-0.6571051
-2.752816	ถ้า	-0.7930652
-3.124778	ทดลอง	-0.7299554
-3.412019	ทดสอบ	-0.9268044
-3.917169	ทนทาน	-0.6983389
-3.661897	ทบทวน	-0.9520718
-3.917169	ทบวงมหาวิทยาลัย	-0.6571051
-3.337386	ทรง	-0.7377904
-3.713049	ทรงกระบอก	-0.611255
-4.01408	ทรัพยากร	-0.5922913
-3.153741	ทรานซิสเตอร์	-0.7752764
-3.917169	ทรานเฟอร์ฟังชันก์	-0.6988859
-4.01408	ทราบ	-0.6005543
-3.661897	ทรูโฮล	-0.9538745
-3.29392	ทฤษฎี	-0.8341025
-4.01408	ทองคำเปลว	-0.6017761
-3.917169	ทองแดง	-0.6911855
-3.235928	ทะเล	-0.787242
-3.661897	ทะเลจีนใต้	-0.9123776
-3.917169	ทะเลใต้	-0.698381
-3.713049	ทัน	-0.8612251
-4.01408	ทันที	-0.6000161
-4.01408	ทับทิม	-0.5942755
-4.01408	ทั่ว	-0.6020179
-3.337386	ทั่วไป	-0.7973952
-3.536958	ทั่วๆไป	-1.037316
-2.752816	ทั้ง	-0.8101986
-3.713049	ทั้งนี้	-0.9019849
-3.917169	ทั้งสอง	-0.6916668
-3.38569	ทั้งหมด	-0.649963
-3.917169	ทั้งแผ่น	-0.6571051
-3.337386	ทา	-0.8444669
-2.566921	ทาง	-0.8123134
-4.01408	ทางปฏิบัติ	-0.5601951
-3.917169	ทางเดินหายใจ	-0.697886
-2.363286	ทำ	-1.125688
-3.616139	ทำการ	-0.6014393
-2.917169	ทำงาน	-0.7515027
-4.01408	ทำนอง	-0.6019023
-3.713049	ทำมุม	-0.9030059
-3.574747	ทำลาย	-0.7773938
-3.713049	ทำหน้าที่	-0.9027009
-2.83081	ทำให้	-0.7714996
-3.917169	ทิศทาง	-0.6911855
-3.502196	ทิ้ง	-0.8445722
-3.661897	ที	-0.9540743
-1.652824	ที่	-0.9997487
-3.38569	ที่1	-0.9043286
-3.412019	ที่จะ	-0.9264023
-3.917169	ที่พึ่งพิง	-0.6571051
-3.917169	ที่รัก	-0.6571051
-3.254411	ที่สุด	-0.8780617
-4.01408	ทึบ	-0.5969426
-3.661897	ทึมๆ	-0.9123776
-2.982671	ทุก	-0.8986847
-4.01408	ทุกคน	-0.6002694
-3.917169	ทุกวัน	-0.6989174
-4.01408	ท่องเที่ยว	-0.5997202
-3.917169	ท่อแก้ว	-0.6571051
-3.661897	ท่าทาง	-0.6972427
-4.01408	ท่าน	-0.601292
-3.616139	ท้องอืด	-0.740247
-3.713049	ท้องเฟ้อ	-0.6027676
-3.917169	ธรณีประตู	-0.6911855
-3.917169	ธรรมชาติ	-0.6985704
-4.01408	ธาตุ	-0.6020179
-4.01408	ธิดา	-0.601734
-3.917169	ธุรกิจ	-0.6986861
-3.917169	น.ส.	-0.6989174
-3.153741	นก	-0.892934
-3.661897	นม	-0.9540007
-3.917169	นราธิวาส	-0.6987808
-3.412019	นวด	-0.9288089
-3.917169	นอก	-0.6916668
-3.235928	นอกจาก	-0.7426131
-3.771041	นอกจากนั้น	-0.6012499
-2.953382	นอกจากนี้	-0.8585165
-3.917169	นอกชาน	-0.6946708
-3.470011	นอน	-0.5852373
-3.661897	นัก	-0.9123776
-3.917169	นักปราชญ์	-0.6989174
-3.917169	นักวิชาการ	-0.6892013
-3.661897	นักศึกษา	-0.9444738
-3.536958	นับถือ	-0.8118504
-3.917169	นับวัน	-0.6938526
-3.713049	นั่ง	-0.9029744
-2.666749	นั้น	-0.8114532
-3.440048	นา	-0.7102341
-3.771041	นางนวลแกลบ	-0.8448772
-3.917169	นาน	-0.6988754
-3.771041	นานา	-0.844709
-4.01408	นาปรัง	-0.5601951
-3.917169	นาม	-0.6938952
-3.124778	นาย	-0.84473
-3.574747	นาฬิกา	-0.6366434
-2.599106	นำ	-1.043954
-3.502196	นำเสนอ	-0.6964082
-3.661897	นำเอา	-0.6986125
-3.917169	นิกเกิล	-0.6571051
-3.661897	นิตยา	-0.9541479
-3.29392	นิยม	-0.8784775
-3.917169	นิลาพาร์วาทาลูเยนส์	-0.6925212
-3.661897	นิแวเต๊ะ	-0.9541479
-2.370627	นี้	-0.898519
-3.917169	นุ่ง	-0.6988333
-3.574747	นโยบาย	-0.6347042
-3.771041	น่า	-0.6019338
-3.917169	น้อง	-0.6989174
-3.168981	น้อย	-0.8441838
-3.837988	น้อยลง	-0.7362863
-2.99289	น้ำ	-0.8739644
-3.315109	น้ำตาล	-0.8227878
-4.01408	น้ำท่า	-0.5994983
-3.713049	น้ำหนัก	-0.6510313
-3.917169	บกพร่อง	-0.6892013
-3.917169	บทความ	-0.6971161
-3.661897	บทบาท	-0.6888249
-3.29392	บทเรียน	-0.7260147
-2.78363	บน	-0.7864156
-3.315109	บรรจุ	-0.6799253
-3.917169	บรรณารักษ์	-0.6886204
-3.917169	บรรทัด	-0.6987597
-3.661897	บริการ	-0.6955298
-3.917169	บริหาร	-0.6980335
-3.536958	บริเวณ	-0.8030909
-3.713049	บริโภค	-0.8612251
-4.01408	บล็อก	-0.6020179
-3.036356	บล๊อค	-0.8528929
-4.01408	บล๊อคโมเสด	-0.5977608
-3.502196	บล๊อคไดอะแกรม	-0.8027468
-3.713049	บอก	-0.6503123
-4.01408	บอแรกซ์	-0.5601951
-3.917169	บัญญัติศัพท์	-0.6988859
-2.982671	บัตร	-0.8449268
-3.003356	บันทึก	-0.9511306
-3.713049	บันทึกภาพ	-0.9008031
-3.440048	บันได	-0.745222
-4.01408	บั้นเอว	-0.5601951
-2.867951	บาง	-0.8000484
-3.661897	บางครั้ง	-0.6983915
-3.917169	บางๆ	-0.6571051
-4.01408	บาน	-0.5601951
-3.917169	บานประตู	-0.6911855
-3.713049	บาป	-0.8612251
-3.661897	บิดา	-0.9541479
-3.661897	บิน	-0.6988649
-3.713049	บีบ	-0.8998934
-3.917169	บึ้งตึง	-0.6988754
-3.917169	บุคคล	-0.6989174
-3.713049	บุคคลากร	-0.8933213
-3.917169	บุคลากร	-0.6988123
-3.917169	บุคลิกภาพ	-0.6989174
-4.01408	บุตร	-0.6020179
-3.917169	บุหงามงคล	-0.6571051
-3.713049	บูชา	-0.6112087
-4.01408	บ่งบอก	-0.6015657
-3.917169	บ่อยครั้ง	-0.6892013
-3.536958	บ่อยๆ	-0.7709906
-3.917169	บ้าง	-0.6969683
-3.917169	บ้าน	-0.6983178
-3.440048	บ้านเมือง	-0.7413712
-4.01408	บ้านเรือน	-0.6020179
-4.01408	ปกครอง	-0.6019023
-3.661897	ปกติ	-0.6944584
-3.502196	ปฏิบัติ	-0.8343931
-3.201166	ปฏิบัติการ	-0.9195446
-3.713049	ปรก	-0.9020798
-4.139018	ปรมาณู	-0.4755628
-3.025075	ประกอบ	-1.016858
-3.072071	ประกอบด้วย	-0.7244531
-3.38569	ประการ	-0.6452544
-4.01408	ประกาศ	-0.5601951
-3.713049	ประคบ	-0.9030059
-3.470011	ประจำ	-0.874546
-3.917169	ประจำวัน	-0.6916668
-3.917169	ประจุ	-0.6986756
-3.29392	ประชาชน	-0.6976014
-4.01408	ประตู	-0.6013026
-3.218199	ประธาน	-0.9115204
-4.01408	ประมง	-0.6020179
-4.01408	ประมวล	-0.5942755
-3.917169	ประมวลผล	-0.696831
-3.661897	ประมาณ	-0.6978965
-3.713049	ประสบ	-0.9029323
-3.917169	ประสบการณ์	-0.6938952
-3.917169	ประสาท	-0.6988333
-3.917169	ประสานงาน	-0.698644
-3.713049	ประสาร	-0.9030059
-3.917169	ประหยัด	-0.6984231
-3.412019	ประเทศ	-0.7346746
-3.502196	ประเทศที่พัฒนาแล้ว	-1.072078
-3.254411	ประเทศไทย	-0.7169006
-3.536958	ประเภท	-0.6668995
-3.917169	ประเมิน	-0.6989174
-3.502196	ประเมินผล	-1.103594
-4.01408	ประโยคความเดียว	-0.5601951
-3.254411	ประโยชน์	-0.7130384
-3.917169	ปรับ	-0.6987177
-3.713049	ปรับปรุง	-0.611174
-3.713049	ปรากฎ	-0.6485628
-3.337386	ปรากฏ	-0.7334868
-3.917169	ปริมาณ	-0.6892013
-3.713049	ปริมาตร	-0.9029744
-3.771041	ปรุง	-0.5994665
-3.917169	ปรุงยา	-0.6984441
-4.01408	ปรุงอาหาร	-0.5601951
-4.01408	ปลด	-0.6015447
-3.917169	ปลอดภัย	-0.6946708
-4.01408	ปลอม	-0.5980049
-3.254411	ปลา	-0.8774815
-3.917169	ปลาช่อน	-0.6987282
-3.440048	ปลาย	-0.6527814
-3.917169	ปลาหมึก	-0.6988754
-3.917169	ปลาไหล	-0.6987492
-4.01408	ปลุกเร้า	-0.601997
-3.337386	ปลูก	-0.7303036
-4.139018	ปล่อย	-0.4770582
-3.661897	ปวด	-0.9539797
-3.917169	ปวดท้อง	-0.6988333
-3.917169	ปอด	-0.6989174
-3.661897	ปักดำ	-0.946458
-3.440048	ปัจจุบัน	-0.7406142
-3.440048	ปัญหา	-0.9025642
-3.917169	ปั้น	-0.6925212
-3.337386	ปาก	-0.8418909
-3.917169	ปากกา	-0.6938526
-3.917169	ปานกลาง	-0.6571051
-3.536958	ปิด	-0.7710022
-3.440048	ปี	-0.6098751
-3.917169	ปีงบประมาณ	-0.6989174
-3.917169	ปึกแผ่น	-0.6989174
-4.01408	ปุ๋ย	-0.6010498
-3.917169	ปูม้า	-0.6988754
-3.536958	ป้องกัน	-0.6609762
-2.837988	ป้อน	-0.9177078
-3.917169	ผนวก	-0.6984336
-3.917169	ผม	-0.6987177
-2.891864	ผล	-0.8009875
-3.661897	ผลงาน	-0.6864189
-4.01408	ผลผลิต	-0.6003327
-3.661897	ผลลัพธ์	-0.9444738
-4.01408	ผลอไพล่เผล	-0.6020179
-3.072071	ผลิต	-0.8203732
-3.661897	ผลิตผล	-0.9537166
-3.917169	ผลิตภัณฑ์	-0.6977912
-3.713049	ผลึก	-0.6057559
-3.661897	ผลเสีย	-0.9536114
-3.917169	ผศ.	-0.6989174
-3.273717	ผสม	-0.7121497
-3.713049	ผิด	-0.9005283
-3.917169	ผิดปกติ	-0.6938952
-3.661897	ผิดพลาด	-0.6946283
-3.661897	ผิว	-0.9491677
-4.01408	ผืน	-0.6020179
-3.917169	ผูก	-0.6989174
-3.025075	ผู้	-0.7424723
-3.917169	ผู้กระทำ	-0.6949149
-3.917169	ผู้ช่วยศาสตราจารย์	-0.6989174
-4.01408	ผู้น้อย	-0.5942755
-3.574747	ผู้ป่วย	-0.777983
-4.01408	ผู้มีชื่อ	-0.6016604
-3.713049	ผู้วิจัย	-0.6510313
-3.917169	ผู้สนับสนุน	-0.6911855
-3.917169	ผู้เกี่ยวข้อง	-0.6985178
-2.790065	ผู้ใช้	-0.8287764
-3.713049	ผู้ใหญ่	-0.650989
-4.01408	ผ่า	-0.5942755
-2.875777	ผ่าน	-0.6781895
-3.412019	ผ้า	-0.77597
-3.917169	ผ้านุ่ง	-0.6989174
-3.917169	ผ้าพาดไหล่	-0.6571051
-3.917169	ผ้าพิมพ์	-0.6571051
-3.917169	ผ้าเกี้ยว	-0.6949149
-3.917169	ผ้าเคียนพุง	-0.6911855
-3.917169	ผ้าเช็ดตัว	-0.6989174
-3.003356	ฝน	-0.9101729
-3.713049	ฝรั่ง	-0.8612251
-4.01408	ฝั่ง	-0.6018077
-3.574747	ฝา	-0.778025
-3.574747	ฝาด	-1.041277
-4.01408	ฝึก	-0.6019864
-3.536958	ฝึกสอน	-1.071397
-3.661897	ฝ่าย	-0.9444738
-3.38569	พ.ศ.	-0.8014326
-3.713049	พญาไท	-0.9029849
-4.01408	พนักงาน	-0.5922913
-3.025075	พบ	-0.9244179
-3.713049	พบว่า	-0.9027535
-4.139018	พยายาม	-0.4752357
-4.139018	พรวน	-0.4352564
-3.713049	พระธาตุ	-0.9025957
-3.713049	พระบรมธาตุ	-0.9005283
-3.917169	พระบาทสมเด็จพระเจ้าอยู่หัว	-0.6571051
-3.661897	พระราชทาน	-0.9510459
-3.917169	พระราชประสงค์	-0.6915813
-4.01408	พระราชอาณาจักร	-0.5601951
-3.917169	พระองค์	-0.6975592
-3.917169	พระเกียรติยศ	-0.6966831
-3.470011	พระเยซู	-0.8743249
-3.917169	พริกไทย	-0.6989174
-3.917169	พรึง	-0.6571051
-3.771041	พรุ	-0.8440878
-3.254411	พร้อม	-0.9191443
-3.917169	พร้อมเพรียง	-0.6571051
-3.837988	พร้อมๆ	-0.7766455
-3.771041	พฤติกรรม	-0.8347484
-3.917169	พฤษภ	-0.6976541
-3.917169	พฤษภาคม	-0.6988544
-3.536958	พลังงาน	-0.809028
-4.139018	พลาสมา	-0.4769636
-3.917169	พลุ่ง	-0.6987492
-4.01408	พลเมือง	-0.601734
-3.917169	พล็อต	-0.6984652
-3.315109	พวก	-1.299176
-3.168981	พอ	-0.7886561
-3.536958	พอก	-0.8123032
-3.661897	พอสมควร	-0.9123776
-2.586756	พัฒนา	-0.7407165
-4.01408	พัด	-0.6014815
-3.917169	พันธุ์	-0.6989174
-3.713049	พับ	-0.648361
-3.917169	พาด	-0.6969894
-4.01408	พายุ	-0.6016288
-3.917169	พาหะ	-0.6571051
-3.059837	พิจารณา	-0.8130848
-4.01408	พิธี	-0.6020179
-4.01408	พิบูลศิลป์	-0.6020179
-3.124778	พิมพ์	-0.83577
-4.01408	พิมพ์ดีด	-0.5601951
-3.917169	พิษวิทยา	-0.6911855
-3.440048	พิเศษ	-0.8611672
-3.661897	พีซีเอ็ม	-0.9123776
-3.917169	พึบพับ	-0.6966302
-3.837988	พึ่งพา	-0.7780566
-3.917169	พืช	-0.6892013
-3.917169	พืชสมุนไพร	-0.6977174
-4.01408	พืชสวน	-0.6020179
-3.536958	พื้น	-0.6592166
-3.440048	พื้นฐาน	-1.171016
-4.01408	พื้นดิน	-0.5601951
-3.235928	พื้นที่	-0.7464924
-3.661897	พื้นเมือง	-0.9477937
-3.917169	พุทธศักราช	-0.6989174
-3.536958	พุ่ง	-1.078308
-3.661897	พูด	-0.9541059
-3.917169	พู่	-0.6988018
-3.713049	พ่น	-0.6489983
-3.713049	พ้อง	-0.6505979
-4.01408	ฟลิปฟล็อป	-0.5922913
-4.01408	ฟลูออเรสเซนซ์	-0.6020179
-3.917169	ฟอสฟอรัส	-0.6989174
-3.917169	ฟาก	-0.6989174
-4.139018	ฟากฟ้า	-0.4352564
-4.01408	ฟาร์มโคนม	-0.6020179
-4.01408	ฟิล์ม	-0.601471
-3.661897	ฟื้นฟู	-0.9531901
-4.01408	ภรรยา	-0.601734
-4.01408	ภัย	-0.6014289
-2.875777	ภาค	-0.9341669
-3.917169	ภาคกลาง	-0.697886
-3.661897	ภาคตัดขวาง	-0.9491677
-3.917169	ภาคผสมสัญญาณ	-0.6925212
-4.01408	ภาครัฐบาล	-0.5942755
-3.502196	ภาควิชา	-0.6966407
-3.713049	ภาคเหนือ	-0.9028902
-4.01408	ภาชนะ	-0.6018497
-3.273717	ภาพ	-0.7943638
-3.502196	ภาพตัดขวาง	-0.683139
-3.661897	ภาพอักษร	-0.9541479
-3.574747	ภายนอก	-0.7358347
-3.713049	ภายหลัง	-0.8927404
-3.254411	ภายใต้	-0.8089856
-2.99289	ภายใน	-0.7211092
-3.917169	ภารกิจ	-0.6892013
-3.661897	ภาษา	-0.9528317
-3.917169	ภาษาศาสตร์	-0.6892013
-4.01408	ภาษาอังกฤษ	-0.5942755
-3.917169	ภาษาแอสเซมบลี	-0.6571051
-3.713049	ภาษาไทย	-0.6113014
-3.713049	ภูมิประเทศ	-0.6529917
-4.01408	ภูมิภาค	-0.6007968
-3.917169	ภูษาทรง	-0.6970844
-3.917169	มน	-0.6985493
-3.917169	มนุษย์	-0.6571051
-3.38569	มม.	-0.9460406
-3.661897	มหาวิทยาลัย	-0.6987177
-3.917169	มหาวิทยาลัยเกษตรศาสตร์	-0.6571051
-3.917169	มหาวิทยาลัยเชียงใหม่	-0.6571051
-4.139018	มหาอาณาจักร	-0.4770897
-3.713049	มอง	-0.6503441
-3.917169	มอบหมาย	-0.6938526
-3.536958	มอสเฟสกำลัง	-1.079055
-3.713049	มอเตอร์	-0.8957013
-2.498868	มัก	-1.417491
-3.470011	มัน	-0.8747879
-3.917169	มั่นคง	-0.6571051
-2.330582	มา	-1.070295
-2.603302	มาก	-1.001937
-3.661897	มากกว่า	-0.6570472
-3.072071	มากขึ้น	-1.502203
-3.661897	มากมาย	-0.9538429
-3.917169	มาตรา	-0.6988123
-3.713049	มาตรเวลา	-0.9022062
-3.661897	มารดา	-0.696926
-3.917169	มาลาไทออน	-0.6989174
-4.01408	มิ	-0.5988634
-4.01408	มิกเซอร์	-0.5997731
-3.917169	มิลลิเมตร	-0.6983389
-1.77792	มี	-0.9255
-3.917169	มีโอกาส	-0.6983178
-3.661897	มือ	-0.9538324
-3.661897	มุง	-0.9519556
-3.661897	มุม	-0.6975698
-3.917169	มุ่ง	-0.6966302
-3.917169	มูโนะ	-0.6987702
-3.837988	ยก	-0.7780882
-3.917169	ยกเลิก	-0.6988754
-3.536958	ยอมรับ	-0.6603761
-2.752816	ยัง	-0.8497393
-3.661897	ยังมี	-0.9541479
-3.003356	ยา	-0.8236343
-3.917169	ยาก	-0.6983389
-4.01408	ยาฆ่าแมลง	-0.5601951
-4.01408	ยาดอง	-0.6020179
-4.01408	ยานเล็ก	-0.5601951
-3.661897	ยาบรรจุเสร็จ	-0.9123776
-3.235928	ยาว	-0.6342738
-3.661897	ยาวนาน	-0.9541479
-3.917169	ยาสมุนไพร	-0.6957734
-3.917169	ยาสังเคราะห์	-0.6911855
-3.661897	ยาเหน็บ	-0.9519027
-3.713049	ยาแผนปัจจุบัน	-0.6092126
-4.01408	ยาแผนโบราณ	-0.5922913
-3.616139	ยิ่ง	-0.7393735
-3.661897	ยิ่งขึ้น	-0.9123776
-3.917169	ยึด	-0.6988333
-3.713049	ยึดถือ	-0.9030059
-3.713049	ยื่น	-0.8980151
-3.917169	ยุง	-0.6987597
-3.502196	ยุโรป	-0.8030016
-3.235928	ยุ่งยาก	-0.9375366
-3.917169	ยุ้ง	-0.6989174
-3.502196	ยูเอชเอฟ	-0.8031753
-3.661897	ย่อม	-0.952568
-3.771041	ย่อย	-0.5588039
-3.38569	ย่าน	-0.8012328
-3.661897	ย้าย	-0.9535903
-3.713049	รถแทรกเตอร์	-0.9020903
-3.661897	รบกวน	-0.6944478
-3.713049	รม	-0.8612251
-4.01408	รวง	-0.5601951
-3.917169	รวงข้าว	-0.6987808
-3.315109	รวดเร็ว	-0.7152025
-3.254411	รวม	-0.7290065
-4.01408	รวมถึง	-0.5988634
-3.412019	รวมทั้ง	-0.7714784
-4.01408	รศ.	-0.601734
-3.254411	รส	-0.769425
-3.917169	รสประธานยา	-0.6985599
-3.713049	รหัส	-0.8980151
-3.917169	รองศาสตราจารย์	-0.6988123
-3.29392	รอบ	-0.6302239
-4.01408	รอย	-0.6020179
-3.661897	รอยทาง	-0.9444738
-3.713049	รอยพับ	-0.8953055
-4.01408	รอยสลัก	-0.6020179
-3.917169	รอยเย็บ	-0.6571051
-4.01408	ระงับ	-0.6014815
-3.412019	ระดับ	-0.6715656
-2.423015	ระบบ	-0.7461115
-3.917169	ระบบขับเคลื่อน	-0.6981283
-3.661897	ระบบออโธรอมบิด	-0.9123776
-3.771041	ระบาย	-0.8446563
-3.124778	ระยะ	-0.7661408
-4.01408	ระยะทาง	-0.5969852
-3.917169	ระวีวรรณ	-0.6989174
-3.124778	ระหว่าง	-0.6649749
-2.809959	รักษา	-1.016873
-3.917169	รังสี	-0.6972427
-3.917169	รังสีเอ็กซ์	-0.6988859
-3.917169	รัฐ	-0.698381
-3.315109	รัฐบาล	-1.293246
-4.01408	รัฐมนตรี	-0.6020179
-3.38569	รัฐมนตรีว่าการ	-0.9540533
-3.917169	รัฐวิสาหกิจ	-0.6911855
-3.025075	รับ	-0.6536986
-3.917169	รับประทาน	-0.6946708
-3.661897	รับส่ง	-0.9526841
-3.917169	ราก	-0.6571051
-4.01408	รากนมสวรรค์	-0.5601951
-4.01408	รากเจตมูลเพลิง	-0.6020179
-4.01408	รากแคแตร	-0.5942755
-4.01408	ราคา	-0.6018918
-3.917169	ราชการ	-0.6989174
-3.661897	ราชบัณฑิตยสถาน	-0.6562594
-3.917169	รายการ	-0.6892013
-3.273717	รายงาน	-0.8902141
-3.470011	รายละเอียด	-0.8696886
-3.917169	ราศี	-0.6989174
-4.01408	ริม	-0.6020179
-4.01408	ริมฝีปาก	-0.6019338
-3.917169	รุนแรง	-0.6969683
-3.917169	รุ่งอรุณ	-0.6911855
-3.917169	รู	-0.6987492
-4.139018	รูบิเดียม	-0.4352564
-2.519229	รูป	-1.066568
-3.771041	รูปร่าง	-0.600723
-3.235928	รูปแบบ	-0.7762894
-3.661897	รูเจาะ	-0.9123776
-2.540592	รู้	-1.471813
-3.38569	รู้จัก	-0.7964193
-3.502196	รู้สึก	-0.6910035
-3.536958	ร่วม	-0.8005353
-3.917169	ร่างกาย	-0.6964083
-3.661897	ร้องเพลง	-0.9499433
-3.917169	ร้องไห้	-0.6571051
-3.168981	ร้อน	-0.8391046
-4.01408	ร้านค้า	-0.5942755
-3.713049	ร้านอาหาร	-0.9020903
-3.574747	ร้าย	-0.7755154
-3.713049	ฤชุพันธุ์	-0.8966411
-4.01408	ฤดู	-0.6020179
-3.917169	ฤดูหนาว	-0.6989174
-3.917169	ฤดูแล้ง	-0.6571051
-2.633868	ลง	-0.856617
-3.917169	ลงมา	-0.6988754
-3.713049	ลงโทษ	-0.8979726
-3.337386	ลด	-0.8417003
-3.661897	ลดทอน	-0.6938846
-3.574747	ลดลง	-0.7762129
-3.536958	ลบ	-0.7700866
-3.713049	ลม	-0.6531179
-3.661897	ลวดทองแดง	-0.9444738
-4.01408	ลอง	-0.5980049
-3.917169	ลองจิจูด	-0.6571051
-3.29392	ลอจิก	-0.8803285
-3.412019	ละ	-0.9269418
-3.502196	ละเมอ	-0.656804
-3.661897	ละเลย	-0.9527368
-2.883745	ลักษณะ	-0.8126288
-3.917169	ลัดเลาะ	-0.6966302
-3.771041	ลาดเท	-0.8442248
-3.917169	ลิ้นทะเล	-0.6989174
-4.01408	ลุกลาม	-0.6018497
-4.01408	ลุ่ม	-0.6020179
-3.917169	ลูกกลอน	-0.6886204
-3.412019	ลูกค้า	-0.9232047
-4.01408	ลูกปืน	-0.6016709
-3.38569	ลูกผสม	-0.9443449
-4.139018	ลูกผู้ดี	-0.4767217
-3.917169	ลูกฟัก	-0.6989174
-3.917169	ลูป	-0.6985388
-4.01408	ล่ม	-0.5601951
-4.01408	ล่าม	-0.6020179
-3.771041	ล้ม	-0.8450245
-3.917169	ล้าน	-0.6977596
-3.713049	วง	-0.9013627
-3.713049	วงขนานลองติจูด	-0.8966411
-2.724045	วงจร	-0.7076111
-3.713049	วงจรขยายกำลัง	-0.8612251
-3.917169	วงจรขยายสัญญาณ	-0.6892013
-4.01408	วงจรผสมสัญญาณ	-0.5601951
-3.713049	วงจรรวม	-0.9020903
-3.713049	วงจรรีเลย์	-0.9030059
-3.661897	วงจรอิเล็กทรอนิกส์	-0.9519979
-3.771041	วงจรไดอะแกรม	-0.8400232
-3.917169	วงล้อ	-0.6988123
-3.917169	วงล้อเพลตัน	-0.6571051
-4.01408	วงศ์งามขำ	-0.5942755
-4.01408	วนศาสตร์	-0.6020179
-3.917169	วรนุช	-0.6989174
-3.470011	วัชพืช	-0.7164338
-4.01408	วัฑฒนะพงศ์	-0.5601951
-4.01408	วัฒนธรรม	-0.6008812
-3.661897	วัด	-0.6944903
-3.917169	วัดขุนพรหม	-0.6988123
-3.29392	วัตถุ	-0.7753885
-3.917169	วัตถุประสงค์	-0.6938952
-3.917169	วัน	-0.6971161
-2.59495	วันนี้	-1.979324
-3.917169	วันรุ่งขึ้น	-0.6571051
-3.661897	วัย	-0.9491677
-3.661897	วัว	-0.9541479
-3.536958	วัสดุ	-0.8111755
-3.38569	วาง	-0.6960486
-3.536958	วางแผน	-0.6612973
-4.01408	วาด	-0.6007441
-3.917169	วิกรม	-0.6989174
-3.08466	วิจัย	-0.908603
-3.574747	วิชา	-0.6351581
-3.38569	วิชาการ	-0.7923901
-3.917169	วิดีโอ	-0.6988754
-4.01408	วิทยาศาสตร์	-0.6015657
-3.661897	วิทยาศาสตร์เทคโนโลยีและการพลังงาน	-0.9477937
-3.315109	วิทยุ	-0.6758259
-3.917169	วิทยุตามตัว	-0.6987913
-3.917169	วิทยุโทรทัศน์	-0.6974116
-3.110989	วิธี	-0.7349648
-3.184776	วิธีการ	-0.7874339
-3.440048	วิธีใช้	-0.7094324
-3.661897	วินาที	-0.9123776
-3.917169	วินิจฉัย	-0.6911855
-3.713049	วิภา	-0.9030059
-3.917169	วิศวกรรมศาสตร์	-0.6989174
-3.38569	วิเคราะห์	-0.6857584
-3.917169	วีซีโอ	-0.6988859
-3.917169	วีแอลเอสไอ	-0.6571051
-3.837988	วุฒิพงศ์	-0.7780882
-3.917169	วุฒิวะชาติกุล	-0.6571051
-4.01408	วุ้น	-0.6020179
-3.661897	วโรตม์สิกขดิตถ์	-0.946458
-4.01408	ว่องไว	-0.5601951
-2.262031	ว่า	-0.9663233
-3.917169	ศอก	-0.6925212
-3.917169	ศักดาไฟฟ้า	-0.6892013
-4.139018	ศักราช	-0.4769215
-3.412019	ศัตรู	-0.9287773
-3.917169	ศัพท์	-0.6969683
-4.01408	ศัพท์สัมพันธ์	-0.6016288
-3.574747	ศาสนา	-0.775896
-3.661897	ศิลาจารึก	-0.5617731
-3.440048	ศึกษา	-0.6390355
-4.01408	ศุภเดช	-0.5601951
-3.661897	ศูนย์	-0.9541059
-3.917169	ศูนย์กลาง	-0.6988123
-3.917169	ศูนย์วิจัย	-0.6986966
-3.713049	ศูนย์สูตร	-0.9029638
-3.360867	ศูนย์ฯ	-0.7734047
-3.412019	ศูนย์เทคโนโลยีอิเล็กทรอนิกส์และคอมพิวเตอร์แห่งชาติ	-0.921795
-3.713049	สง่า	-0.9030059
-4.139018	สตรี	-0.4758054
-3.917169	สถานที่	-0.6911855
-3.254411	สถานี	-0.8115553
-3.713049	สถาบันเทคโนโลยีพระจอมเกล้าลาดกระบัง	-0.8612251
-3.337386	สถิติ	-0.8438981
-3.917169	สนพระราชหฤทัย	-0.6915813
-3.917169	สนับสนุน	-0.6957734
-3.713049	สนามไฟฟ้า	-0.8612251
-4.01408	สนิท	-0.5956112
-4.01408	สบาย	-0.5601951
-3.917169	สปริง	-0.6949149
-3.502196	สภาพ	-0.6906929
-3.771041	สภาพแวดล้อม	-0.8446248
-4.01408	สภาวะ	-0.6019023
-3.412019	สมการ	-0.768146
-3.713049	สมชัย	-0.9030059
-3.661897	สมบูรณ์	-0.6987387
-3.917169	สมภพ	-0.6989174
-3.713049	สมมติ	-0.9028482
-3.917169	สมรรถนะ	-0.6938952
-3.917169	สมอง	-0.6938952
-3.536958	สมัย	-0.8117028
-3.917169	สมาคม	-0.6977912
-2.917169	สมุนไพร	-0.7432982
-4.01408	สมเกียรติ	-0.6020179
-3.917169	สม่ำเสมอ	-0.6571051
-3.412019	สรรพคุณ	-0.914111
-3.713049	สรรพศรี	-0.8612251
-3.502196	สรุป	-0.844488
-2.944041	สร้าง	-0.7681146
-3.713049	สลับ	-0.9029849
-3.661897	สลับซับซ้อน	-0.9123776
-3.917169	สลึง	-0.6989174
-3.661897	สวม	-0.6948406
-3.917169	สว่าง	-0.6979176
-3.38569	สอง	-0.8004324
-4.01408	สอดคล้อง	-0.6000794
-3.713049	สอน	-0.6453103
-3.771041	สอบ	-0.8441826
-3.917169	สอบถาม	-0.696831
-3.713049	สะกดจิต	-0.9024168
-3.360867	สะดวก	-0.6691592
-3.713049	สะอาด	-0.6528866
-4.01408	สักการะ	-0.6019759
-3.917169	สังคมสารสนเทศ	-0.6571051
-4.01408	สังเกต	-0.6016604
-3.713049	สังเขป	-0.9026588
-3.124778	สังเคราะห์	-1.16134
-2.746907	สัญญาณ	-0.773827
-4.01408	สัญญาณเตือน	-0.5969426
-3.771041	สัญญาณเบสแบนด์	-0.8032331
-4.01408	สัญลักษณ์	-0.5969852
-3.771041	สัดส่วน	-0.5920332
-4.01408	สัตวแพทยศาสตร์	-0.5942755
-3.440048	สัตว์	-0.8951878
-3.917169	สัตว์น้ำ	-0.697886
-3.917169	สัตว์ปีก	-0.6892013
-4.01408	สัตว์เลี้ยง	-0.600976
-3.917169	สับ	-0.6571051
-3.661897	สับสน	-0.9541479
-3.661897	สัปดาห์	-0.9123776
-3.713049	สัมประสิทธิ์	-0.8927404
-4.01408	สัมพันธ์	-0.601734
-3.917169	สั่ง	-0.698644
-3.917169	สั่งซื้อ	-0.6969683
-3.574747	สั้น	-0.7774358
-3.713049	สาขา	-0.9029744
-3.536958	สาธารณสุขมูลฐาน	-0.7629993
-3.917169	สาน	-0.6964083
-3.917169	สาบสาง	-0.6989174
-2.38569	สามารถ	-0.7475959
-4.01408	สามี	-0.6000794
-3.574747	สาย	-0.7772673
-3.771041	สายตา	-0.5969426
-3.917169	สายสร้อย	-0.6988544
-3.412019	สายอากาศ	-0.7167192
-3.661897	สาร	-0.6988228
-3.412019	สารตัวนำยิ่งยวด	-0.7252795
-4.01408	สารนิเทศ	-0.5942755
-3.536958	สารเคมี	-0.809632
-3.917169	สารเจือโบรอน	-0.6571051
-3.218199	สำคัญ	-0.7106985
-3.713049	สำนักงาน	-0.9028166
-3.713049	สำนักงานปลัดกระทรวงวิทยาศาสตร์เทคโนโลยีและการพลังงาน	-0.9030059
-3.917169	สำนักงานปลัดกระทรวงฯ	-0.6571051
-3.713049	สำมะโนประชากร	-0.8957013
-3.713049	สำรวจ	-0.9030059
-2.69186	สำหรับ	-0.8409308
-3.661897	สิทธิเลิศพิศาล	-0.9123776
-3.412019	สิ่ง	-0.7663569
-4.01408	สิ่งของ	-0.6020179
-3.771041	สิ่งแวดล้อม	-0.5965809
-3.536958	สิ้นเปลือง	-1.078939
-2.972687	สี	-0.9344158
-3.917169	สี่เหลี่ยม	-0.6970317
-3.412019	สืบค้น	-0.6652123
-3.917169	สื่อสาร	-0.6989174
-3.574747	สุขุม	-1.038831
-3.917169	สุชาติ	-0.6989174
-3.917169	สุญญากาศ	-0.6571051
-4.01408	สุนัข	-0.5994983
-4.01408	สุรา	-0.5601951
-3.917169	สุรีย์	-0.6989174
-3.29392	สูง	-0.7253386
-3.917169	สูงสุด	-0.6571051
-3.110989	สูญเสีย	-0.7780183
-3.713049	สู่	-0.652855
-3.917169	สเปคตรัม	-0.6974116
-3.917169	สไลด์	-0.6571051
-3.315109	ส่ง	-0.7580566
-3.661897	ส่งเสริม	-0.943893
-2.515769	ส่วน	-0.8950645
-3.917169	ส่วนความจำ	-0.6571051
-3.917169	ส่วนประกอบ	-0.6915813
-3.713049	ส่วนหนึ่ง	-0.9021956
-3.440048	ส่วนใหญ่	-0.8555866
-3.502196	หนอนกอ	-0.8429062
-3.337386	หนัก	-0.9555578
-3.661897	หนังสือ	-0.6937675
-3.917169	หนาว	-0.6981599
-2.867951	หนึ่ง	-0.7876016
-4.139018	หนุ่มหนุ่ม	-0.4770897
-3.360867	หนู	-0.813699
-3.713049	หนูขยะ	-0.8953055
-3.713049	หนูจิ๊ด	-0.9030059
-3.713049	หนูนา	-0.9030059
-3.713049	หนูพุกเล็ก	-0.9030059
-3.713049	หนูสวน	-0.9030059
-3.713049	หนูหริ่ง	-0.8612251
-3.917169	หน่วยความจำ	-0.6571051
-3.254411	หน่วยงาน	-0.9083866
-4.139018	หน่วยรังสีรักษา	-0.4728221
-3.218199	หน้า	-0.8379552
-3.771041	หน้าจอ	-0.5554584
-3.661897	หน้าจั่ว	-0.6888894
-3.047938	หน้าที่	-0.7344683
-3.713049	หน้าปัทม์	-0.8612251
-3.917169	หมด	-0.6989174
-2.563061	หมา	-1.312636
-4.01408	หมายถึง	-0.6019444
-3.917169	หมึก	-0.6916668
-3.661897	หมื่น	-0.9518499
-3.713049	หมุน	-0.6520758
-3.713049	หมู่คณะ	-0.8980151
-3.661897	หยด	-0.6988649
-3.713049	หยาบคาย	-0.9030059
-3.917169	หยุด	-0.6966831
-2.230533	หรือ	-0.7882091
-3.917169	หลงลืม	-0.6571051
-3.412019	หลวง	-0.9194244
-3.917169	หลอด	-0.6989174
-4.01408	หลอดไฟ	-0.6020179
-3.661897	หลอดไฟฟ้า	-0.9444738
-3.917169	หลอม	-0.6571051
-3.235928	หลัก	-0.7647608
-3.713049	หลักการ	-0.6476057
-3.616139	หลักฐาน	-0.6007441
-3.713049	หลักเกณฑ์	-0.8933213
-2.533354	หลัง	-1.486924
-4.01408	หลังจากนั้น	-0.6020179
-3.917169	หลัวฮู่	-0.6571051
-3.036356	หลาย	-0.7937899
-3.771041	หลายๆ	-0.5994242
-3.917169	หวัง	-0.6984125
-3.574747	หวาน	-1.041277
-3.917169	หวี	-0.6979703
-3.917169	หอบ	-0.6989174
-3.917169	หอสมุดกลาง	-0.6986125
-3.661897	หะยีวามิง	-0.9123776
-3.661897	หักพัง	-0.9538113
-3.661897	หัว	-0.6988228
-3.502196	หัวข้อ	-0.8278587
-3.536958	หัวบันทึก	-0.8074342
-3.412019	หัวอ่าน	-0.9164673
-3.917169	หัวเทียน	-0.6986756
-3.917169	หั่น	-0.6984125
-3.38569	หา	-0.8011696
-3.574747	หาก	-0.6261386
-3.29392	หาง	-0.6984336
-3.315109	หาย	-0.7568734
-3.917169	หายใจ	-0.6989174
-3.917169	หาร	-0.6981388
-3.917169	หาเลี้ยง	-0.6571051
-4.01408	หินโสโครก	-0.6020179
-3.917169	หืด	-0.6989174
-3.917169	หุง	-0.6987913
-3.661897	หู	-0.6570472
-4.01408	ห่อหุ้ม	-0.5996674
-3.917169	ห่าง	-0.6988333
-2.633868	ห้อง	-1.643784
-3.917169	ห้องสมุดเอยูเอ	-0.6987282
-3.917169	ห้า	-0.6985072
-3.713049	องค์	-0.901869
-3.917169	องค์ประกอบ	-0.6938952
-3.536958	องศา	-1.037316
-3.536958	อธิบาย	-0.8117134
-3.713049	อนึ่ง	-0.9028482
-3.574747	อนุกรม	-0.7701741
-3.713049	อนุกรมวิธาน	-0.9022483
-3.917169	อนุกรรมการ	-0.6977912
-3.661897	อนุเคราะห์	-0.6892766
-3.917169	อบรม	-0.6957734
-3.661897	อม	-0.9541479
-3.917169	อมาตยกุล	-0.6571051
-2.084661	อยู่	-1.269371
-2.944041	อย่าง	-0.7425622
-3.917169	อย่างคุ้มค่า	-0.6989174
-4.139018	อย่างต่ำ	-0.4728221
-3.661897	อย่างยิ่ง	-0.6456943
-3.917169	อย่างสูง	-0.6571051
-3.917169	อย่างแท้จริง	-0.6571051
-3.713049	อย่างใด	-0.8612251
-3.536958	อย่างไร	-1.037316
-3.412019	อย่างไรก็ตาม	-0.9212491
-3.917169	อร่ามเหลือง	-0.6571051
-3.917169	อวัยวะ	-0.6892013
-3.917169	อวัยวะขับถ่าย	-0.6571051
-3.713049	อวัยวะเพศ	-0.8980151
-2.697061	ออก	-0.8103069
-3.661897	ออกมา	-0.6559345
-3.661897	ออกรวง	-0.953306
-3.917169	ออกอากาศ	-0.6957734
-2.845287	ออกแบบ	-0.9036864
-3.574747	ออกไป	-0.736159
-3.917169	ออสเตรเลีย	-0.6571051
-3.917169	อะตอม	-0.6571051
-3.917169	อะโซคริน	-0.6989174
-3.536958	อะไร	-0.8115658
-3.360867	อักษร	-0.6662891
-3.917169	อักษรศาสตร์	-0.696588
-3.917169	อักเสบ	-0.6989174
-3.153741	อัตรา	-0.9019533
-3.661897	อัตราส่วน	-0.9541479
-3.661897	อัตโนมัติ	-0.9123776
-3.917169	อัน	-0.6925212
-3.917169	อัมพาต	-0.6966831
-2.875777	อาการ	-0.8373137
-3.412019	อากาศ	-0.7760651
-3.536958	อาคาร	-0.8127766
-2.953382	อาจ	-0.7702597
-3.917169	อาจจะ	-0.6972955
-3.917169	อาจารย์	-0.6988123
-3.713049	อาบ	-0.8953055
-3.917169	อาบน้ำ	-0.6989174
-3.412019	อายุ	-0.7767722
-3.713049	อาละวาด	-0.8612251
-3.713049	อาศัย	-0.6529287
-3.440048	อาหาร	-0.7091417
-3.771041	อาเจียน	-0.5955364
-3.917169	อาเบอร์ดีนพรูวิงเกรานดส์	-0.6571051
-3.917169	อินพุต	-0.6571051
-3.917169	อินพุท	-0.6989174
-3.713049	อินเตอร์เฟอโรมิเตอร์	-0.8612251
-4.01408	อิมเมจ	-0.6014078
-3.661897	อิเล็กตรอน	-0.9541059
-3.201166	อิเล็กทรอนิกส์	-0.7975477
-3.917169	อิเล็คโทรนิคส์	-0.6987597
-3.218199	อีก	-0.7210535
-3.502196	อีกครั้ง	-1.072078
-3.315109	อีกด้วย	-1.259165
-3.713049	อีกทั้ง	-0.6473181
-3.661897	อีนิแอ็ก	-0.9123776
-3.917169	อึดอัด	-0.6989174
-3.661897	อื่น	-0.9123776
-3.08466	อื่นๆ	-0.8242099
-3.917169	อุณหภูมิ	-0.6938952
-3.661897	อุดม	-0.9541479
-3.917169	อุดอู้	-0.6953815
-3.337386	อุตสาหกรรม	-0.8029553
-2.962927	อุปกรณ์	-0.8502995
-4.01408	อุปมาน	-0.5601951
-3.713049	อุปโภค	-0.9030059
-3.917169	อเนกประสงค์	-0.6571051
-3.38569	อ่าน	-0.7916163
-3.713049	อ่านเปรื่อง	-0.8612251
-3.917169	อ่าว	-0.6989174
-3.661897	อ้วน	-0.9534324
-4.139018	ฮาร์ดดิสต์	-0.4673526
-3.713049	ฮาร์ดแวร์	-0.9030059
-3.713049	ฮิสทีเรีย	-0.8612251
-3.917169	ฮึดฮัด	-0.6571051
-3.38569	ฯลฯ	-0.9123198
-3.917169	ะต้อง	-0.6916668
-3.502196	เกณฑ์	-0.7918224
-3.661897	เกม	-0.9540322
-4.01408	เกย	-0.6020179
-3.168981	เกรง	-0.8028986
-3.713049	เกรงกลัว	-0.9024588
-3.661897	เกราะ	-0.9539165
-3.661897	เกรียง	-0.9541479
-4.139018	เกรียงชัย	-0.4770897
-3.661897	เกร็ง	-0.9538955
-4.139018	เกร็งตัว	-0.4720039
-3.917169	เกลียด	-0.6988333
-4.139018	เกลี่ย	-0.2585976
-4.01408	เกลี้ยกล่อม	-0.6019759
-3.917169	เกลี้ยง	-0.6571051
-3.917169	เกล็ด	-0.6989174
-3.440048	เกวียน	-0.6100842
-3.917169	เกศ	-0.6985704
-3.917169	เกษตร	-0.6925212
-3.574747	เกษตรกรรม	-0.7604194
-4.01408	เกษตรศาสตร์	-0.6020179
-3.661897	เกะกะ	-0.9541479
-3.917169	เกา	-0.6984862
-3.273717	เกาะ	-0.6023542
-2.713049	เกิด	-0.7479071
-4.01408	เกิดขึ้น	-0.5601951
-3.917169	เกิน	-0.6966302
-3.917169	เกียจคร้าน	-0.6987282
-3.917169	เกียรติยศ	-0.6571051
-3.502196	เกี่ยวกับ	-0.8449509
-3.337386	เกี่ยวข้อง	-0.7374836
-3.771041	เกี้ยว	-0.435048
-3.917169	เกี๊ยว	-0.6988544
-3.713049	เกือบ	-0.9026378
-3.38569	เกเร	-0.9538535
-2.953382	เก็บ	-0.7306947
-4.139018	เก็บออม	-0.2590377
-2.944041	เก่ง	-0.7862799
-3.29392	เก่งกาจ	-0.8419538
-3.771041	เก่า	-0.5999315
-3.29392	เก้ง	-0.8423943
-2.505549	เก้าอี้	-1.595883
-3.502196	เก๋	-0.8449509
-2.925943	เขา	-0.7364792
-3.440048	เขียน	-0.7527491
-3.917169	เขียว	-0.6571051
-3.661897	เขื่อน	-0.6983494
-3.713049	เข็ม	-0.8979726
-2.908569	เข้า	-0.799031
-4.139018	เข้าด้วยกัน	-0.4352564
-3.315109	เข้ามา	-0.8173404
-3.917169	เข้าร่วม	-0.6983178
-3.837988	เข้าออก	-0.7761496
-3.917169	เข้าเฝ้า	-0.6571051
-3.337386	เข้าใจ	-0.8305082
-3.917169	เข้าใจผิด	-0.6974643
-3.917169	เข้าไป	-0.6984125
-3.713049	เคย	-0.6529497
-3.502196	เครน	-0.7975945
-3.315109	เครือข่าย	-0.8209757
-3.917169	เครือข่ายคอมพิวเตอร์	-0.6987702
-2.578713	เครื่อง	-0.9753705
-3.771041	เครื่องกลึง	-0.8449404
-3.536958	เครื่องกัด	-1.079055
-3.917169	เครื่องคอมพิวเตอร์	-0.6988754
-3.917169	เครื่องซักผ้า	-0.6571051
-3.502196	เครื่องต้นแบบ	-0.8428957
-3.917169	เครื่องบิน	-0.6571051
-3.047938	เครื่องพิมพ์	-0.9495903
-3.713049	เครื่องมือ	-0.6524972
-4.01408	เครื่องยา	-0.5601951
-3.713049	เครื่องรับวิทยุ	-0.6457704
-4.01408	เครื่องวัด	-0.6015236
-3.713049	เครื่องสปัตเตอริง	-0.9015316
-3.917169	เครื่องส่ง	-0.6938526
-3.917169	เครื่องส่งวิทยุ	-0.6938526
-3.917169	เครื่องฮีเลียมนีออนเลเซอร์	-0.6974116
-3.917169	เครื่องเล่นวิดีโอ	-0.6974116
-3.917169	เครื่องเสียง	-0.6985809
-3.917169	เครื่องแบบ	-0.6988964
-3.412019	เครื่องใช้	-0.9193491
-3.574747	เครื่องไมโครคอมพิวเตอร์	-0.73602
-3.661897	เคลียร์	-0.9538324
-3.337386	เคลือบ	-0.8423565
-2.982671	เคลื่อนที่	-0.8885219
-4.01408	เคลื่อนไหว	-0.5601951
-3.917169	เคล็ด	-0.6989174
-3.771041	เคี่ยว	-0.8419015
-3.917169	เคเบิล	-0.6571051
-3.574747	เค็ม	-1.041277
-3.771041	เงา	-0.8400232
-3.917169	เงิน	-0.6985493
-3.917169	เงินทอง	-0.6915813
-3.917169	เงียบๆ	-0.6953815
-3.917169	เงื่องหงอย	-0.6989174
-3.440048	เจริญ	-0.9001476
-3.047938	เจาะ	-0.912266
-3.440048	เจ็บป่วย	-0.7112775
-3.771041	เจ็บไข้	-0.8400232
-4.139018	เจ้าชู้	-0.4770897
-3.29392	เจ้าหน้าที่	-0.7585869
-3.917169	เฉ	-0.6969366
-3.235928	เฉพาะ	-0.8162113
-3.713049	เฉลี่ย	-0.6531179
-3.771041	เชิง	-0.6019759
-3.917169	เชื่อถือ	-0.6988333
-3.771041	เชื่อม	-0.5599288
-3.502196	เชื่อมต่อ	-0.8433286
-3.917169	เชื้อเพลิงยูเรเนียม	-0.6571051
-3.713049	เช็ค	-0.8933213
-2.603302	เช่น	-0.7206023
-3.536958	เช่นกัน	-1.037316
-3.917169	เช้า	-0.6911855
-3.917169	เซนติเมตร	-0.6982126
-3.917169	เซลลูล่าร์	-0.6973272
-3.574747	เซลล์	-0.7703882
-3.917169	เซ็นเซอร์	-0.6985704
-3.771041	เดรน	-0.8400232
-3.315109	เดิน	-0.7535281
-3.771041	เดินทาง	-0.8446037
-3.072071	เดิม	-1.040435
-3.917169	เดิมๆ	-0.697886
-2.551681	เดียว	-1.460644
-3.440048	เดียวกัน	-0.603157
-3.917169	เดียวกับ	-0.6988859
-3.917169	เดือย	-0.6989174
-3.917169	เด็ก	-0.6571051
-3.837988	เตชะดำรงสิน	-0.7362863
-3.917169	เตตราไซคลีน	-0.6988438
-3.153741	เตรียม	-1.00745
-3.917169	เตรียมตัว	-0.6938526
-3.917169	เตาเอพิแทกซี	-0.6571051
-3.917169	เตียวตระกูล	-0.6571051
-4.01408	เตือน	-0.5946713
-3.470011	เต็ม	-0.6824168
-3.661897	เทคนิค	-0.9468538
-3.337386	เทคโนโลยี	-0.8413611
-3.661897	เทพกาเบรียล	-0.9531375
-3.661897	เทา	-0.9540007
-3.917169	เทียบ	-0.6979703
-3.661897	เทียบเท่า	-0.9522619
-4.01408	เที่ยว	-0.6020179
-3.440048	เท่า	-0.7426119
-3.661897	เท่ากับ	-0.9538429
-3.025075	เท่านั้น	-1.5492
-4.139018	เท่าไร	-0.4749506
-3.502196	เท่าๆ	-1.112438
-3.917169	เธอ	-0.6989174
-3.661897	เนื่อง	-0.9522091
-3.713049	เนื่องจาก	-0.6490195
-3.440048	เนื้อ	-0.7528754
-3.917169	เนื้อสาร	-0.6989174
-3.661897	เนื้อหา	-0.9523041
-3.713049	เนื้อเยื่อ	-0.6493908
-3.917169	เบงกอล	-0.6571051
-3.917169	เบรก	-0.6987808
-3.917169	เบรค	-0.6571051
-3.713049	เบลอ	-0.9007502
-3.574747	เบื้องต้น	-0.7698849
-3.917169	เบ็ดเสร็จ	-0.6571051
-3.917169	เปรมปราณีรัชต์	-0.6571051
-3.713049	เปรอะเปื้อน	-0.8987908
-3.661897	เปราะ	-0.9123776
-3.536958	เปรียบเทียบ	-0.8011189
-3.254411	เปลี่ยน	-0.9120809
-3.917169	เปลี่ยนเป็น	-0.6989174
-3.412019	เปลี่ยนแปลง	-0.6703727
-3.917169	เปลือง	-0.6982442
-4.01408	เปล่ง	-0.6018708
-3.917169	เปล่า	-0.6972955
-3.917169	เปล่าๆ	-0.6571051
-3.917169	เปะปะ	-0.6966302
-3.412019	เปิด	-0.7778885
-3.917169	เปียโชอิเล็คตริก	-0.6892013
-3.917169	เปื้อนเปรอะ	-0.6989174
-1.831522	เป็น	-0.8021504
-3.440048	เป็นต้น	-1.134226
-3.661897	เป็นต้นมา	-0.9539586
-3.917169	เป็นพิษ	-0.6989174
-3.917169	เป็นสุข	-0.6989174
-3.771041	เป็นหลัก	-0.8032331
-4.01408	เป็นไป	-0.6011446
-3.917169	เป้าหมาย	-0.6989174
-3.574747	เผ็ด	-1.041098
-3.917169	เผ็ดร้อน	-0.697886
-4.01408	เพทุบาย	-0.5601951
-2.68672	เพราะ	-0.7468559
-4.01408	เพราะฉะนั้น	-0.5917104
-3.917169	เพลี้ยกระโดด	-0.6985072
-3.713049	เพอริคาร์พเลเยอร์	-0.8966411
-3.315109	เพาะเลี้ยง	-0.8225327
-3.661897	เพิ่ม	-0.6975487
-3.713049	เพิ่มเติม	-0.9020798
-3.38569	เพียง	-0.9517232
-4.01408	เพียงพอ	-0.6011762
-3.917169	เพียงแต่	-0.6967993
-2.28776	เพื่อ	-0.8708708
-4.01408	เพื่อน	-0.6015025
-3.502196	เพ้อ	-0.8031406
-3.917169	เฟรม	-0.6988018
-3.440048	เฟส	-0.6377195
-3.917169	เฟื้อง	-0.6571051
-4.139018	เฟ้อ	-0.4769636
-3.917169	เภสัชวัตถุ	-0.698202
-3.917169	เภสัชวิทยา	-0.6989174
-3.917169	เมฆ	-0.6988018
-3.917169	เมตร	-0.6983389
-3.917169	เมนู	-0.6987177
-3.917169	เมล็ด	-0.6989174
-3.917169	เมล็ดพืช	-0.6892013
-2.328337	เมื่อ	-1.047418
-3.440048	เย็น	-0.901521
-3.917169	เย็นๆ	-0.6571051
-3.440048	เรดาร์	-0.897728
-2.823747	เรา	-0.7383879
-3.360867	เริ่ม	-0.7159875
-3.153741	เรียก	-0.8148199
-4.01408	เรียกว่า	-0.6018708
-3.502196	เรียง	-0.8361778
-3.29392	เรียน	-0.7529317
-3.713049	เรือ	-0.6529602
-3.713049	เรือน	-0.8612251
-4.139018	เรือนครัว	-0.4728221
-3.917169	เรือนครัวไฟ	-0.6571051
-3.917169	เรือนนอน	-0.6911855
-3.254411	เรื่อง	-0.7293242
-3.713049	เรื่อย	-0.8612251
-3.713049	เรื่อยๆ	-0.8612251
-3.917169	เร็คติไฟร์	-0.6925212
-3.08466	เร็ว	-0.7531128
-3.38569	เลขที่	-1.229797
-3.661897	เลย	-0.6979071
-3.661897	เลอะเลือน	-0.9541479
-3.713049	เลียนแบบ	-0.9029638
-3.917169	เลี้ยง	-0.6974643
-3.139018	เลือก	-0.7605547
-4.01408	เลือด	-0.5601951
-3.502196	เลื่อน	-0.6942034
-3.168981	เลเซอร์	-0.6847875
-3.097625	เล็ก	-0.7538708
-3.917169	เล็กน้อย	-0.6984757
-3.917169	เล็กๆน้อยๆ	-0.6946708
-3.574747	เล่น	-0.5866486
-2.900136	เวลา	-0.8043994
-3.917169	เวอร์ชั่น3	-0.6911855
-3.661897	เวิร์ดโปรเซสเซอร์	-0.9123776
-3.003356	เศษ	-0.9525468
-3.661897	เสนอ	-0.695657
-4.01408	เสมหะ	-0.5601951
-3.661897	เสมอ	-0.9123776
-3.917169	เสร็จเรียบร้อย	-0.6984968
-4.139018	เสวยราชย์	-0.4735327
-3.661897	เสา	-0.6953921
-3.014079	เสีย	-0.7635607
-3.536958	เสียง	-0.8111439
-3.917169	เสียงพูด	-0.6979598
-4.01408	เสียชีวิต	-0.5997202
-4.01408	เสียดาย	-0.5601951
-3.917169	เสียเวลา	-0.6915813
-3.917169	เสือทะเล	-0.6989174
-3.917169	เสื่อม	-0.6986125
-3.713049	เสื้อ	-0.9029218
-4.01408	เสื้อกระบอก	-0.6018918
-3.917169	เสื้อครุย	-0.6989174
-3.574747	เส้นกราฟ	-0.6330533
-3.917169	เส้นตรง	-0.6966831
-3.661897	เส้นผ่าศูนย์กลาง	-0.9540322
-3.536958	เส้นลวดตัวนำ	-0.7602789
-4.01408	เหง้า	-0.6019864
-4.01408	เหง้าว่านน้ำ	-0.6020179
-3.917169	เหตุ	-0.6957734
-3.661897	เหตุผล	-0.946458
-3.502196	เหมาะ	-0.8440878
-3.661897	เหมาะสม	-0.6966197
-3.536958	เหมือน	-0.8108482
-3.661897	เหมือนกัน	-0.9541479
-4.01408	เหมือนว่า	-0.6020179
-3.917169	เหม็น	-0.6989174
-3.661897	เหยียบย่ำ	-0.9123776
-3.771041	เหยื่อ	-0.8400232
-3.917169	เหลว	-0.6987492
-3.771041	เหลือ	-0.8443406
-3.661897	เหลือง	-0.9540112
-4.01408	เหลือทิ้ง	-0.6000583
-3.502196	เหล็ก	-0.6891152
-4.139018	เหล่า	-0.4770897
-3.440048	เหล่านี้	-0.5955179
-3.917169	เหียอี	-0.6989174
-3.917169	เหือดแห้ง	-0.6966302
-3.036356	เห็น	-0.7033688
-3.713049	เห็นควร	-0.9029638
-3.917169	เห็นว่า	-0.6989174
-3.184776	เอกชน	-0.8175945
-3.713049	เอกสาร	-0.6530023
-4.139018	เอกสารอ้างอิง	-0.4352564
-3.440048	เอง	-0.7107561
-3.917169	เอดิชั่น	-0.6571051
-3.713049	เออออ	-0.9007502
-3.713049	เอะอะ	-0.9030059
-2.925943	เอา	-0.7990494
-3.917169	เอาชนะ	-0.6967993
-3.771041	เอาเอง	-0.8032331
-3.917169	เอื้อพันธ์วิริยะกุล	-0.6571051
-3.917169	เอเก็น	-0.6988123
-3.661897	เอ็ดแว็ก	-0.9469393
-3.917169	เอ้าท์พุท	-0.6979598
-3.917169	เฮิรทซ์	-0.6571051
-3.337386	แกง	-0.6193159
-3.273717	แกน	-0.9028376
-3.917169	แกนทรี	-0.6571051
-3.917169	แกม	-0.6571051
-3.38569	แกว่ง	-0.7580278
-3.536958	แก่	-1.068832
-3.713049	แก่จัด	-0.9029323
-3.917169	แก่น	-0.6571051
-4.01408	แก้	-0.6014815
-3.574747	แก้ม	-0.7362517
-2.908569	แก้ว	-0.8070503
-3.661897	แก้วตา	-0.6569778
-3.917169	แก้วน้ำ	-0.6989174
-3.917169	แก้วมังกร	-0.6989174
-3.440048	แก้ไข	-0.6420333
-3.661897	แก๊บ	-0.9540848
-3.917169	แขน	-0.6916668
-3.661897	แข็ง	-0.9123776
-3.661897	แคระแกร็น	-0.9123776
-3.917169	แคร่	-0.6988859
-3.661897	แคลเซียม	-0.6976647
-3.917169	แง่	-0.6886204
-3.661897	แชนแนล	-0.9531901
-4.01408	แช่	-0.5997731
-3.917169	แดด	-0.6911855
-3.661897	แตกต่าง	-0.6971372
-2.633868	แต่	-0.7968122
-3.254411	แต่ละ	-0.812419
-3.153741	แถบ	-0.8582635
-3.470011	แถบแม่เหล็ก	-0.6840212
-3.502196	แทน	-0.6566186
-3.661897	แทรกเตอร์	-0.9541479
-3.917169	แท่ง	-0.6989174
-3.470011	แนว	-0.7217217
-3.536958	แนวดิ่ง	-0.8049684
-3.917169	แนวตั้ง	-0.6980546
-3.38569	แนวทาง	-0.7910351
-3.917169	แนวนอน	-0.6966831
-3.713049	แนวราบ	-0.9030059
-3.536958	แนวแกน	-0.7639416
-4.01408	แนวโพลาไรช์	-0.5922913
-4.01408	แนะนำ	-0.5946713
-3.661897	แบน	-0.946458
-2.445878	แบบ	-0.7935207
-3.38569	แบ่ง	-0.9529372
-3.661897	แป	-0.6987492
-3.917169	แปร	-0.6988333
-3.917169	แปรปรวน	-0.6571051
-3.917169	แปรสภาพ	-0.6571051
-3.917169	แปรเปลี่ยน	-0.6987492
-3.536958	แปล	-0.81204
-4.01408	แปลกๆ	-0.5984715
-3.661897	แปลง	-0.9510459
-4.01408	แปลว่า	-0.6020179
-4.01408	แปะ	-0.6016078
-3.713049	แป้น	-0.9029008
-3.536958	แผน	-0.8126084
-3.661897	แผนภาพ	-0.9531796
-2.982671	แผล	-0.8271144
-3.502196	แผ่น	-0.6985493
-4.01408	แผ่นดิน	-0.6017972
-3.917169	แผ่นวงจร	-0.6989174
-3.661897	แผ่นวงจรพิมพ์	-0.9526841
-4.01408	แพทย์	-0.6020179
-3.917169	แพร่	-0.6988544
-3.38569	แพร่กระจาย	-0.7921753
-3.917169	แพร่หลาย	-0.698202
-3.771041	แฟ้ม	-0.8032331
-3.917169	แมกนีเซียม	-0.6989174
-3.771041	แมงป่อง	-0.8032331
-3.29392	แมลง	-0.7348486
-2.551681	แมว	-1.591649
-3.014079	แม่เหล็ก	-0.7965017
-3.661897	แม้	-0.9491251
-3.917169	แม้ว่า	-0.6978228
-3.917169	แม้แต่	-0.6988333
-3.917169	แยก	-0.6985178
-3.713049	แยกสลาย	-0.9027956
-4.01408	แย็ค	-0.5956112
-3.470011	แรก	-0.6837658
-3.771041	แรงดันไฟฟ้า	-0.8353294
-3.917169	แร่ธาตุ	-0.6987597
-3.917169	แล	-0.6988964
-1.750443	และ	-0.7625232
-2.540592	แล้ว	-0.9149827
-3.360867	แสง	-0.620034
-2.611818	แสดง	-0.9056841
-3.917169	แสดงผล	-0.6946708
-3.713049	แสดงออก	-0.9019111
-3.917169	แสบๆ	-0.6989174
-4.01408	แสวงหา	-0.6019444
-3.661897	แหลก	-0.9539165
-4.01408	แหลม	-0.6019444
-4.01408	แหล่ง	-0.6020179
-3.917169	แหล่งน้ำ	-0.6989174
-3.917169	แหวกว่าย	-0.6989174
-3.29392	แห่ง	-0.7631262
-3.536958	แห้ง	-0.7709442
-3.917169	แอดเดรส	-0.6938952
-3.917169	แอฟริกา	-0.6985599
-3.574747	โกง	-0.5941694
-3.661897	โกย	-0.6570009
-3.713049	โกยสุโข	-0.8612251
-3.502196	โกรธ	-0.8447827
-3.440048	โก่ง	-0.7113702
-4.139018	โก้งโค้ง	-0.2590146
-3.917169	โก๊ะ	-0.6989174
-3.917169	โก๋	-0.6988544
-3.661897	โขลก	-0.9510459
-3.502196	โค	-0.8448457
-3.38569	โคนม	-1.23027
-2.823747	โครงการ	-0.9302799
-3.917169	โครงการวิจัย	-0.698644
-2.934898	โครงสร้าง	-1.099189
-4.01408	โคลน	-0.5601951
-3.917169	โค้ง	-0.6980757
-3.771041	โฆษณา	-0.8032331
-3.917169	โชคลาง	-0.6911855
-3.917169	โซเดียม	-0.6989174
-4.01408	โซ่ตรวน	-0.5601951
-2.351321	โดย	-0.8437155
-4.01408	โดยมาก	-0.6006809
-3.917169	โดยสังเขป	-0.6981599
-3.713049	โดยส่วนรวม	-0.8612251
-3.412019	โดยเฉพาะ	-0.6750402
-3.502196	โต	-0.843993
-3.917169	โต้ตอบ	-0.6974643
-2.823747	โต๊ะ	-0.8758523
-3.917169	โต๊ะกินข้าว	-0.6989174
-3.713049	โต๊ะงาน	-0.8957013
-3.917169	โทรคมนาคม	-0.6985704
-3.38569	โทรทัศน์	-0.6515602
-3.917169	โทรพิมพ์	-0.6987913
-3.440048	โบราณ	-0.6923433
-3.917169	โปรเจคชัน	-0.6938952
-3.771041	โปรเซส	-0.8450245
-3.025075	โปรแกรม	-0.7785739
-4.01408	โป๊ะ	-0.5956112
-3.917169	โผล่	-0.6980967
-3.917169	โพรง	-0.6571051
-3.917169	โพล้เพล้	-0.6571051
-3.917169	โพแทสเซียม	-0.6988754
-3.837988	โฟตอน	-0.7362863
-4.01408	โฟลว์ชาร์ต	-0.5917104
-3.917169	โฟโตทรานซิสเตอร์	-0.6949149
-3.917169	โฟโตสเฟียร์	-0.6989174
-3.917169	โยธิน	-0.6989174
-3.059837	โรค	-0.7494422
-3.536958	โลก	-0.8111333
-3.38569	โลหะ	-0.8007907
-3.713049	โหมด	-0.9030059
-3.661897	โอกาส	-0.9444738
-4.01408	โฮล	-0.6016078
-3.661897	โฮลสไตน์ฟรีเชียน	-0.9522619
-3.153741	ใกล้	-0.7100832
-3.713049	ใกล้เคียง	-0.6096893
-3.713049	ใคร	-0.8995014
-3.502196	ใจ	-0.8025845
-2.031808	ใช้	-0.8198488
-3.713049	ใช้งาน	-0.9011094
-3.536958	ใด	-0.7707821
-3.917169	ใดๆ	-0.6970317
-3.713049	ใต้	-0.9028902
-4.01408	ใต้ถุน	-0.6010076
-1.772906	ใน	-0.9536498
-3.661897	ในกรณีที่	-0.9540743
-3.661897	ใบ	-0.6570472
-3.661897	ใบตอง	-0.9541479
-3.661897	ใบไม้แห้ง	-0.9541479
-3.124778	ใส่	-0.8437295
-3.047938	ใหญ่	-0.789224
-3.38569	ใหม่	-0.8000106
-3.917169	ใหม่ๆ	-0.6972427
-2.134696	ให้	-0.79901
-3.917169	ให้คุณ	-0.6571051
-4.01408	ให้บริการ	-0.5946713
-3.917169	ให้โทษ	-0.6988754
-3.124778	ไกล	-0.7355101
-2.752816	ไก่	-0.7695756
-3.661897	ไก๋	-0.6567925
-3.917169	ไขราหน้าจั่ว	-0.6571051
-3.917169	ไซ	-0.6988754
-3.917169	ได	-0.6989174
-3.917169	ไดร์ฟเวอร์	-0.6987177
-3.470011	ไดอะแกรม	-1.141053
-3.536958	ไดเพล็กเซอร์	-0.7689716
-2.006545	ได้	-0.8124388
-3.713049	ได้ฉาก	-0.9011094
-3.661897	ได้ผล	-0.9468538
-3.072071	ได้รับ	-0.962285
-3.036356	ได้แก่	-0.8402922
-3.713049	ไถ	-0.9008031
-3.218199	ไทย	-0.7474554
-3.661897	ไทยสาร	-0.9499433
-3.917169	ไนโตรเจน	-0.6989174
-2.269786	ไป	-0.8100407
-3.661897	ไพเราะ	-0.9531585
-3.917169	ไฟ	-0.6984336
-3.168981	ไฟฟ้า	-0.7621917
-3.771041	ไมครอน	-0.8032331
-4.01408	ไมโครคอนโทรเลอร	-0.6020179
-4.01408	ไมโครคอนโทรเลอร์	-0.6020179
-3.360867	ไมโครคอมพิวเตอร์	-0.6723509
-3.917169	ไมโครซอฟท์	-0.6989174
-3.917169	ไมโครโพรเซสเซอร์	-0.6987913
-2.414742	ไม่	-0.8376958
-4.01408	ไม่ได้	-0.6019023
-3.917169	ไม้	-0.6989174
-3.771041	ไม้กางเขน	-0.8438454
-3.917169	ไม้ไผ่	-0.6989174
-3.917169	ไล่	-0.6988438
-2.891864	ไว้	-0.8204168
-3.917169	ไส้เดือนฝอย	-0.6972427
-3.771041	ไหล	-0.8445196
-3.574747	ไอ	-0.7651563
-3.574747	ไอซี	-0.7778357
-3.574747	ไอเอฟ	-0.7306477
-3.917169	ไอโอดีน	-0.6571051
-4.01408	ไฮโดรเจน	-0.5956112
-3.917169	้ว่า	-0.6984441
-4.01408	์เบอร์	-0.6020179
-3.502196	๑	-0.8386279
-3.713049	๑๙	-0.9030059
-3.917169	๒	-0.6970844
-3.917169	๓	-0.6988438
-3.713049	๔	-0.6489558
-3.917169	๕๖	-0.6571051
-3.917169	๕๗	-0.6989174
-3.661897	๖	-0.6963131
-3.917169	๖.๑	-0.6886204
-3.917169	๗	-0.6989174

\2-grams:
-0.05115252	0.65 มม.	-0.69897
-1.094421	1 </s>
-1.337459	1 ความ	-0.691546
-1.337459	1 คืน	0
-1.337459	1 จะ	-0.6925359
-1.462398	1 บาน	0
-1.337459	1 ราชบัณฑิตยสถาน	-0.4771212
-1.462398	1 วิเคราะห์	-0.5314789
-1.337459	1 ศอก	0
-1.161368	1 ส่วน	-0.8260748
-1.337459	1 หั่น	0
-1.094421	1 อนุกรมวิธาน	0
-1.638489	1 ออกแบบ	-0.4637573
-1.337459	1 เกศ	0
-1.462398	1 เกษตรศาสตร์	0
-1.036429	1 แก้ว	-0.844027
-1.337459	1 และ	-0.6969287
-0.09691001	1,000 ล้าน	0
-0.69897	1.2 </s>
-0.3467875	1.2 บล๊อค	-0.6383731
-0.69897	1.2 เมื่อ	-0.6906579
-0.7403627	1.3 กระบืองาน	0
-0.4973246	1.3 บล๊อค	-0.825924
-0.4393327	1.3 มม.	-0.69897
-0.09691001	10 ข้อสรุป	0
-0.05799195	10400 ตาราง	0.5118834
-0.09691001	11 บล๊อค	-0.6565661
-0.09691001	1180 </s>
-0.3521825	13 นาย	-0.6462637
-0.4771213	13 ปี	-0.5228788
-0.09691001	14 นาย	-0.6462637
-0.4771213	16 ตัว	-0.5282076
-0.3521825	16 เท่า	-0.5824645
-1.199572	2 </s>
-1.375664	2 กังฆา	0
-1.375664	2 การ	-0.697385
-1.500602	2 ขั้น	0.243038
-1.132626	2 ชื่อ	-0.7647873
-1.375664	2 ตัวอย่าง	-0.5963076
-1.375664	2 นั้น	-0.6440386
-1.074634	2 นี้	-0.6393843
-1.375664	2 ประการ	-0.60206
-1.375664	2 สัปดาห์	0.2552725
-1.375664	2 เธอ	0
-1.074634	2 เหตุผล	0
-1.375664	2 แนวแกน	-0.5392691
-1.132626	2 โครงการ	-0.7333389
-1.375664	2 ใน	-0.6967255
-1.375664	2 ได้แก่	-0.6095696
-0.05115252	2.1.4 โต๊ะ	-0.9015362
-0.05799195	2.1.5 ระบบ	-0.8860567
-0.39794	2.2 การ	-0.9462589
-0.8239087	2.2 ต้นแบบ	-0.39794
-1	2.2 พิจารณา	-0.455402
-0.8239087	2.2 อุตสาหกรรม	-0.5351132
-0.4771213	2.5 </s>
-0.30103	2.5 บล๊อค	-0.6887509
-0.1249387	2.6 บล๊อค	-0.4457128
-0.05115252	20 ดีบี	0
-0.1249387	23 แสดง	-0.5575817
-0.09691001	25 มิลลิเมตร	0
-0.05115252	2516 เป็นต้นมา	0
-0.09691001	2517 </s>
-0.09691001	2531 2533	0
-0.09691001	2532 เป็น	-0.6939346
-0.09691001	2533 นั้น	-0.6488912
-1.374137	3 </s>
-1.249198	3 กฉา	0
-1.249198	3 ขนาด	-0.6645525
-1.00616	3 ชีวประวัติ	-0.5672979
-0.9481683	3 เครื่องกัด	0.1249387
-1.249198	3 เครื่องไมโครคอมพิวเตอร์	-0.5228788
-1.249198	3 เส้นกราฟ	-0.5392691
-1.152288	3 แกน	-0.6766936
-1.073107	3 แบบ	-0.8297684
-1.249198	3 แสดง	-0.6833181
-1.00616	3 โครงการ	-0.7333389
-1.374137	3 โฟลว์ชาร์ต	0
-0.05115252	3.1 และ	-0.9501502
-0.09691001	3.1ไทย เอดิชั่น	0
-0.05115252	3.2 แล้ว	-0.7781513
-0.1249387	3.3 การ	-0.5992824
-0.05799195	36 ตัว	-0.8292376
-1.122216	4 กรา	0
-0.5481846	4 การ	-1.196539
-1.247155	4 ด้าน	-0.5631419
-1.122216	4 ประการ	-0.60206
-1.247155	4 ภาพ	-0.5465426
-1.247155	4 เฟส	-0.5228788
-1.025306	4 โครงการ	-0.7449829
-1.247155	4 โครงสร้าง	-0.575731
-1.122216	4 โต๊ะ	-0.6734159
-0.09691001	4.1.1 ข้อมูล	-0.6914496
-0.05799195	4.3 ติดตาม	-0.672641
-0.05115252	4.3.1 ส่วน	-0.9015362
-0.05799195	45 องศา	0.1760913
-1.20412	5 </s>
-1.20412	5 กฤปาน	0
-1.20412	5 การ	-0.697385
-1.20412	5 คู่มือ	0
-0.90309	5 งบประมาณ	0
-1.20412	5 ตัวตรวจจับ	0
-0.9610819	5 ทั้งหมด	-0.7160034
-1.20412	5 สี	-0.6197888
-0.90309	5 โครงการ	-0.7844914
-0.9610819	5 ได้	-0.8964304
-0.79588	50 เซนติเมตร	0
-0.79588	50 เฮิรทซ์	0
-0.552842	50 โต๊ะ	-0.8573325
-0.6197888	50 ไมครอน	0
-0.552842	6 ของ	-0.8975373
-0.79588	6 ตัว	-0.6251176
-0.49485	6 เครื่อง	-0.7075701
-1.09691	6 เอกสารอ้างอิง	0
-0.09691001	6-1 การ	-0.697385
-0.4771213	7 ชั้น	-0.7668702
-0.4771213	7 นาย	-0.80618
-0.7201593	7 แห่ง	-0.6197888
-0.06694679	70 ความ	-0.8339139
-0.1249387	8 </s>
-0.1249387	8096 </s>
-0.09691001	9 รส	-0.6264193
-0.09691001	90 องศา	0.3802112
-0.09691001	900 เมตร	0
-2.190643	<s> 1	-0.5250129
-3.144885	<s> 1.2	-0.3424227
-2.580614	<s> 1.3	-0.5118833
-3.019947	<s> 13	-0.4436975
-3.019947	<s> 14	0
-2.207033	<s> 2	-0.6535172
-2.718917	<s> 2.1.4	0
-2.776909	<s> 2.1.5	0
-2.417887	<s> 2.2	0
-2.580614	<s> 3	-0.7398062
-3.144885	<s> 3.3	0
-2.667764	<s> 4	-0.6595395
-3.019947	<s> 4.1.1	0
-2.776909	<s> 4.3	0
-2.718917	<s> 4.3.1	0
-2.417887	<s> 5	-0.6766936
-2.622007	<s> 6	-0.5563025
-2.776909	<s> 7	-0.7269987
-2.843855	<s> 70	0
-3.320977	<s> กก	-0.2930611
-2.508063	<s> กง	-0.2004857
-3.622007	<s> กติกา
-3.019947	<s> กนก	-0.5642715
-2.923037	<s> กบ	-0.3233947
-3.019947	<s> กบิทร์บุรี	0.2552725
-3.019947	<s> กบินทร์	0
-3.019947	<s> กร	-0.5228788
-3.019947	<s> กรณี	0
-2.923037	<s> กรรม	-0.1716821
-3.622007	<s> กรอกหน้า
-3.019947	<s> กรอง	0
-3.019947	<s> กระซู่	0
-3.622007	<s> กระดอน
-3.320977	<s> กระดาน
-3.320977	<s> กระดาษ	-0.3856741
-3.622007	<s> กระดุม
-3.622007	<s> กระติก
-3.019947	<s> กระทบ	-0.3309932
-2.542825	<s> กระทะ	-0.5440681
-2.718917	<s> กระบวนการ	-0.5862657
-3.019947	<s> กระปี้กระเปร่า	0
-3.622007	<s> กระปุก
-3.019947	<s> กระสือ	0
-3.622007	<s> กระเด้ง
-2.718917	<s> กระเทียม	-0.7686059
-2.923037	<s> กระเป๋า	0.04699655
-3.019947	<s> กระโจม	-0.3309932
-3.019947	<s> กราฟ	-0.6667853
-3.622007	<s> กรุงเทพฯ
-3.622007	<s> กรุบกริบ
-3.622007	<s> กรุ่น
-3.622007	<s> กล
-3.320977	<s> กลม	-0.3235373
-3.622007	<s> กลับบ้าน
-3.320977	<s> กลับหลังหัน	-0.3309932
-3.622007	<s> กลับไปกลับมา
-2.718917	<s> กลั่นกรอง	0
-3.019947	<s> กลั้น	0.2552725
-3.019947	<s> กลางแดด	0
-3.622007	<s> กลิ้ง
-3.320977	<s> กลืน	-0.4191293
-3.019947	<s> กลุ่มงาน	0.2552725
-2.718917	<s> กลุ้ม	0
-3.019947	<s> กลไก	-0.4771212
-3.019947	<s> กล่าวคือ	-0.5228788
-2.843855	<s> กล้วย	-0.1303338
-2.718917	<s> กล้าหาญ	-0.69897
-3.019947	<s> กวาง	-0.4436975
-2.843855	<s> กอง	-0.1760912
-3.019947	<s> กอด	-0.6506653
-2.923037	<s> กะปิ	-0.09177038
-3.019947	<s> กะละมัง	0
-3.622007	<s> กังวล
-3.622007	<s> กังวาน
-3.320977	<s> กังหัน	-0.3309932
-3.019947	<s> กัน	-0.6880438
-3.144885	<s> กับ	-0.5962043
-2.923037	<s> กับข้าว	-0.2218488
-2.580614	<s> กา	-0.450951
-2.366734	<s> กาง	-0.379747
-2.718917	<s> กางเกง	-0.7686059
-3.622007	<s> กางแขน
-2.718917	<s> กาจญนบุรี	0
-3.622007	<s> กาญจนบุรี
-3.019947	<s> กาม	0.2552725
-1.635235	<s> การ	-0.7130718
-3.320977	<s> การงาน	-0.2730013
-3.144885	<s> การบ้าน	-0.07572071
-3.622007	<s> กำบัง
-2.718917	<s> กำลังส่ง	0
-3.622007	<s> กิจการ
-3.622007	<s> กิจจะลักษณะ
-2.224067	<s> กิน	-0.4902272
-3.320977	<s> กินข้าว
-3.622007	<s> กิเลส
-2.923037	<s> กิ่ง	0.04699655
-3.019947	<s> กิ่งก้าน	0.2552725
-3.622007	<s> กิ้งกือ
-3.622007	<s> กิ้งก่า
-3.622007	<s> กิ๊ก
-3.622007	<s> กีฬา
-3.622007	<s> กึกก้อง
-3.019947	<s> กุลา	0
-3.019947	<s> กุหลาบ	-0.5642715
-3.320977	<s> กุ้ง	0.04575747
-3.019947	<s> กุ้งแห้ง	0.2552725
-3.019947	<s> กุ๊กกิ๊ก	0.2552725
-3.622007	<s> กุ๊กกู๋
-2.718917	<s> กู่	0.2552726
-2.144885	<s> ก็	-0.4915991
-2.718917	<s> ก่อน	-0.5314789
-3.622007	<s> ก่อนนอน
-3.622007	<s> ก่อเกิด
-2.923037	<s> ก้น	0.04699655
-3.622007	<s> ก้ม
-3.622007	<s> ก้อง
-2.776909	<s> ก้อน	-0.5282738
-3.019947	<s> ก้อนหิน	0
-3.622007	<s> ก้าง
-3.622007	<s> ก้าน
-3.019947	<s> ก้านยาว	0.2552725
-3.622007	<s> ก้าว
-2.923037	<s> ก๊าซ	-0.4727122
-3.144885	<s> ขณะที่	-0.4259687
-2.776909	<s> ขณะนี้	0
-2.718917	<s> ขนาด	-0.919825
-2.718917	<s> ข้อกำหนด	0
-3.144885	<s> คง	-0.39794
-2.718917	<s> คณะกรรมการ	-0.69897
-3.019947	<s> ครั้นแล้ว	0
-3.144885	<s> คลื่นไส้	0
-2.843855	<s> ควร	-0.4973246
-2.718917	<s> ความ	-0.933513
-2.718917	<s> ความจริง	-0.6532125
-3.019947	<s> ความถี่	-0.6590067
-3.019947	<s> คำเชื่อม	0
-2.391558	<s> คือ	-0.626935
-2.776909	<s> จน	-0.5460026
-3.019947	<s> จนถึง	-0.39794
-2.130645	<s> จะ	-0.6830338
-2.279584	<s> จาก	-0.7255486
-2.445915	<s> จากนั้น	0
-3.019947	<s> จำพวก	0
-3.019947	<s> จำเป็น	-0.5392691
-1.843855	<s> จึง	-0.5354678
-3.019947	<s> จุฬาลงกรณ์มหาวิทยาลัย	0
-2.542825	<s> ฉะนั้น	0
-1.622007	<s> ฉัน	-0.7571667
-3.144885	<s> ชนินทร์	0
-3.019947	<s> ชั้น	-0.6264193
-2.718917	<s> ชาวนา	0
-3.019947	<s> ชื่อ	-0.6398485
-3.019947	<s> ชุด	-0.5789947
-2.843855	<s> ช่วง	0
-1.639735	<s> ซึ่ง	-0.3768627
-2.580614	<s> ดร.	-0.6490565
-3.019947	<s> ดรัม	-0.19382
-2.718917	<s> ดังนั้น	0
-3.144885	<s> ดัน	0
-2.542825	<s> ด้วย	-0.8010812
-3.019947	<s> ด้วยเหตุที่	0
-3.019947	<s> ตย.	0
-2.718917	<s> ตัวอย่าง	-0.7168816
-3.019947	<s> ตัวอักษร	-0.6519734
-3.019947	<s> ตัวเอ็นโค้คเดอร์	0
-3.144885	<s> ตาม	-0.5895914
-2.542825	<s> ตาราง	0.30103
-2.391558	<s> ต่อมา	0.1526102
-3.144885	<s> ต้นแบบ	-0.39794
-2.843855	<s> ต้ม	-0.544068
-3.144885	<s> ต้อง	-0.5908758
-1.959249	<s> ถ้า	-0.4909494
-2.843855	<s> ทรง	-0.4637573
-3.144885	<s> ทับทิม	0
-2.776909	<s> ทั้งนี้	0
-2.417887	<s> ทำ	-0.6444506
-2.776909	<s> ทำมุม	0
-2.174849	<s> ทำให้	-0.605664
-3.019947	<s> ทิ้ง	-0.552842
-2.445915	<s> ที่	-0.7716073
-3.019947	<s> ทุก	-0.6611814
-3.019947	<s> ท่าทาง	-0.4771212
-3.019947	<s> น.ส.	0
-2.475879	<s> นก	-0.6532125
-2.343253	<s> นอกจาก	-0.2667522
-2.843855	<s> นอกจากนั้น	0
-1.968794	<s> นอกจากนี้	0
-2.843855	<s> นา	-0.6560418
-2.445915	<s> นาย	-0.6863809
-3.019947	<s> นาฬิกา	-0.5392691
-3.019947	<s> นิยม	-0.5133334
-2.718917	<s> บน	-0.908485
-3.019947	<s> บล๊อคไดอะแกรม	-0.552842
-3.019947	<s> บันได	-0.4685211
-2.776909	<s> บาง	-0.8536046
-2.718917	<s> บางครั้ง	0
-3.019947	<s> บุคลิกภาพ	0
-3.019947	<s> บ่อยครั้ง	0
-2.718917	<s> ปกติ	0
-2.776909	<s> ปรก	0
-2.718917	<s> ประกอบ	-0.6097468
-3.019947	<s> ประกอบด้วย	-0.6543878
-3.019947	<s> ประการ	-0.60206
-3.144885	<s> ประชาชน	-0.5465426
-3.019947	<s> ปลาย	-0.5898255
-2.718917	<s> ปวด	0
-3.144885	<s> ปัจจุบัน	-0.3716111
-3.019947	<s> ปาก	-0.5228788
-2.718917	<s> ผล	-0.6368221
-2.718917	<s> ผลลัพธ์	0
-3.019947	<s> ผศ.	0
-3.019947	<s> ผูก	0
-3.320977	<s> ผู้	-0.4578161
-3.144885	<s> ผู้ป่วย	-0.4771213
-3.019947	<s> ผู้วิจัย	-0.4436975
-2.580614	<s> ผู้ใช้	-0.6253926
-3.019947	<s> ผู้ใหญ่	-0.4436975
-3.019947	<s> ผ่าน	-0.672641
-3.019947	<s> ผ้า	-0.5898255
-3.019947	<s> ฝา	-0.5228788
-2.776909	<s> พบว่า	0
-2.718917	<s> พระราชทาน	0
-3.019947	<s> พระองค์	0
-2.580614	<s> พวก	0.2218488
-3.019947	<s> พอ	-0.640978
-3.144885	<s> พิบูลศิลป์	0
-3.019947	<s> พื้น	-0.552842
-3.019947	<s> ภาพตัดขวาง	-0.5642715
-2.776909	<s> ภายหลัง	0
-2.718917	<s> มหาวิทยาลัย	0
-2.542825	<s> มัก	-0.8046694
-2.030942	<s> มี	-0.6585413
-3.019947	<s> ยกเลิก	0
-2.718917	<s> ยัง	-0.6124008
-3.019947	<s> ยา	-0.5413622
-3.144885	<s> ยาดอง	0
-3.144885	<s> ยาว	-0.5546353
-3.019947	<s> ย่าน	-0.5963076
-3.144885	<s> รวม	-0.5509075
-3.144885	<s> รวมถึง	0
-2.445915	<s> รวมทั้ง	0
-3.144885	<s> รศ.	0
-3.144885	<s> ระงับ	0
-2.580614	<s> ระบบ	-0.5821217
-3.019947	<s> ระบบขับเคลื่อน	0
-2.580614	<s> ระยะ	-0.6545508
-3.019947	<s> ระวีวรรณ	0
-3.019947	<s> รัฐ	0
-3.019947	<s> ราชบัณฑิตยสถาน	-0.4771212
-2.843855	<s> รายละเอียด	-0.6232493
-1.940765	<s> รูป	-0.9951111
-3.019947	<s> ฤดูหนาว	0
-3.144885	<s> ลง	-0.5898256
-2.843855	<s> ลด	-0.69897
-2.718917	<s> ลักษณะ	-0.5693362
-3.019947	<s> วงจร	-0.6802878
-3.019947	<s> วัชพืช	-0.5740313
-2.580614	<s> วิธีการ	-0.6225816
-2.776909	<s> วิภา	0
-2.923037	<s> วุฒิพงศ์	0
-2.622007	<s> ว่า	-1.004876
-2.923037	<s> ศิลาจารึก	-0.2808266
-3.019947	<s> ศูนย์วิจัย	0
-3.144885	<s> ศูนย์ฯ	-0.5314789
-2.776909	<s> ศูนย์เทคโนโลยีอิเล็กทรอนิกส์และคอมพิวเตอร์แห่งชาติ	-0.672641
-2.776909	<s> สถาบันเทคโนโลยีพระจอมเกล้าลาดกระบัง	0
-2.718917	<s> สมการ	-0.69897
-2.580614	<s> สรรพคุณ	-0.6268836
-3.019947	<s> สร้าง	-0.6307052
-2.923037	<s> สัญญาณ	-0.4966434
-3.019947	<s> สัตว์ปีก	0
-2.776909	<s> สามารถ	-0.8497496
-3.019947	<s> สายสร้อย	0
-3.019947	<s> สายอากาศ	-0.5898255
-2.019947	<s> สำหรับ	-0.4771213
-3.019947	<s> สุชาติ	0
-3.019947	<s> สุรีย์	0
-2.718917	<s> สูญเสีย	-0.8484387
-2.077939	<s> ส่วน	-0.7096939
-3.019947	<s> ส่วนประกอบ	0
-2.776909	<s> ส่วนหนึ่ง	0
-3.320977	<s> หนุ่มหนุ่ม	0
-2.580614	<s> หนู	-0.4661258
-3.019947	<s> หน้าจั่ว	-0.4771212
-2.103493	<s> หรือ	-0.7035177
-3.019947	<s> หลัก	-0.5686362
-3.019947	<s> หลักการ	-0.4436975
-3.144885	<s> หลังจากนั้น	0
-3.019947	<s> หาก	-0.5392691
-3.019947	<s> องค์ประกอบ	0
-2.776909	<s> อนึ่ง	0
-3.019947	<s> อยู่	-0.6940765
-2.580614	<s> อย่างไรก็ตาม	0.1165056
-2.776909	<s> อวัยวะเพศ	0
-3.144885	<s> อัตรา	-0.49485
-3.019947	<s> อาการ	-0.6704814
-3.019947	<s> อาจ	-0.6655462
-3.019947	<s> อีก	-0.634512
-2.776909	<s> อีกทั้ง	0
-3.019947	<s> เกณฑ์	-0.552842
-3.019947	<s> เกรียง	0.2552725
-3.320977	<s> เกรียงชัย	0
-3.019947	<s> เกร็ง	0.2552725
-3.622007	<s> เกลี่ย
-3.622007	<s> เกวียน
-3.019947	<s> เกา	0
-3.622007	<s> เกาะ
-2.343253	<s> เกิด	-0.4104338
-2.923037	<s> เกี้ยว	-0.1127043
-3.019947	<s> เกเร	-0.4436975
-3.320977	<s> เก็บ	-0.3575114
-3.622007	<s> เก็บออม
-2.542825	<s> เก่ง	-0.6924879
-3.019947	<s> เก่งกาจ	-0.5133334
-3.019947	<s> เก้ง	-0.6159958
-3.019947	<s> เก๋	-0.552842
-2.580614	<s> เขา	-0.6481031
-2.508063	<s> เครื่อง	-0.2895703
-2.718917	<s> เครื่องต้นแบบ	-0.5862657
-3.019947	<s> เครื่องรับวิทยุ	-0.4436975
-3.019947	<s> เครื่องแบบ	0
-2.776909	<s> เคลือบ	-0.7269987
-3.019947	<s> เจ้าหน้าที่	-0.6197888
-3.144885	<s> เฉลี่ย	-0.4259687
-2.190643	<s> เช่น	-0.6337127
-2.776909	<s> เดิน	-0.7454821
-2.843855	<s> เต็ม	-0.640978
-2.776909	<s> เนื่องจาก	0
-2.190643	<s> เป็น	-0.7072141
-1.851155	<s> เพราะ	-0.292657
-3.144885	<s> เพราะฉะนั้น	0
-1.409819	<s> เพื่อ	-0.3089539
-1.931811	<s> เมื่อ	-0.6560847
-2.445915	<s> เรา	-0.5150321
-2.923037	<s> เริ่ม	-0.6600519
-3.019947	<s> เรียก	-0.642854
-3.144885	<s> เรียกว่า	0
-2.776909	<s> เรือ	0
-3.019947	<s> เลเซอร์	-0.642854
-3.019947	<s> เวลา	-0.6690068
-3.019947	<s> เสีย	-0.6603406
-3.019947	<s> เหม็น	0
-3.019947	<s> เหียอี	0
-2.776909	<s> เห็นควร	0
-2.718917	<s> เอ็ดแว็ก	0
-2.622007	<s> แกง	-0.04764166
-3.144885	<s> แก้	0
-3.622007	<s> แก้ม
-2.391558	<s> แก้ว	-0.4396049
-3.019947	<s> แก๊บ	0.2552725
-1.697727	<s> แต่	-0.2174841
-2.718917	<s> แต่ละ	-0.7945417
-2.718917	<s> แบบ	-0.9230223
-2.718917	<s> แบ่ง	-0.69897
-3.144885	<s> แปลว่า	0
-3.019947	<s> แพร่กระจาย	-0.5963076
-1.572789	<s> แมว	-0.4621442
-3.019947	<s> แม้ว่า	0
-1.291593	<s> และ	-0.7087249
-1.914436	<s> แล้ว	-0.5898254
-3.144885	<s> แสง	-0.5383909
-3.019947	<s> แหวกว่าย	0
-2.923037	<s> โกง	0.04699655
-3.019947	<s> โกย	-0.4771212
-2.718917	<s> โกรธ	0.1461281
-2.923037	<s> โก่ง	-0.2514712
-3.622007	<s> โก้งโค้ง
-3.019947	<s> โครงการ	-0.672641
-1.565102	<s> โดย	-0.3357919
-3.144885	<s> โดยมาก	0
-2.718917	<s> โดยเฉพาะ	-0.4616091
-2.776909	<s> โปรแกรม	-0.4913617
-3.019947	<s> โฟโตทรานซิสเตอร์	0
-3.019947	<s> โยธิน	0
-3.019947	<s> โลก	-0.5392691
-3.019947	<s> โลหะ	-0.5963076
-3.019947	<s> ใกล้	-0.5099137
-2.144885	<s> ใช้	-0.7265015
-1.829615	<s> ใน	-0.6843085
-2.718917	<s> ในกรณีที่	0
-2.580614	<s> ใส่	-0.6490565
-2.776909	<s> ให้	-0.6444638
-2.776909	<s> ไกล	-0.49485
-1.931811	<s> ไก่	-0.2142203
-3.019947	<s> ไดเพล็กเซอร์	-0.5392691
-2.776909	<s> ได้แก่	-0.825924
-2.718917	<s> ไม่	-0.9348295
-3.019947	<s> ไอซี	-0.5228788
-3.019947	<s> ๑	-0.552842
-3.019947	<s> ๒	0
-2.776909	<s> ๔	0
-3.019947	<s> ๖.๑	0
-0.4616091	กก </s>
-0.8372727	กก กง	-0.8692317
-0.8372727	กก กด	-0.8732092
-1.138303	กก กอด	-0.6506653
-1.138303	กก กู่	-0.4436975
-1.138303	กก เกรียง	0.2552725
-1.740363	กก ใกล้
-0.09691001	กข.๙ </s>
-1.653213	กง </s>
-0.7501225	กง กก	-0.8859777
-1.051152	กง กชกร	0
-0.7501225	กง กด	-0.8732092
-0.7501225	กง กรรม	-0.7579479
-0.7501225	กง การ	-0.9510667
-1.653213	กง เกวียน
-0.05799195	กงล้อ ที่	-0.8574768
-0.09691001	กฉา กางเกง	-0.6159958
-0.09691001	กชกร การ	-0.697385
-1.070038	กด กง	-0.6585413
-0.7690079	กด กับ	-0.6750578
-0.7690079	กด กุย	0
-0.7690079	กด ก้อน	-0.8081145
-1.070038	กด คีย์บอร์ด	0
-1.070038	กด แป้น	0.20412
-1.070038	กด ใกล้	-0.6298891
-0.05799195	กดดัน สูง	-0.7533277
-0.60206	กติกา </s>
-0.60206	กติกา ก่อเกิด
-0.5740313	กนก </s>
-0.5740313	กนก กร	-0.5228788
-0.5740313	กนก กิน	-0.672641
-0.9138138	กบ </s>
-0.7096938	กบ กก	-0.8859777
-1.010724	กบ กด	-0.6603406
-0.7096938	กบ กระดูก	-0.8016323
-1.010724	กบ กอด	-0.6506653
-1.010724	กบ ก้านยาว	0.2552725
-1.612784	กบ เกาะ
-0.05115252	กบิทร์บุรี กุ๊กไก่	0
-0.09691001	กบินทร์ กัลปาวสาน	0
-0.7781513	กร </s>
-0.4771213	กร กรรไกร	0
-0.7781513	กร กอบ	-0.4771212
-0.7781513	กร เกเร	-0.4436975
-0.544068	กรง </s>
-0.243038	กรง กลม	-0.4892701
-0.09691001	กรณี กุหลาบ	-0.5642715
-0.05799195	กรมอุตุนิยมวิทยา ที่	-0.9000484
-1.342423	กรรม </s>
-0.4393327	กรรม กลม	-0.8732092
-1.342423	กรรม กีฬา
-0.4393327	กรรม เกวียน	-0.39794
-0.2340832	กรรมการ </s>
-0.60206	กรรมการ มา	-0.5648432
-0.05115252	กรรไกร กระดาษ	-0.9078737
-0.05115252	กรวย </s>
-0.30103	กรอก กลิ้ง	-0.1870867
-0.4259687	กรอก ข้อมูล	-0.5751482
-0.60206	กรอกหน้า </s>
-0.60206	กรอกหน้า กลับหลังหัน
-0.09691001	กรอง กรอบ	0
-0.09691001	กรองคอ กรองสังเวียน	0
-0.05115252	กรองน้ำ กำหนด	-0.5633074
-0.09691001	กรองสมรด </s>
-0.09691001	กรองสังเวียน กรองสมรด	0
-0.09691001	กรอบ กัด	-0.6159958
-0.09691001	กรอบเช็ดหน้า บานประตู	0
-0.09691001	กระจก กีวี่	0
-0.09691001	กระจง </s>
-0.09691001	กระจอก </s>
-0.09691001	กระจาย คลื่น	-0.552842
-0.05115252	กระจูด กว้าง	-0.7686059
-0.544068	กระชาย กระโจม	-0.552842
-0.243038	กระชาย กางเกง	-0.7686059
-0.09691001	กระซู่ กระเบื้อง	-0.5740313
-0.39794	กระดอง หรือ	-0.6928315
-0.39794	กระดอง ฯลฯ	-0.2218487
-0.60206	กระดอน </s>
-0.60206	กระดอน กระเป๋า
-0.20412	กระดาน </s>
-0.90309	กระดาน กระดาษ
-0.09691001	กระดานดำ และ	-0.6969287
-0.7215359	กระดาษ </s>
-0.9945371	กระดาษ กระเช้า	-0.4616091
-1.897627	กระดาษ กระเด้ง
-0.7836837	กระดาษ กราฟ	-0.7603417
-1.295567	กระดาษ กุ้งแห้ง	0.2552725
-1.295567	กระดาษ จะ	-0.6957648
-1.420506	กระดาษ ดังกล่าว	-0.5413622
-1.295567	กระดาษ ที่	-0.6871189
-1.295567	กระดาษ เคลื่อนที่	-0.6611814
-1.295567	กระดาษ เฉ	0
-0.9945371	กระดาษ เศษ	-0.8692317
-0.1760913	กระดุม </s>
-0.5282738	กระดูก กระดูก	-0.8016323
-0.5282738	กระดูก ก้างปลา	0
-0.5282738	กระดูก เปราะ	0
-0.60206	กระติก </s>
-0.60206	กระติก กติกา
-0.09691001	กระถาง แก้ว	-0.5887545
-0.243038	กระทบ กระทั่ง	0
-0.544068	กระทบ บน	-0.6766936
-0.05115252	กระทรวง วิทยาศาสตร์เทคโนโลยีและการพลังงาน	0
-0.09691001	กระทรวงมหาดไทย หรือ	-0.6928315
-0.05115252	กระทรวงฯ เป็น	-0.9389578
-0.7781513	กระทะ กระชาย	-0.552842
-0.7781513	กระทะ กระเทียม	-0.6159958
-0.7781513	กระทะ กะทิ	-0.5642715
-0.4771213	กระทะ กะลา	0
-0.05115252	กระทั่ง กระเทียม	-0.7686059
-0.09691001	กระทำ </s>
-0.243038	กระบวนการ ผลิต	-0.8573325
-0.544068	กระบวนการ สังเคราะห์	-0.640978
-0.1249387	กระบอกปืน </s>
-0.09691001	กระบืองาน หรือ	-0.6928315
-0.09691001	กระบือปลัก </s>
-0.09691001	กระบุง กระดาน	-0.2730013
-0.09691001	กระปี้กระเปร่า กระจก	0
-0.05115252	กระปี๋ กระป๋อง	0
-0.60206	กระปุก </s>
-0.60206	กระปุก กะปิ
-0.05115252	กระป๋อง กระแป๋ง	0
-0.39794	กระรอก </s>
-0.39794	กระรอก กระแต	0
-0.09691001	กระสือ กระแส	-0.5228788
-0.6766936	กระเช้า </s>
-0.6766936	กระเช้า กระโจม	-0.3309932
-0.3756636	กระเช้า กะเพราะ	0
-0.09691001	กระเด็น </s>
-0.60206	กระเด้ง </s>
-0.60206	กระเด้ง กระดอน
-0.05115252	กระเทย กะทิ	-0.3679768
-0.4586379	กระเทียม กระเช้า	-0.7168816
-0.4586379	กระเทียม กระโถน	0
-0.7596679	กระเทียม กะละแม	0
-0.60206	กระเบื้อง </s>
-1.041393	กระเบื้อง ขอ	-0.5642715
-0.7403627	กระเบื้อง ครอบ	0
-0.7403627	กระเบื้อง หาง	-0.5314789
-0.7403627	กระเบื้อง ใช้	-0.9462184
-1.113943	กระเป๋า </s>
-0.2108534	กระเป๋า กระปี๋	0
-1.113943	กระเป๋า กระปุก
-0.09691001	กระเพา ใบ	-0.4771212
-0.09691001	กระแต กระบุง	0
-0.05115252	กระแป๋ง กะท้อน	0
-0.4771213	กระแส กระจอก	0
-0.30103	กระแส เครน	-0.60206
-0.4259687	กระแสไฟฟ้า ความถี่	-0.5875013
-0.4259687	กระแสไฟฟ้า ที่	-0.5752708
-0.05115252	กระแอม </s>
-0.544068	กระโจม กระเด็น	0
-0.243038	กระโจม กระแอม	0
-0.05115252	กระโถน </s>
-0.09691001	กรา กำไลมือ	0
-0.90309	กราฟ ข้างล่าง	0.4586379
-0.845098	กราฟ ความถี่	-0.9142792
-1.146128	กราฟ ที่	-0.6928654
-1.146128	กราฟ นั้น	-0.6814204
-1.271067	กราฟ บน	-0.5854607
-1.146128	กราฟ ปากกา	0
-1.146128	กราฟ แสดง	-0.6711974
-0.7067953	กราฟ โดย	-1.03112
-1.447158	กราฟ ให้	-0.4708903
-0.05799195	กราฟฟิก </s>
-0.09691001	กราฟฟิกไทยโชว์ เวอร์ชั่น3	0
-0.1249387	กราฟิก </s>
-0.09691001	กรุ ด้วย	-0.6919367
-0.2340832	กรุงเทพฯ 10400	0
-1.079181	กรุงเทพฯ </s>
-1.079181	กรุงเทพฯ การบ้าน
-0.60206	กรุบกริบ </s>
-0.60206	กรุบกริบ กิ๊ก
-0.60206	กรุ่น </s>
-0.60206	กรุ่น โกง
-0.09691001	กฤปาน ดาบ	0
-0.09691001	กฤษณพงศ์ กีรติกร	0
-0.6173	กล </s>
-1.462398	กล กลม
-0.860338	กล กับข้าว	-0.552842
-0.860338	กล ก่น	0
-0.559308	กล เก่ง	-0.6293341
-0.1249387	กลบ ปุ๋ย	0
-0.5259698	กลม </s>
-0.7690079	กลม กรง	-0.5862657
-1.070038	กลม กระเป๋า	-0.2839966
-1.672098	กลม กรุ่น
-1.672098	กลม กลิ้ง
-1.070038	กลม เกลี้ยง	0
-0.7690079	กลม ไกล	-0.8129134
-0.05115252	กลมกล่อม กว้างขวาง	-0.4436975
-0.03778856	กลอน </s>
-0.05115252	กลัด กรอก	-0.6532125
-0.3521825	กลับ ก๊อบ	0
-0.6532125	กลับ ก๋องแก๋ง	-0.4771212
-0.7781513	กลับ ถูก	-0.5843312
-0.1249387	กลับกลาย เป็น	-0.6001786
-0.60206	กลับบ้าน </s>
-0.60206	กลับบ้าน กรุงเทพฯ
-0.544068	กลับหลังหัน </s>
-0.845098	กลับหลังหัน กลับไปกลับมา
-0.845098	กลับหลังหัน กุ้ง
-0.60206	กลับไปกลับมา </s>
-0.60206	กลับไปกลับมา กาญจนบุรี
-0.5740313	กลัว กล้า	-0.6197888
-0.5740313	กลัว ความ	-0.691546
-0.5740313	กลัว เดิน	-0.6159958
-0.05115252	กลั่นกรอง กรองน้ำ	0
-0.05115252	กลั่นตัว แบบ	-0.9336804
-0.05115252	กลั้น กลับ	-0.69897
-0.05115252	กลาง กลาย	-0.4616091
-0.09691001	กลางคืน นอน	-0.5824645
-0.09691001	กลางวัน </s>
-0.1249387	กลางแจ้ง เรา	-0.5840867
-0.09691001	กลางแดด กล	-0.634512
-0.6766936	กลาย </s>
-0.6766936	กลาย กรรม	-0.5026754
-0.3756636	กลาย เป็น	-0.9492071
-0.39794	กลายเป็น การ	-0.6941975
-0.39794	กลายเป็น เรื่อง	-0.6293341
-0.4149733	กลิ้ง </s>
-1.113943	กลิ้ง กรอกหน้า
-0.5118834	กลิ้ง แกง	-0.5133334
-0.1249387	กลีบ ซ้อน	0
-0.90309	กลืน </s>
-1.20412	กลืน กรุบกริบ
-0.30103	กลืน ทั้ง	-0.9113143
-1.20412	กลืน เก็บ
-0.05115252	กลุ่มงาน กินอาหาร	0
-0.39794	กลุ้ม กัน	-0.6880438
-0.39794	กลุ้ม เกรง	-0.640978
-0.09691001	กลุ้มใจ </s>
-0.39794	กลไก การ	-0.697385
-0.39794	กลไก ของ	-0.6902121
-0.2108534	กล่อง </s>
-0.6368221	กล่อง กระดาษ	-0.5852465
-0.7781513	กล่าว นี้	-0.6899688
-0.7781513	กล่าว ว่า	-0.6847296
-0.7781513	กล่าว โดยสังเขป	0
-0.4771213	กล่าว ใน	-0.949742
-0.30103	กล่าวคือ </s>
-0.4771213	กล่าวคือ คลื่นแสง	0
-0.02996322	กล่าวถึง การ	-0.8820194
-0.80618	กล้วย </s>
-0.90309	กล้วย กง	-0.6139592
-0.60206	กล้วย กั้ง	-0.5862657
-1.50515	กล้วย กางแขน
-0.90309	กล้วย ดิบ	-0.5392691
-0.90309	กล้วย ถ้วย	0
-0.544068	กล้อง </s>
-0.243038	กล้อง กบ	-0.5913361
-0.4771213	กล้า กก	-0.7701823
-0.7781513	กล้า กล้วย	-0.640978
-0.7781513	กล้า กล้อง	-0.552842
-0.7781513	กล้า เก็บ	-0.5793601
-0.09691001	กล้ามเนื้อ </s>
-0.3521825	กล้าหาญ กอด	-0.8515801
-0.3521825	กล้าหาญ เก้าอี้	-0.9268763
-0.09691001	กวน กิ๊ง	0
-0.05115252	กวัดแกว่ง แก้วตา	0
-0.3521825	กวาง กบ	-0.8599726
-0.3521825	กวาง กล้วย	-0.5555479
-1.34733	กว่า 1,000	0
-1.0463	กว่า 20	0
-1.171239	กว่า 50	-0.7259116
-1.472269	กว่า การ	-0.5968874
-1.34733	กว่า กำหนด	-0.6543878
-1.34733	กว่า ตัวผู้	-0.4771212
-1.0463	กว่า นก	-0.8293038
-1.0463	กว่า ปาก	-0.7459666
-1.34733	กว่า ภาคกลาง	0
-0.9079973	กว่า หนึ่ง	-0.7310092
-1.34733	กว่า หัวเทียน	0
-1.0463	กว่า อีนิแอ็ก	0
-1.34733	กว่า แถบแม่เหล็ก	-0.4490925
-0.4586379	กว้าง </s>
-0.7596679	กว้าง กว่า	-0.6789989
-0.4586379	กว้าง มาก	-0.6532125
-0.6532125	กว้างขวาง </s>
-0.6532125	กว้างขวาง กุ๊กกิ๊ก	0.2552725
-0.4101745	กว้างขวาง ออกไป	-0.5228788
-0.09691001	กอ กุ้ง	-0.1760913
-0.90309	กอง </s>
-0.30103	กอง กุม	0
-1.20412	กอง ก้าง
-1.20412	กอง เก็บ
-0.1249387	กองวิทยาลัยเทคนิค </s>
-0.9777236	กอด </s>
-0.6766936	กอด กก	-0.4637573
-0.9777236	กอด กล้ามเนื้อ	0
-0.9777236	กอด กาย	0.2552725
-0.6766936	กอด การงาน	-0.2730013
-0.9777236	กอด ก้อน	-0.6320232
-0.39794	กอบ กอด	-0.6506653
-0.39794	กอบ กำ	0
-0.09691001	กอหญ้า </s>
-0.05115252	กะ กับ	-0.6750578
-0.5740313	กะทิ </s>
-0.5740313	กะทิ กะปิ	-0.5477023
-0.5740313	กะทิ กิ่งก้าน	0.2552725
-0.39794	กะท้อน </s>
-0.39794	กะท้อน กระทบ	-0.3309932
-0.5314789	กะปิ </s>
-0.3273589	กะปิ กระชาย	-0.5862657
-1.230449	กะปิ กา
-0.09691001	กะพริบ นี้	-0.6899688
-0.09691001	กะละมัง กระถาง	0
-0.09691001	กะละแม </s>
-0.05115252	กะลา ก้าว	-0.39794
-0.39794	กะเพราะ </s>
-0.39794	กะเพราะ กะปิ	-0.4227636
-0.09691001	กังฆา หวี	0
-0.60206	กังวล </s>
-0.60206	กังวล กังวาน
-0.60206	กังวาน </s>
-0.60206	กังวาน กึกก้อง
-0.544068	กังหัน </s>
-0.845098	กังหัน กลม
-0.845098	กังหัน กังวล
-0.5166298	กัด </s>
-0.7596679	กัด กาม	0.2552725
-0.7596679	กัด กิน	-0.5654311
-0.7596679	กัด บ่อยๆ	-0.3631779
-0.7596679	กัน </s>
-1.604766	กัน กาบ	0
-1.303736	กัน ก็	-0.8646317
-1.604766	กัน ก่ำ	0
-1.303736	กัน คือ	-0.9128498
-1.729705	กัน ดี	-0.5509075
-1.361728	กัน ที่	-0.9000484
-1.604766	กัน ประมาณ	-0.4771212
-1.729705	กัน พับ	-0.4259687
-1.303736	กัน มาก	-0.3657553
-1.604766	กัน อยู่	-0.6891272
-1.604766	กัน เกรง	-0.640978
-1.303736	กัน เก็บ	-0.5347779
-1.361728	กัน เป็น	-0.6469092
-1.604766	กัน แพร่หลาย	0
-1.165433	กัน ใน	-0.806713
-1.165433	กัน ได้	-0.9715179
-1.303736	กัน ไป	-0.9402881
-1.303736	กัน ไว้	-0.8481891
-0.09691001	กันสาด แป	-0.4771212
-1.447158	กับ </s>
-1.748188	กับ กง	-0.6139592
-1.308855	กับ กระดาษ	-1.001098
-1.174157	กับ การ	-0.7529087
-1.748188	กับ กู่	-0.4436975
-1.873127	กับ ความ	-0.575501
-1.748188	กับ ความถี่	-0.6590067
-1.748188	กับ ดั้งแขวน	0
-1.447158	กับ ทรานซิสเตอร์	-0.8336686
-1.748188	กับ นิกเกิล	0
-1.873127	กับ บั้นเอว	0
-1.873127	กับ บุตร	0
-1.873127	กับ ประชาชน	-0.5465426
-1.873127	กับ ผู้น้อย	0
-1.873127	กับ ผู้ใช้	-0.584801
-1.748188	กับ พื้น	-0.552842
-1.873127	กับ ภรรยา	0
-1.873127	กับ มี	-0.5980834
-1.50515	กับ ระบบ	-0.6361792
-1.873127	กับ ระยะทาง	0
-1.50515	กับ ร้านอาหาร	0
-1.873127	กับ ลักษณะ	-0.5805203
-1.873127	กับ วิธีใช้	-0.5177391
-1.50515	กับ ศูนย์สูตร	0
-1.873127	กับ สถานี	-0.5488145
-1.748188	กับ สภาพ	-0.5642715
-1.50515	กับ หมู่คณะ	0
-1.748188	กับ ออสเตรเลีย	0
-1.50515	กับ อัตรา	-0.79588
-1.50515	กับ อุปกรณ์	-0.8389724
-1.447158	กับ เครื่องพิมพ์	-0.7993405
-1.572097	กับ เครื่องไมโครคอมพิวเตอร์	-0.544068
-1.748188	กับ เรือนนอน	0
-1.873127	กับ เส้นลวดตัวนำ	-0.4881167
-1.748188	กับ แคลเซียม	-0.4771212
-1.447158	กับ โค	-0.5862657
-2.049218	กับ ไอเอฟ	-0.39794
-1.146128	กับข้าว </s>
-0.544068	กับข้าว กระจง	0
-1.146128	กับข้าว ก้อน
-0.544068	กับข้าว เก้าอี้	-0.6716038
-0.09691001	กัลปาวสาน กำจัด	-0.5898255
-0.544068	กั้ง </s>
-0.243038	กั้ง เก่ง	-0.8846066
-1.102662	กา </s>
-1.579784	กา กบ
-1.579784	กา กระติก
-0.9777236	กา กระทะ	-0.6197888
-0.6766936	กา การ	-0.9510667
-1.579784	กา กิ่ง
-0.9777236	กา ก็อกแก็ก	0
-0.6766936	กา เก้ง	-0.1823402
-1.290035	กาง </s>
-0.6879746	กาง กด	-0.8732092
-0.6879746	กาง กล	-0.8140638
-0.9890046	กาง กิ้งก่า	-0.2730013
-1.591065	กาง เกี้ยว
-0.6879746	กาง เก้ง	-0.6339073
-1.591065	กาง ไก่
-0.05115252	กางร่ม ก้อนกรวด	0
-0.4586379	กางเกง </s>
-0.4586379	กางเกง กล้อง	-0.5862657
-0.7596679	กางเกง ขา	0
-0.05115252	กางเขน </s>
-0.9542425	กางแขน </s>
-0.3521825	กางแขน กลุ้มใจ	0
-0.9542425	กางแขน โก่ง
-0.05115252	กาจญนบุรี กางร่ม	0
-0.60206	กาญจนบุรี </s>
-0.60206	กาญจนบุรี ไกล
-0.05115252	กาญจนะวรรณ เป็น	-0.9389578
-0.09691001	กาด เก่งกาจ	-0.5133334
-0.09691001	กานพลู กระเพา	0
-0.09691001	กาบ แกง	-0.6159958
-0.05115252	กาม กลม	-0.8006586
-0.05115252	กาย </s>
-2.438542	การ </s>
-2.137512	การ กด	-0.6179367
-2.137512	การ กนก	-0.3679768
-2.438542	การ กระจาย	0
-2.438542	การ กระทำ	0
-2.438542	การ กล	-0.634512
-2.137512	การ กลาง	0
-1.961421	การ กำหนด	-0.6947122
-2.438542	การ ก้าน	-0.5963076
-2.137512	การ ขยาย	-0.837737
-2.438542	การ ขอ	-0.5642715
-2.195504	การ ขาดแคลน	-0.6532125
-2.438542	การ ขาย	0
-2.195504	การ ควบคุม	-0.5847551
-1.739572	การ คำนวณ	0
-2.563481	การ คำนวน	0
-2.438542	การ ค้า	0
-2.438542	การ จัด	-0.5898255
-2.195504	การ จัดซื้อ	-0.5672979
-2.438542	การ จัดทำ	0
-2.137512	การ จัดลำดับ	0
-2.438542	การ ฉาย	0
-2.438542	การ ชง	-0.4771212
-2.137512	การ ชุบ	0
-2.438542	การ ดอง	0
-1.99921	การ ดำเนินงาน	-0.4027389
-2.438542	การ ดิสชาร์จ	0
-2.438542	การ ดึง	-0.4771212
-2.195504	การ ดุ	0
-2.438542	การ ตัดสินใจ	0
-2.438542	การ ตำ	0
-2.438542	การ ต้ม	-0.5228788
-2.438542	การ ถ่ายภาพ	0
-2.563481	การ ถ่ายเท	-0.359022
-1.836482	การ ทดลอง	-0.5463598
-2.195504	การ ทดสอบ	-0.672641
-2.137512	การ ทบทวน	0
-2.137512	การ ทรง	-0.7579479
-2.438542	การ ทำ	-0.585254
-1.78533	การ ทำงาน	-0.6837301
-1.961421	การ ที่	-0.7696247
-1.609239	การ นำ	-0.6813213
-1.961421	การ นำเสนอ	0
-2.438542	การ นำเอา	-0.4771212
-2.438542	การ บริหาร	0
-1.961421	การ บันทึก	-0.7103995
-2.438542	การ บูชา	-0.4436975
-2.137512	การ ปฏิบัติการ	-0.6210278
-2.137512	การ ประกอบ	-0.8624721
-2.438542	การ ประมวลผล	0
-2.438542	การ ประสานงาน	0
-2.438542	การ ประเมิน	0
-2.438542	การ ประเมินผล	0.4149733
-2.739572	การ ปรุง	-0.3521825
-2.137512	การ ปักดำ	0
-2.438542	การ ปั้น	0
-2.195504	การ ป้องกัน	-0.3521825
-2.040602	การ ป้อน	-0.5318601
-2.137512	การ ผลิต	-0.60206
-2.563481	การ ผสม	-0.5488145
-2.341632	การ ผิดพลาด	-0.4771213
-2.563481	การ ผ่า	0
-2.438542	การ พล็อต	0
-2.438542	การ พอก	-0.5392691
-1.407134	การ พัฒนา	-0.5826314
-2.195504	การ พิจารณา	-0.821785
-2.563481	การ พิมพ์	-0.5631419
-2.137512	การ ฟื้นฟู	0
-2.438542	การ ยอมรับ	-0.552842
-2.438542	การ ระบบ	-0.6819367
-1.460819	การ รักษา	-0.4127891
-2.438542	การ รับ	-0.6611814
-2.438542	การ ลดทอน	-0.4771212
-2.438542	การ วาง	-0.60206
-2.195504	การ วางแผน	-0.3521825
-1.625629	การ วิจัย	-0.4584676
-2.563481	การ วิเคราะห์	-0.5314789
-2.195504	การ ศึกษา	-0.4393327
-2.438542	การ สร้าง	-0.6661775
-2.438542	การ สอน	-0.4436975
-2.137512	การ สังเคราะห์	-0.2272438
-1.99921	การ สาธารณสุขมูลฐาน	0
-2.195504	การ สำรวจ	0
-2.438542	การ สืบค้น	-0.5963076
-1.99921	การ สูญเสีย	-0.659685
-2.563481	การ ส่ง	-0.4444522
-2.137512	การ ส่งเสริม	0
-2.438542	การ หยด	-0.4771212
-2.438542	การ หลงลืม	0
-2.137512	การ หา	-0.7168816
-2.195504	การ อธิบาย	-0.5672979
-1.38739	การ ออกแบบ	-0.256003
-2.438542	การ อาจารย์	0
-2.195504	การ อุปโภค	0
-2.563481	การ อ่าน	-0.2775489
-2.438542	การ เกษตร	0
-2.137512	การ เกเร	-0.69897
-2.040602	การ เขียน	-0.3928003
-2.438542	การ เข้าใจผิด	0
-2.563481	การ เคลือบ	-0.5351132
-2.262451	การ เคลื่อนที่	-0.7871061
-2.563481	การ เคลื่อนไหว	0
-2.137512	การ เชื่อมต่อ	-0.5862657
-1.926659	การ เตรียม	-0.8308576
-2.563481	การ เตือน	0
-2.438542	การ เบรค	0
-2.438542	การ เปรียบเทียบ	-0.5392691
-2.438542	การ เปลี่ยนแปลง	-0.5963076
-2.563481	การ เปล่ง	0
-1.761849	การ เพาะเลี้ยง	0
-1.961421	การ เรียน	-0.3979399
-2.438542	การ เลี้ยง	0
-1.99921	การ เลือก	-0.5698752
-2.195504	การ แก้ไข	-0.4393327
-2.438542	การ แปรเปลี่ยน	0
-1.961421	การ แพร่กระจาย	-0.4114425
-2.195504	การ แยกสลาย	0
-1.678874	การ แสดง	-0.9833508
-2.262451	การ โฆษณา	0
-2.438542	การ โต้ตอบ	0
-1.563481	การ ใช้	-0.6703332
-2.137512	การ ใส่	-0.8415382
-2.563481	การ ให้	-0.5699705
-2.563481	การ ให้บริการ	0
-2.195504	การ ไถ	0
-2.438542	การ ไว้	-0.6690068
-0.4259687	การงาน </s>
-0.60206	การงาน กลุ่มงาน	0.2552725
-1.20412	การงาน เก็บออม
-1.20412	การงาน ไก่
-0.544068	การบ้าน </s>
-0.845098	การบ้าน กลับหลังหัน
-0.845098	การบ้าน การงาน
-0.09691001	การสื่อสารแห่งประเทศไทย หรือ	-0.6866049
-0.5563025	การแพทย์ </s>
-0.2138798	การแพทย์ แผน	0
-0.09691001	กาว ก้าว	-0.5898255
-0.09691001	กำ </s>
-0.1249387	กำกับ การ	-0.5976872
-0.6532125	กำจัด กิเลส	-0.4436975
-0.7781513	กำจัด วัชพืช	-0.5118834
-0.7781513	กำจัด ออก	-0.5783222
-0.6532125	กำจัด อาจ	-0.6655462
-0.60206	กำบัง </s>
-0.60206	กำบัง กังหัน
-0.5862657	กำลัง </s>
-0.9542425	กำลัง ของ	-0.5996889
-0.8293038	กำลัง จะ	-0.6957648
-0.8293038	กำลัง ที่	-0.6972346
-0.8293038	กำลัง ไฟฟ้า	-0.640978
-0.05115252	กำลังส่ง ที่	-0.9507647
-0.7676858	กำหนด </s>
-1.010724	กำหนด ข้อ	-0.552842
-0.7096938	กำหนด ความถี่	-0.6264193
-1.135663	กำหนด นโยบาย	-0.4881167
-1.010724	กำหนด เก่งกาจ	-0.5133334
-1.010724	กำหนด เป้าหมาย	0
-1.010724	กำหนด ได้	-0.5913066
-0.09691001	กำเนิด ขึ้นมา	-0.6197888
-0.06694679	กำเริบ มากขึ้น	0.69897
-0.09691001	กำไลมือ ทำ	-0.6707897
-0.60206	กิจการ </s>
-0.60206	กิจการ กรรม
-0.60206	กิจจะลักษณะ </s>
-0.60206	กิจจะลักษณะ การงาน
-0.05115252	กิตติ งามเจตนรมณ์	0
-0.05115252	กิติพจน์ สิทธิเลิศพิศาล	0
-0.5772364	กิน </s>
-0.9294189	กิน กร	-0.5228788
-0.9294189	กิน กลัด	0
-1.832509	กิน กับข้าว
-1.832509	กิน กา
-0.8782664	กิน กาง	-0.4645685
-1.230449	กิน การ	-0.697385
-1.230449	กิน กาว	0
-1.832509	กิน กิ้งกือ
-1.230449	กิน และ	-0.6813049
-0.60206	กินข้าว </s>
-0.60206	กินข้าว กลับบ้าน
-0.05115252	กินอาหาร </s>
-0.09691001	กิเลศ </s>
-0.9542425	กิเลส </s>
-0.9542425	กิเลส กำบัง
-0.3521825	กิเลส เกียจคร้าน	0
-1.113943	กิ่ง </s>
-1.113943	กิ่ง ก้อน
-0.2108534	กิ่ง ก้าน	-0.4616091
-0.05115252	กิ่งก้าน แกว่ง	-0.4616091
-0.05115252	กิ่งไม้ ใบไม้แห้ง	0
-0.60206	กิ้งกือ </s>
-0.60206	กิ้งกือ กง
-0.20412	กิ้งก่า </s>
-0.90309	กิ้งก่า กา
-0.5314789	กิ๊ก </s>
-0.3273589	กิ๊ก กลม	-0.8732092
-1.230449	กิ๊ก กุ๊กกู๋
-0.09691001	กิ๊ง </s>
-0.09691001	กีรติกร </s>
-0.09691001	กีวี่ </s>
-0.60206	กีฬา </s>
-0.60206	กีฬา กิเลส
-0.3521825	กี่ </s>
-0.4771213	กี่ อย่าง	-0.5777007
-0.09691001	กี๋ แก้ว	-0.6679358
-0.60206	กึกก้อง </s>
-0.60206	กึกก้อง กระดุม
-0.39794	กึ่ง </s>
-0.39794	กึ่ง ตัวนำ	0
-0.05115252	กุน </s>
-0.05115252	กุม เกณฑ์	-0.5862657
-0.05115252	กุย กุน	0
-0.09691001	กุลา ไก่	-0.6780361
-0.05115252	กุลีกุจอ </s>
-0.5740313	กุหลาบ </s>
-0.5740313	กุหลาบ เกิด	-0.659906
-0.5740313	กุหลาบ แก้ว	-0.6679358
-0.154902	กุ้ง </s>
-1	กุ้ง ไก่
-0.05115252	กุ้งแห้ง กระจูด	0
-0.05115252	กุ๊กกิ๊ก กระเทย	0
-0.60206	กุ๊กกู๋ </s>
-0.60206	กุ๊กกู๋ ก่อนนอน
-0.05115252	กุ๊กไก่ ไก่	-0.632874
-0.09691001	กุ๊ย </s>
-0.3521825	กู่ กัน	-0.932108
-0.3521825	กู่ กู้	-0.3679768
-0.5740313	กู้ </s>
-0.5740313	กู้ กง	-0.6139592
-0.5740313	กู้ ก้าง	-0.39794
-1.469822	ก็ จ	0
-0.7294593	ก็ จะ	-0.7594595
-1.469822	ก็ ต้อง	-0.6839929
-1.469822	ก็ ถึง	-0.6667853
-1.594761	ก็ ถูก	-0.5843312
-1.226784	ก็ ทำ	-0.587023
-1.293731	ก็ มี	-0.8416918
-1.469822	ก็ ยัง	-0.677519
-0.9927008	ก็ สามารถ	-0.6254261
-1.168792	ก็ หาย	-0.7686059
-1.469822	ก็ อาจ	-0.6655462
-1.168792	ก็ เป็น	-0.9492071
-1.226784	ก็ เพราะ	-0.8718964
-1.030489	ก็ ได้	-0.7985155
-0.09691001	ก็อกแก็ก ก๋องแก๋ง	-0.4771212
-0.0211893	ก็ได้ </s>
-0.09691001	ก่น เกรง	-0.640978
-0.6197888	ก่อน </s>
-1.09691	ก่อน ก้อย	-0.4771212
-0.6197888	ก่อน ที่	-0.8146088
-0.9208187	ก่อน ปฏิบัติการ	-0.7403627
-1.09691	ก่อน ป้อน	-0.6722357
-0.9208187	ก่อน อาการ	-0.8016323
-0.60206	ก่อนนอน </s>
-0.60206	ก่อนนอน กังหัน
-0.05115252	ก่อนหลัง ใน	-0.8581712
-0.60206	ก่อเกิด </s>
-0.60206	ก่อเกิด เกิด
-0.09691001	ก่อไฟ เพื่อ	-0.6917013
-0.09691001	ก่ำ กิเลศ	0
-1.113943	ก้น </s>
-0.2108534	ก้น กล่อง	-0.5392691
-1.113943	ก้น กอง
-0.60206	ก้ม </s>
-0.60206	ก้ม กระดาษ
-0.30103	ก้อง </s>
-0.4771213	ก้อง เกลียด	0
-0.9700368	ก้อน </s>
-0.845098	ก้อน กลม	-0.6603406
-1.146128	ก้อน กิน
-0.845098	ก้อน ก๊อบแก๊บ	0
-1.447158	ก้อน เกลี่ย
-0.544068	ก้อน เกาะ	-0.5228788
-0.39794	ก้อนกรวด </s>
-0.39794	ก้อนกรวด กบิทร์บุรี	0.2552725
-0.09691001	ก้อนหิน ก้าวขา	0
-0.39794	ก้อย ก้าม	-0.4771212
-0.39794	ก้อย โก๊ะ	0
-0.60206	ก้าง </s>
-0.30103	ก้าง เก่ง	-0.6655462
-0.39794	ก้างปลา </s>
-0.39794	ก้างปลา กาง	-0.5992671
-1.278754	ก้าน </s>
-0.6766936	ก้าน กร	-0.6197888
-1.278754	ก้าน กล
-0.6766936	ก้าน กาด	0
-0.6766936	ก้าน ก้อย	-0.4771212
-0.05115252	ก้านยาว กลมกล่อม	0
-0.39794	ก้าม กระดอง	-0.4771212
-0.39794	ก้าม โกย	-0.4771212
-0.5563025	ก้าว </s>
-1.255273	ก้าว ก้าน
-0.6532125	ก้าว เกร็ง	0.2552725
-0.6532125	ก้าว แกม	0
-0.09691001	ก้าวขา กางแขน	-0.4436975
-0.3273589	ก้าวร้าว กุลีกุจอ	0
-0.3853509	ก้าวร้าว หยาบคาย	0
-0.39794	ก้าวหน้า </s>
-0.39794	ก้าวหน้า กุหลาบ	-0.5642715
-0.39794	ก๊อบ </s>
-0.39794	ก๊อบ แก๊บ	0.2552725
-0.09691001	ก๊อบแก๊บ กลับ	-0.5898255
-0.916454	ก๊าซ ของเหลว	0
-0.6734159	ก๊าซ ดิบ	-0.5672979
-1.217484	ก๊าซ ที่	-0.4484859
-1.041393	ก๊าซ ร้อน	-0.5578563
-0.6734159	ก๊าซ หรือ	-0.8922899
-0.916454	ก๊าซ เป็น	-0.6939346
-0.39794	ก๋องแก๋ง </s>
-0.39794	ก๋องแก๋ง กี๋	0
-0.4771213	ขณะ นั้น	-0.5889647
-0.3521825	ขณะ เปิด	-0.5898255
-0.3521825	ขณะที่ กระดาษ	-0.6764042
-0.4771213	ขณะที่ เขา	-0.5785789
-0.05799195	ขณะนี้ โครงการ	-0.826456
-0.09691001	ขน แตกต่าง	-0.4771212
-1.118099	ขนาด </s>
-1.243038	ขนาด ขั้วโลหะ	0
-1.544068	ขนาด ความกว้าง	0
-1.720159	ขนาด ความจุ	0
-1.419129	ขนาด ตะแกรง	0
-1.419129	ขนาด ตัว	-0.6917616
-1.118099	ขนาด ต่าง	0.1597008
-0.606216	ขนาด เล็ก	0.07463367
-1.419129	ขนาด และ	-0.6969287
-1.118099	ขนาด โต	-0.5862657
-0.69897	ขนาด ใหญ่	-0.6020599
-0.1249387	ขนาน </s>
-0.04139268	ขม มัน	-0.5642715
-0.4259687	ขมิ้น ทา	-0.4259687
-0.4259687	ขมิ้น มา	-0.5957198
-0.6283889	ขยาย กว่า	-0.9133375
-1.054358	ขยาย กำลัง	-0.4717262
-0.6283889	ขยาย ด้วย	-0.9327915
-0.6863809	ขยาย ตัว	-0.8903957
-1.054358	ขยาย ที่	-0.6007591
-0.09691001	ขลับ หรือ	-0.6928315
-0.09691001	ขลิบ ที่	-0.6972346
-0.1249387	ขวนขวาย แสวงหา	0
-0.09691001	ขวบ เท่านั้น	0.8920946
-0.09691001	ขวา </s>
-0.5740313	ขอ </s>
-0.5740313	ขอ ขอบพระคุณ	0
-0.5740313	ขอ งวดเงิน	0
-1.896054	ของ กรมอุตุนิยมวิทยา	0
-1.896054	ของ กระเบื้อง	-0.7781513
-1.418932	ของ การ	-0.7043787
-2.26403	ของ การแพทย์	-0.1918855
-2.139091	ของ ขน	0
-1.326178	ของ ข้อมูล	-0.7772182
-2.139091	ของ คณะกรรมการ	-0.5898255
-1.838062	ของ ความ	-0.9237532
-2.139091	ของ คำสั่ง	-0.5133334
-2.26403	ของ ชุด	-0.4820847
-1.838062	ของ ซอฟต์แวร์	0
-1.838062	ของ ดรัม	-0.8293038
-2.26403	ของ ดาวเทียม	0
-1.699759	ของ ดีมอส	0
-1.627208	ของ ตนเอง	-0.648665
-2.139091	ของ ตัว	-0.6917616
-1.963	ของ ตัวอักษร	-0.4881166
-2.139091	ของ ทบวงมหาวิทยาลัย	0
-2.26403	ของ ทรัพยากร	0
-1.963	ของ ทรานซิสเตอร์	-0.7245241
-1.838062	ของ ทุก	-0.8750613
-2.139091	ของ นักวิชาการ	0
-1.838062	ของ บทเรียน	-0.5228788
-2.139091	ของ บล๊อค	-0.5426228
-2.139091	ของ บุคลากร	0
-2.139091	ของ ประชาชน	-0.6232493
-2.139091	ของ ประสาท	0
-1.896054	ของ ประเทศ	-0.6892102
-1.963	ของ ผู้	-0.4444521
-2.26403	ของ ผู้ใช้	-0.584801
-1.963	ของ ฝา	-0.544068
-2.26403	ของ พนักงาน	0
-1.963	ของ ภาค	-0.8001309
-2.139091	ของ ภาควิชา	-0.5642715
-2.139091	ของ มนุษย์	0
-1.699759	ของ มอสเฟสกำลัง	0
-1.838062	ของ มือ	0
-1.838062	ของ รอยทาง	0
-2.139091	ของ รูปร่าง	-0.39794
-1.838062	ของ รูเจาะ	0
-2.139091	ของ ร่างกาย	0
-1.627208	ของ วงจร	-0.6630889
-1.838062	ของ วัตถุ	-0.5228788
-1.595024	ของ ศูนย์ฯ	-0.3802112
-2.26403	ของ สภาวะ	0
-1.838062	ของ สมุนไพร	-0.8909607
-1.838062	ของ สัญญาณ	-0.9123504
-1.699759	ของ สารตัวนำยิ่งยวด	-0.4027389
-1.896054	ของ สำนักงาน	0
-1.838062	ของ หน่วยงาน	-0.5563025
-2.440122	ของ หน่วยรังสีรักษา	0
-2.139091	ของ ห้องสมุดเอยูเอ	0
-2.139091	ของ อะตอม	0
-1.896054	ของ อาคาร	-0.5672979
-1.510703	ของ เขา	-0.6700938
-1.699759	ของ เครื่อง	-0.5190619
-2.139091	ของ เครื่องคอมพิวเตอร์	0
-2.139091	ของ เครื่องบิน	0
-2.26403	ของ เครื่องรับวิทยุ	-0.4259687
-2.139091	ของ เครื่องเสียง	0
-2.139091	ของ เตาเอพิแทกซี	0
-1.741152	ของ เรา	-0.7150995
-2.139091	ของ เรือน	0.20412
-1.838062	ของ เวิร์ดโปรเซสเซอร์	0
-2.26403	ของ แถบแม่เหล็ก	-0.3521825
-2.26403	ของ แนวโพลาไรช์	0
-1.963	ของ แฟ้ม	0
-2.26403	ของ แสง	-0.5383909
-1.699759	ของ โครงการ	-0.6793744
-1.896054	ของ โต๊ะงาน	0
-2.26403	ของ ไมโครคอนโทรเลอร	0
-1.963	ของ ไมโครคอมพิวเตอร์	-0.69897
-0.09691001	ของเหลว และ	-0.6948777
-0.09691001	ของแข็ง ก๊าซ	-0.642854
-0.09691001	ขอนแก่น </s>
-0.39794	ขอบ พรึง	0
-0.39794	ขอบ และ	-0.6969287
-0.09691001	ขอบพระคุณ ผู้สนับสนุน	0
-0.05799195	ขอม โบราณ	-0.672641
-0.09691001	ขะมุกขะมอม </s>
-0.09691001	ขัดยอก </s>
-0.09691001	ขัดแตะ </s>
-0.1249387	ขับ เสมหะ	0
-0.06694679	ขั้น บันได	-0.2167091
-0.7533277	ขั้นตอน </s>
-0.1512677	ขั้นตอน การ	-0.823612
-0.05799195	ขั้วโลก </s>
-0.03218468	ขั้วโลกเหนือ </s>
-0.06694679	ขั้วโลหะ ลง	-0.8202745
-0.09691001	ขา สั้น	-0.5228788
-0.6368221	ขาด ความรู้	-0.5228788
-0.2108534	ขาด อิเล็กตรอน	0
-0.3590219	ขาดแคลน น้ำ	-0.8330521
-0.3590219	ขาดแคลน บุคคลากร	0
-0.09691001	ขาย ใน	-0.6967255
-0.6368221	ขาว </s>
-0.2108534	ขาว ดำ	0
-0.09691001	ขีด ความ	-0.6782405
-0.6874902	ขึ้น </s>
-1.20412	ขึ้น จาก	-0.5888317
-1.447158	ขึ้น จึง	-0.6696146
-1.20412	ขึ้น บน	-0.5425142
-1.271067	ขึ้น อยู่	-0.8340091
-1.271067	ขึ้น อย่าง	-0.7949314
-1.146128	ขึ้น อีกครั้ง	0.1597008
-1.447158	ขึ้น เก็บ	-0.6655462
-1.447158	ขึ้น เป็น	-0.6964596
-1.572097	ขึ้น โดย	-0.5958111
-1.146128	ขึ้น ใน	-0.6944695
-1.447158	ขึ้น ใหม่	-0.5963076
-0.8731267	ขึ้น ได้	-1.096457
-0.4771213	ขึ้นมา </s>
-0.7781513	ขึ้นมา ด้วย	-0.6919367
-0.7781513	ขึ้นมา มี	-0.6967021
-0.7781513	ขึ้นมา ไม่	-0.6893719
-0.05115252	ขึ้นอยู่ กับ	-0.9241408
-0.3590219	ขึ้นไป </s>
-0.3590219	ขึ้นไป อาจ	-0.8427941
-0.39794	ขื่อ ลงมา	0
-0.39794	ขื่อ เป็น	-0.6964596
-0.1249387	ขูด เอา	-0.5785789
-0.09691001	ขโมย </s>
-0.6766936	ข่าย กระทรวงมหาดไทย	0
-0.6766936	ข่าย ผลึก	-0.4436975
-0.3756636	ข่าย วิทยุ	-0.5228788
-0.09691001	ข่าว </s>
-0.5740313	ข่าวสาร </s>
-0.5740313	ข่าวสาร ทาง	-0.6716038
-0.5740313	ข่าวสาร ไว้	-0.6690068
-0.243038	ข้อ 3.1	0
-0.544068	ข้อ นั้น	-0.6440386
-0.05115252	ข้อกำหนด ของ	-0.9478908
-0.05115252	ข้อความ สำหรับ	-0.916454
-0.1249387	ข้อจำกัด ของ	-0.5996889
-0.06694679	ข้อดี ที่	-0.8164627
-0.09691001	ข้อบกพร่อง อื่นๆ	-0.6506653
-0.1249387	ข้อผิดพลาด ใน	-0.6003778
-0.05799195	ข้อพระหัตถ์ </s>
-0.09691001	ข้อมือ แล	0
-1.367356	ข้อมูล </s>
-1.163236	ข้อมูล การ	-0.7738672
-1.325963	ข้อมูล ของ	-0.8009265
-1.765296	ข้อมูล ข่าว	0
-1.765296	ข้อมูล ข่าวสาร	-0.5642715
-1.890235	ข้อมูล ความ	-0.5965039
-1.367356	ข้อมูล จาก	-0.7584072
